{"learner":{"attributes":{},"feature_names":["avg_amount","std_amount","p90_amount","max_amount","tx_count","cash_out_ratio","balance_drain_ratio","times_balance_zero","times_near_limit","avg_days_between_limit_hits","tx_count_7d","freq_spike_ratio","late_night_ratio","amount_vs_avg_ratio","repeat_receiver_ratio","unique_receiver_count_7d","account_age_days","device_consistency","offline_tx_ratio","avg_offline_session_hours","days_since_last_sync","current_unsynced_amount","unsynced_amount_vs_avg_ratio","kyc_days_ago","balance_recovery_speed"],"feature_types":["float","float","float","float","float","float","float","float","float","float","float","float","float","float","float","float","float","float","float","float","float","float","float","float","float"],"gradient_booster":{"model":{"gbtree_model_param":{"num_parallel_tree":"1","num_trees":"400"},"iteration_indptr":[0,1,2,3,4,5,6,7,8,9,10,11,12,13,14,15,16,17,18,19,20,21,22,23,24,25,26,27,28,29,30,31,32,33,34,35,36,37,38,39,40,41,42,43,44,45,46,47,48,49,50,51,52,53,54,55,56,57,58,59,60,61,62,63,64,65,66,67,68,69,70,71,72,73,74,75,76,77,78,79,80,81,82,83,84,85,86,87,88,89,90,91,92,93,94,95,96,97,98,99,100,101,102,103,104,105,106,107,108,109,110,111,112,113,114,115,116,117,118,119,120,121,122,123,124,125,126,127,128,129,130,131,132,133,134,135,136,137,138,139,140,141,142,143,144,145,146,147,148,149,150,151,152,153,154,155,156,157,158,159,160,161,162,163,164,165,166,167,168,169,170,171,172,173,174,175,176,177,178,179,180,181,182,183,184,185,186,187,188,189,190,191,192,193,194,195,196,197,198,199,200,201,202,203,204,205,206,207,208,209,210,211,212,213,214,215,216,217,218,219,220,221,222,223,224,225,226,227,228,229,230,231,232,233,234,235,236,237,238,239,240,241,242,243,244,245,246,247,248,249,250,251,252,253,254,255,256,257,258,259,260,261,262,263,264,265,266,267,268,269,270,271,272,273,274,275,276,277,278,279,280,281,282,283,284,285,286,287,288,289,290,291,292,293,294,295,296,297,298,299,300,301,302,303,304,305,306,307,308,309,310,311,312,313,314,315,316,317,318,319,320,321,322,323,324,325,326,327,328,329,330,331,332,333,334,335,336,337,338,339,340,341,342,343,344,345,346,347,348,349,350,351,352,353,354,355,356,357,358,359,360,361,362,363,364,365,366,367,368,369,370,371,372,373,374,375,376,377,378,379,380,381,382,383,384,385,386,387,388,389,390,391,392,393,394,395,396,397,398,399,400],"tree_info":[0,0,0,0,0,0,0,0,0,0,0,0,0,0,0,0,0,0,0,0,0,0,0,0,0,0,0,0,0,0,0,0,0,0,0,0,0,0,0,0,0,0,0,0,0,0,0,0,0,0,0,0,0,0,0,0,0,0,0,0,0,0,0,0,0,0,0,0,0,0,0,0,0,0,0,0,0,0,0,0,0,0,0,0,0,0,0,0,0,0,0,0,0,0,0,0,0,0,0,0,0,0,0,0,0,0,0,0,0,0,0,0,0,0,0,0,0,0,0,0,0,0,0,0,0,0,0,0,0,0,0,0,0,0,0,0,0,0,0,0,0,0,0,0,0,0,0,0,0,0,0,0,0,0,0,0,0,0,0,0,0,0,0,0,0,0,0,0,0,0,0,0,0,0,0,0,0,0,0,0,0,0,0,0,0,0,0,0,0,0,0,0,0,0,0,0,0,0,0,0,0,0,0,0,0,0,0,0,0,0,0,0,0,0,0,0,0,0,0,0,0,0,0,0,0,0,0,0,0,0,0,0,0,0,0,0,0,0,0,0,0,0,0,0,0,0,0,0,0,0,0,0,0,0,0,0,0,0,0,0,0,0,0,0,0,0,0,0,0,0,0,0,0,0,0,0,0,0,0,0,0,0,0,0,0,0,0,0,0,0,0,0,0,0,0,0,0,0,0,0,0,0,0,0,0,0,0,0,0,0,0,0,0,0,0,0,0,0,0,0,0,0,0,0,0,0,0,0,0,0,0,0,0,0,0,0,0,0,0,0,0,0,0,0,0,0,0,0,0,0,0,0,0,0,0,0,0,0,0,0,0,0,0,0,0,0,0,0,0,0,0,0,0,0,0,0,0,0,0,0,0,0,0,0,0,0,0,0,0,0,0,0,0,0,0,0,0,0,0,0],"trees":[{"base_weights":[-1.472003E3,-6.735816E4,1.5025268E6,-1.5225173E5,2.315119E5,1.1106562E6,2.5275485E6,-2.0146428E5,-4.6219125E4,4.3933172E5,1.4314939E5,9.107062E5,7.012005E4,1.0290902E5,1.559057E5,-1.5593252E5,-2.2063962E5,-8.331354E4,-1.8522607E3,1.7239912E4,2.7438756E4,1.0059453E5,2.205218E5,3.667429E4,5.0291805E4,-8.59887E3,-6.895075E3,-1.1417267E4,-1.0139971E4,-9.8280984E4,-5.596829E4,-2.207215E4,1.791345E4,7.06169E4,1.280541E5,2.4317486E5,8.803545E3,-5.4524253E3,-4.346821E3,-6.1504395E4,-4.5294914E4,-2.5545018E4,-7.9469507E3,7.478934E3,2.952926E4,3.272143E2,7.325949E4,7.2622705E3,1.1253333E5,1.07698E4,1.3170424E4,-3.1326218E3,-1.914276E3,-2.4171653E3,-1.598102E3,-1.1156478E3,-1.7675969E3,-6.477602E2,7.625547E1,1.4743303E2,7.4509985E2,1.2338031E3,2.0114828E3,3.0044275E3,4.1584507E3,6.0727744E3,4.7395317E3],"categories":[],"categories_nodes":[],"categories_segments":[],"categories_sizes":[],"default_left":[0,0,0,0,0,0,0,0,0,0,0,0,0,0,0,0,0,0,0,0,0,0,0,0,0,0,0,0,0,0,0,0,0,0,0,0,0,0,0,0,0,0,0,0,0,0,0,0,0,0,0,0,0,0,0,0,0,0,0,0,0,0,0,0,0,0,0],"id":0,"left_children":[1,3,5,7,9,11,13,15,17,19,21,23,-1,-1,-1,25,27,29,31,-1,-1,33,35,-1,-1,-1,-1,-1,-1,37,39,41,43,45,47,49,-1,-1,-1,51,53,55,57,59,61,-1,63,-1,65,-1,-1,-1,-1,-1,-1,-1,-1,-1,-1,-1,-1,-1,-1,-1,-1,-1,-1],"loss_changes":[3.1402684E14,7.70651E13,5.0615653E13,1.2331577E13,1.2277374E13,4.4395953E12,3.5612996E12,1.375631E12,1.2358133E12,1.8799961E12,1.5352033E12,2.9062752E11,0E0,0E0,0E0,1.15730285E11,1.0958039E11,1.6189856E11,1.3747893E11,0E0,0E0,2.436715E11,1.2534363E11,0E0,0E0,0E0,0E0,0E0,0E0,2.2645834E10,5.900239E9,8.1363436E9,2.0868882E10,2.474895E10,2.6079658E10,3.9662387E9,0E0,0E0,0E0,1.0702029E8,6.496092E8,3.5219292E9,1.6801047E9,3.0835103E9,3.2656425E9,0E0,1.366655E10,0E0,2.4178852E9,0E0,0E0,0E0,0E0,0E0,0E0,0E0,0E0,0E0,0E0,0E0,0E0,0E0,0E0,0E0,0E0,0E0,0E0],"parents":[2147483647,0,0,1,1,2,2,3,3,4,4,5,5,6,6,7,7,8,8,9,9,10,10,11,11,15,15,16,16,17,17,18,18,21,21,22,22,29,29,30,30,31,31,32,32,33,33,34,34,35,35,39,39,40,40,41,41,42,42,43,43,44,44,46,46,48,48],"right_children":[2,4,6,8,10,12,14,16,18,20,22,24,-1,-1,-1,26,28,30,32,-1,-1,34,36,-1,-1,-1,-1,-1,-1,38,40,42,44,46,48,50,-1,-1,-1,52,54,56,58,60,62,-1,64,-1,66,-1,-1,-1,-1,-1,-1,-1,-1,-1,-1,-1,-1,-1,-1,-1,-1,-1,-1],"split_conditions":[9.592668E5,2.9154325E5,1.9710066E6,1.25320234E5,2.8831707E-2,1.4472411E6,2.742941E6,2.6858294E-1,2.025587E5,6.6474844E5,4.1667906E5,1.1533295E6,7.012005E4,1.0290902E5,1.559057E5,8.969014E4,2.9661016E4,1.7320666E5,2.4204769E5,1.7239912E4,2.7438756E4,3.4490488E5,3.399953E-2,3.667429E4,5.0291805E4,-8.59887E3,-6.895075E3,-1.1417267E4,-1.0139971E4,1.4526895E5,1.9029939E5,2.3342722E5,2.6248106E5,2.6877228E5,4.041359E-2,4.832758E5,8.803545E3,-5.4524253E3,-4.346821E3,1.006468E0,6.7114094E-3,7.2365016E-2,1.0019068E0,2.5581873E5,1.1743455E0,3.272143E2,3.1293838E5,7.2622705E3,3.86E2,1.07698E4,1.3170424E4,-3.1326218E3,-1.914276E3,-2.4171653E3,-1.598102E3,-1.1156478E3,-1.7675969E3,-6.477602E2,7.625547E1,1.4743303E2,7.4509985E2,1.2338031E3,2.0114828E3,3.0044275E3,4.1584507E3,6.0727744E3,4.7395317E3],"split_indices":[0,3,0,2,22,2,0,22,3,0,2,2,0,0,0,2,2,2,3,0,0,3,22,0,0,0,0,0,0,0,2,2,0,0,22,2,0,0,0,13,14,22,13,2,20,0,2,0,23,0,0,0,0,0,0,0,0,0,0,0,0,0,0,0,0,0,0],"split_type":[0,0,0,0,0,0,0,0,0,0,0,0,0,0,0,0,0,0,0,0,0,0,0,0,0,0,0,0,0,0,0,0,0,0,0,0,0,0,0,0,0,0,0,0,0,0,0,0,0,0,0,0,0,0,0,0,0,0,0,0,0,0,0,0,0,0,0],"sum_hessian":[3.167E3,3.035E3,1.32E2,2.364E3,6.71E2,9.7E1,3.5E1,1.614E3,7.5E2,1.99E2,4.72E2,6E1,3.7E1,2.2E1,1.3E1,4.81E2,1.133E3,4.08E2,3.42E2,1.09E2,9E1,3.06E2,1.66E2,2.4E1,3.6E1,2.5E2,2.31E2,7.83E2,3.5E2,2.62E2,1.46E2,1.69E2,1.73E2,1.48E2,1.58E2,1.07E2,5.9E1,1.3E2,1.32E2,9.3E1,5.3E1,1.35E2,3.4E1,9.2E1,8.1E1,6E0,1.42E2,7.1E1,8.7E1,5E1,5.7E1,8.7E1,6E0,4.1E1,1.2E1,1.04E2,3.1E1,2.2E1,1.2E1,5.8E1,3.4E1,5.8E1,2.3E1,6.4E1,7.8E1,5.4E1,3.3E1],"tree_param":{"num_deleted":"0","num_feature":"25","num_nodes":"67","size_leaf_vector":"1"}},{"base_weights":[3.498915E3,-6.2653348E4,1.5229698E6,-1.4580803E5,2.2572483E5,1.1169931E6,2.3967962E6,-1.9302834E5,-5.0272383E4,1.393011E5,4.4741906E5,4.598993E4,6.7517555E4,9.962246E4,1.5171453E5,-2.1112133E5,-1.54387E5,-8.904385E4,-8.590824E3,1.0091173E5,2.2906156E5,1.7496041E4,5.637414E5,-1.089775E4,-9.812739E3,-8.504607E3,-1.3991781E5,-1.0319427E5,-6.875662E4,-2.8609506E4,1.5180394E4,6.8771375E4,1.2898804E5,1.0002924E4,1.3106304E4,2.4073525E4,3.0585078E4,-7.3643384E3,-6.422066E3,-5.7072144E3,-4.6851133E3,-3.883834E3,-2.9172686E3,-3.873204E4,-1.933891E4,-1.1813737E2,2.583053E4,5.9965637E4,4.3207534E3,1.1655711E5,7.4880894E3,-1.1071423E3,-2.040677E3,-1.227958E3,-6.343915E2,-1.5526413E2,6.8388873E2,1.1113783E3,3.9886665E3,2.3114163E3,3.179062E3,4.32682E3,6.052527E3],"categories":[],"categories_nodes":[],"categories_segments":[],"categories_sizes":[],"default_left":[0,0,0,0,0,0,0,0,0,0,0,0,0,0,0,0,0,0,0,0,0,0,0,0,0,0,0,0,0,0,0,0,0,0,0,0,0,0,0,0,0,0,0,0,0,0,0,0,0,0,0,0,0,0,0,0,0,0,0,0,0,0,0],"id":1,"left_children":[1,3,5,7,9,11,13,15,17,19,21,-1,-1,-1,-1,23,25,27,29,31,33,-1,35,-1,-1,-1,37,39,41,43,45,47,49,-1,-1,-1,-1,-1,-1,-1,-1,-1,-1,51,53,55,57,59,-1,61,-1,-1,-1,-1,-1,-1,-1,-1,-1,-1,-1,-1,-1],"loss_changes":[3.180289E14,7.274025E13,4.4150217E13,1.0609718E13,1.2947072E13,2.9915034E12,4.522852E12,1.0685451E12,1.259758E12,1.6653505E12,1.9575656E12,0E0,0E0,0E0,0E0,6.592607E10,9.118522E10,1.088823E11,1.798367E11,3.02451E11,8.75692E10,0E0,4.0871395E10,0E0,0E0,0E0,3.8314967E9,1.3833601E10,1.1162812E10,1.8488574E10,2.8190183E10,2.0142752E10,2.980184E10,0E0,0E0,0E0,0E0,0E0,0E0,0E0,0E0,0E0,0E0,2.4457052E9,3.4729083E9,3.0096218E9,1.8050929E10,2.6236355E9,0E0,5.577376E9,0E0,0E0,0E0,0E0,0E0,0E0,0E0,0E0,0E0,0E0,0E0,0E0,0E0],"parents":[2147483647,0,0,1,1,2,2,3,3,4,4,5,5,6,6,7,7,8,8,9,9,10,10,15,15,16,16,17,17,18,18,19,19,20,20,22,22,26,26,27,27,28,28,29,29,30,30,31,31,32,32,43,43,44,44,45,45,46,46,47,47,49,49],"right_children":[2,4,6,8,10,12,14,16,18,20,22,-1,-1,-1,-1,24,26,28,30,32,34,-1,36,-1,-1,-1,38,40,42,44,46,48,50,-1,-1,-1,-1,-1,-1,-1,-1,-1,-1,52,54,56,58,60,-1,62,-1,-1,-1,-1,-1,-1,-1,-1,-1,-1,-1,-1,-1],"split_conditions":[1.0234177E6,2.8331375E5,1.9710066E6,1.1687933E5,5.5335575E5,1.4472411E6,2.742941E6,5.0502652E4,1.9029939E5,4.2536106E5,6.8703925E5,4.598993E4,6.7517555E4,9.962246E4,1.5171453E5,2.6694521E4,7.967372E4,1.5706802E5,2.3631316E5,3.4579006E5,4.838235E5,1.7496041E4,7.933666E5,-1.089775E4,-9.812739E3,-8.504607E3,1.0048141E5,1.3565223E5,1.7320666E5,2.1001478E5,2.5581873E5,3.2571038E5,3.9722172E5,1.0002924E4,1.3106304E4,2.4073525E4,3.0585078E4,-7.3643384E3,-6.422066E3,-5.7072144E3,-4.6851133E3,-3.883834E3,-2.9172686E3,9.606947E0,2.2605389E5,9.4E1,2.9111238E5,2.9523575E5,4.3207534E3,5.678976E-1,7.4880894E3,-1.1071423E3,-2.040677E3,-1.227958E3,-6.343915E2,-1.5526413E2,6.8388873E2,1.1113783E3,3.9886665E3,2.3114163E3,3.179062E3,4.32682E3,6.052527E3],"split_indices":[0,0,0,2,2,2,0,0,2,0,0,0,0,0,0,2,2,2,2,2,0,0,0,0,0,0,2,2,2,0,2,2,2,0,0,0,0,0,0,0,0,0,0,19,2,4,2,2,0,20,0,0,0,0,0,0,0,0,0,0,0,0,0],"split_type":[0,0,0,0,0,0,0,0,0,0,0,0,0,0,0,0,0,0,0,0,0,0,0,0,0,0,0,0,0,0,0,0,0,0,0,0,0,0,0,0,0,0,0,0,0,0,0,0,0,0,0,0,0,0,0,0,0,0,0,0,0,0,0],"sum_hessian":[3.162E3,3.031E3,1.31E2,2.353E3,6.78E2,9.1E1,4E1,1.574E3,7.79E2,4.89E2,1.89E2,5.2E1,3.9E1,2.7E1,1.3E1,1.069E3,5.05E2,4.03E2,3.76E2,3.44E2,1.45E2,1.05E2,8.4E1,7.23E2,3.46E2,2.37E2,2.68E2,2.35E2,1.68E2,2.04E2,1.72E2,1.62E2,1.82E2,8.1E1,6.4E1,3.5E1,4.9E1,1.56E2,1.12E2,1.04E2,1.31E2,8.7E1,8.1E1,9.6E1,1.08E2,7.1E1,1.01E2,1.11E2,5.1E1,1.18E2,6.4E1,1.2E1,8.4E1,5.9E1,4.9E1,5.9E1,1.2E1,9.6E1,5E0,2.6E1,8.5E1,1.8E1,1E2],"tree_param":{"num_deleted":"0","num_feature":"25","num_nodes":"63","size_leaf_vector":"1"}},{"base_weights":[1.7130106E3,1.382238E6,-6.226422E4,1.0336498E6,2.258488E6,-1.3626056E5,2.0839153E5,6.1286043E4,4.046908E4,9.354916E4,1.3768819E5,-1.828632E5,-4.560058E4,1.3027106E5,4.1121503E5,-1.4427584E5,-1.9941489E5,-8.129769E4,-6.06627E3,2.0833067E5,9.445306E4,2.5549416E4,1.5724854E4,-6.3896753E3,-7.776829E3,-1.031532E4,-9.208803E3,-9.786892E4,-6.224856E4,-2.45708E4,1.6644867E4,1.1265373E4,7.8642563E3,6.7491414E4,1.2034557E5,-4.464093E3,-5.3252183E3,-6.40149E4,-8.8250433E2,-3.5189336E4,-1.7186824E4,2.2953875E4,4.6848203E3,7.887635E4,5.690105E4,5.468228E3,6.769398E3,-3.7368906E3,-2.8328496E3,-1.964457E3,-1.3113367E3,-1.0705292E3,-3.7324442E2,2.8549448E3,9.542233E2,1.3228671E2,1.00184766E3,2.6464424E3,4.1489297E3,4.065108E3,2.6521602E3],"categories":[],"categories_nodes":[],"categories_segments":[],"categories_sizes":[],"default_left":[0,0,0,0,0,0,0,0,0,0,0,0,0,0,0,0,0,0,0,0,0,0,0,0,0,0,0,0,0,0,0,0,0,0,0,0,0,0,0,0,0,0,0,0,0,0,0,0,0,0,0,0,0,0,0,0,0,0,0,0,0],"id":2,"left_children":[1,3,5,7,9,11,13,-1,-1,-1,-1,15,17,19,21,23,25,27,29,31,33,-1,-1,-1,-1,-1,-1,35,37,39,41,-1,-1,43,45,-1,-1,47,-1,49,51,53,55,57,59,-1,-1,-1,-1,-1,-1,-1,-1,-1,-1,-1,-1,-1,-1,-1,-1],"loss_changes":[2.7918408E14,4.0428577E13,6.053158E13,3.4016225E12,2.3326873E12,1.0017575E13,1.022962E13,0E0,0E0,0E0,0E0,9.720509E11,1.1383941E12,1.2944141E12,1.5762719E12,6.809977E10,7.6894175E10,1.277509E11,1.6178841E11,9.19512E10,2.1806344E11,0E0,0E0,0E0,0E0,0E0,0E0,7.1755366E9,1.4625407E10,1.6017506E10,1.2946358E10,0E0,0E0,1.4923727E10,1.2283019E10,0E0,0E0,1.0914038E10,0E0,2.1296415E9,5.055185E9,1.383997E10,1.8565512E9,3.5912745E9,3.8772736E9,0E0,0E0,0E0,0E0,0E0,0E0,0E0,0E0,0E0,0E0,0E0,0E0,0E0,0E0,0E0,0E0],"parents":[2147483647,0,0,1,1,2,2,3,3,4,4,5,5,6,6,11,11,12,12,13,13,14,14,15,15,16,16,17,17,18,18,19,19,20,20,27,27,28,28,29,29,30,30,33,33,34,34,37,37,39,39,40,40,41,41,42,42,43,43,44,44],"right_children":[2,4,6,8,10,12,14,-1,-1,-1,-1,16,18,20,22,24,26,28,30,32,34,-1,-1,-1,-1,-1,-1,36,38,40,42,-1,-1,44,46,-1,-1,48,-1,50,52,54,56,58,60,-1,-1,-1,-1,-1,-1,-1,-1,-1,-1,-1,-1,-1,-1,-1,-1],"split_conditions":[1.5636927E-2,1.9710066E6,2.8331375E5,1.1307479E-2,2.742941E6,1.17647086E5,5.312933E5,6.1286043E4,4.046908E4,9.354916E4,1.3768819E5,2.7546963E-1,1.8995039E5,3.5983216E-2,2.2564892E-2,1.700944E-1,2.7619418E4,1.5500778E5,2.3675373E5,3.399953E-2,3.4092966E5,2.5549416E4,1.5724854E4,-6.3896753E3,-7.776829E3,-1.031532E4,-9.208803E3,1.123906E-1,8.510638E-2,2.1001478E5,5.9381936E-2,1.1265373E4,7.8642563E3,4.807644E-2,3.8367934E5,-4.464093E3,-5.3252183E3,1.6767519E5,-8.8250433E2,4.9E2,1.2994231E3,1.5E1,1.1572981E1,4.3197054E-2,1.2E1,5.468228E3,6.769398E3,-3.7368906E3,-2.8328496E3,-1.964457E3,-1.3113367E3,-1.0705292E3,-3.7324442E2,2.8549448E3,9.542233E2,1.3228671E2,1.00184766E3,2.6464424E3,4.1489297E3,4.065108E3,2.6521602E3],"split_indices":[22,0,0,22,0,0,0,0,0,0,0,22,0,22,22,22,0,0,0,22,0,0,0,0,0,0,0,22,14,0,22,0,0,22,0,0,0,0,0,23,1,8,24,18,8,0,0,0,0,0,0,0,0,0,0,0,0,0,0,0,0],"split_type":[0,0,0,0,0,0,0,0,0,0,0,0,0,0,0,0,0,0,0,0,0,0,0,0,0,0,0,0,0,0,0,0,0,0,0,0,0,0,0,0,0,0,0,0,0,0,0,0,0,0,0,0,0,0,0,0,0,0,0,0,0],"sum_hessian":[3.159E3,1.39E2,3.02E3,1.01E2,3.8E1,2.372E3,6.48E2,5.2E1,4.9E1,2.4E1,1.4E1,1.566E3,8.06E2,4.69E2,1.79E2,4.73E2,1.093E3,4.23E2,3.83E2,1.46E2,3.23E2,8.6E1,9.3E1,1.97E2,2.76E2,7.44E2,3.49E2,2.24E2,1.99E2,2.11E2,1.72E2,1.07E2,3.9E1,1.6E2,1.63E2,1.18E2,1.06E2,1.91E2,8E0,8.5E1,1.26E2,1.12E2,6E1,7.4E1,8.6E1,9.9E1,6.4E1,7.4E1,1.17E2,5.6E1,2.9E1,8.7E1,3.9E1,1E1,1.02E2,5.4E1,6E0,1.2E1,6.2E1,9E0,7.7E1],"tree_param":{"num_deleted":"0","num_feature":"25","num_nodes":"61","size_leaf_vector":"1"}},{"base_weights":[2.6873523E3,1.3387645E6,-5.8303586E4,9.716596E5,2.163467E6,1.7809967E5,-1.3522758E5,7.8399175E5,6.1208914E4,8.942508E4,1.3595858E5,3.7994034E5,1.0623916E5,-1.7680903E5,-5.669486E4,4.0522793E4,2.0757516E4,2.461462E4,3.0468162E5,6.0956203E4,1.6816872E5,-1.4435352E5,-1.9068702E5,-8.430056E4,-1.6343498E4,1.3565273E4,1.7155498E4,3.2664475E4,7.768428E4,1.3582447E5,2.0767286E5,-7.802976E3,-6.5539854E3,-9.87039E3,-8.96671E3,-1.0240994E5,-6.702976E4,-2.8085941E4,4.4935522E3,2.5145438E4,4.842591E4,6.1478195E4,9.134684E4,6.045154E3,7.500551E3,9.184624E3,1.1225952E4,-5.350394E3,-4.521867E3,-7.398767E4,-2.688772E3,-2.0396104E4,-3.7018105E4,-1.3763555E3,1.3390144E4,1.3305704E3,8.2629814E1,2.7133865E3,1.6508597E3,2.5644985E3,3.3977634E3,4.7732046E3,3.1967063E3,-3.9173633E3,-3.3180176E3,-1.2371077E3,-7.64206E2,-1.9295604E3,-7.543361E2,-2.2671837E2,3.254512E2,1.1976952E3,1.5679407E2],"categories":[],"categories_nodes":[],"categories_segments":[],"categories_sizes":[],"default_left":[0,0,0,0,0,0,0,0,0,0,0,0,0,0,0,0,0,0,0,0,0,0,0,0,0,0,0,0,0,0,0,0,0,0,0,0,0,0,0,0,0,0,0,0,0,0,0,0,0,0,0,0,0,0,0,0,0,0,0,0,0,0,0,0,0,0,0,0,0,0,0,0,0],"id":3,"left_children":[1,3,5,7,9,11,13,15,-1,-1,-1,17,19,21,23,-1,-1,-1,25,27,29,31,33,35,37,-1,-1,39,41,43,45,-1,-1,-1,-1,47,49,51,53,55,57,59,61,-1,-1,-1,-1,-1,-1,63,-1,65,67,69,71,-1,-1,-1,-1,-1,-1,-1,-1,-1,-1,-1,-1,-1,-1,-1,-1,-1,-1],"loss_changes":[2.5945624E14,3.998044E13,5.539766E13,3.684436E12,3.8882876E12,1.080891E13,7.4941056E12,2.3943604E11,0E0,0E0,0E0,1.5072798E12,1.5405558E12,6.4900144E11,8.8642263E11,0E0,0E0,0E0,6.082475E10,1.4938105E11,2.69505E11,5.008838E10,4.4635783E10,1.410728E11,7.964652E10,0E0,0E0,1.3122118E10,3.888893E10,9.593684E9,3.670016E8,0E0,0E0,0E0,0E0,2.9286728E9,1.8615763E10,1.3531857E10,6.180646E9,2.8489646E9,1.628799E9,2.7836088E9,5.973082E9,0E0,0E0,0E0,0E0,0E0,0E0,5.472256E7,0E0,2.1545656E9,2.6953155E9,1.822467E9,5.0160906E9,0E0,0E0,0E0,0E0,0E0,0E0,0E0,0E0,0E0,0E0,0E0,0E0,0E0,0E0,0E0,0E0,0E0,0E0],"parents":[2147483647,0,0,1,1,2,2,3,3,4,4,5,5,6,6,7,7,11,11,12,12,13,13,14,14,18,18,19,19,20,20,21,21,22,22,23,23,24,24,27,27,28,28,29,29,30,30,35,35,36,36,37,37,38,38,39,39,40,40,41,41,42,42,49,49,51,51,52,52,53,53,54,54],"right_children":[2,4,6,8,10,12,14,16,-1,-1,-1,18,20,22,24,-1,-1,-1,26,28,30,32,34,36,38,-1,-1,40,42,44,46,-1,-1,-1,-1,48,50,52,54,56,58,60,62,-1,-1,-1,-1,-1,-1,64,-1,66,68,70,72,-1,-1,-1,-1,-1,-1,-1,-1,-1,-1,-1,-1,-1,-1,-1,-1,-1,-1],"split_conditions":[1.5636927E-2,1.9710066E6,5.786746E-2,1.4472411E6,2.742941E6,2.8831707E-2,1.0802436E5,9.714286E-1,6.1208914E4,8.942508E4,1.3595858E5,2.183278E-2,3.7816078E5,3.1142446E-1,1.9029939E5,4.0522793E4,2.0757516E4,2.461462E4,6.1645844E5,3.0558888E5,4.411816E5,7.745395E4,2.4331568E4,1.4361639E5,2.3342722E5,1.3565273E4,1.7155498E4,2.9154325E5,3.35747E5,4.1808228E5,4.832758E5,-7.802976E3,-6.5539854E3,-9.87039E3,-8.96671E3,1.3330778E5,1.743311E5,7.2365016E-2,2.5276225E5,6.39E2,4.07E2,1.3032901E-1,6.42E2,6.045154E3,7.500551E3,9.184624E3,1.1225952E4,-5.350394E3,-4.521867E3,1.631386E5,-2.688772E3,2.2397228E5,6.5675116E-1,1.0042139E0,9.9901533E-1,1.3305704E3,8.2629814E1,2.7133865E3,1.6508597E3,2.5644985E3,3.3977634E3,4.7732046E3,3.1967063E3,-3.9173633E3,-3.3180176E3,-1.2371077E3,-7.64206E2,-1.9295604E3,-7.543361E2,-2.2671837E2,3.254512E2,1.1976952E3,1.5679407E2],"split_indices":[22,0,22,2,0,22,2,5,0,0,0,22,2,22,2,0,0,0,2,3,0,3,2,0,2,0,0,3,3,3,2,0,0,0,0,2,3,22,2,23,23,18,23,0,0,0,0,0,0,3,0,2,18,13,13,0,0,0,0,0,0,0,0,0,0,0,0,0,0,0,0,0,0],"split_type":[0,0,0,0,0,0,0,0,0,0,0,0,0,0,0,0,0,0,0,0,0,0,0,0,0,0,0,0,0,0,0,0,0,0,0,0,0,0,0,0,0,0,0,0,0,0,0,0,0,0,0,0,0,0,0,0,0,0,0,0,0,0,0,0,0,0,0,0,0,0,0,0,0],"sum_hessian":[3.182E3,1.38E2,3.044E3,9.7E1,4.1E1,7.47E2,2.297E3,5.8E1,3.9E1,2.7E1,1.4E1,1.95E2,5.52E2,1.501E3,7.96E2,5.3E1,5E0,7.6E1,1.19E2,3.2E2,2.32E2,4.53E2,1.048E3,4.72E2,3.24E2,6.8E1,5.1E1,1.2E2,2E2,1.3E2,1.02E2,2.35E2,2.18E2,6.48E2,4E2,2.28E2,2.44E2,2.07E2,1.17E2,8.3E1,3.7E1,9.4E1,1.06E2,6.8E1,6.2E1,4.7E1,5.5E1,1.59E2,6.9E1,1.57E2,8.7E1,1.13E2,9.4E1,7.1E1,4.6E1,7.8E1,5E0,2.5E1,1.2E1,4E1,5.4E1,9E1,1.6E1,9.4E1,6.3E1,5.9E1,5.4E1,8.7E1,7E0,5.1E1,2E1,2.2E1,2.4E1],"tree_param":{"num_deleted":"0","num_feature":"25","num_nodes":"73","size_leaf_vector":"1"}},{"base_weights":[-1.2757332E3,-5.4098418E4,1.3035401E6,-1.241806E5,1.9735517E5,1.03605256E6,1.135957E5,-1.6585175E5,-4.1615812E4,1.2412396E5,3.937059E5,8.0582744E5,6.710413E4,-1.8072212E5,-1.3203977E5,-7.619022E4,-6.418749E3,8.065182E4,1.9072345E5,4.8461884E5,1.5408097E4,3.3185926E4,4.488397E4,-9.346049E3,-8.391667E3,-7.208949E3,-5.907155E3,-8.942951E4,-5.9238453E4,-2.5349098E4,1.442833E4,5.8444543E4,1.0415864E5,1.1627088E4,1.6537383E5,2.1069615E4,2.6769717E4,-4.8520273E3,-4.0754739E3,-3.3507273E3,-2.45165E3,-3.3897312E4,-1.7419633E4,1.092752E4,6.5738125E4,5.149474E4,3.6432E3,8.978363E4,1.140533E5,6.9451104E3,8.86925E3,-9.1263226E2,-1.7622006E3,-9.8239417E2,4.4465923E1,8.662034E2,7.65393E1,4.5219536E3,1.7587363E3,1.0636437E3,2.6377644E3,4.6643223E3,2.9200793E3,5.8278105E3,3.1670393E3],"categories":[],"categories_nodes":[],"categories_segments":[],"categories_sizes":[],"default_left":[0,0,0,0,0,0,0,0,0,0,0,0,0,0,0,0,0,0,0,0,0,0,0,0,0,0,0,0,0,0,0,0,0,0,0,0,0,0,0,0,0,0,0,0,0,0,0,0,0,0,0,0,0,0,0,0,0,0,0,0,0,0,0,0,0],"id":4,"left_children":[1,3,5,7,9,11,-1,13,15,17,19,21,-1,23,25,27,29,31,33,35,-1,-1,-1,-1,-1,-1,-1,37,39,41,43,45,47,-1,49,-1,-1,-1,-1,-1,-1,51,53,55,57,59,-1,61,63,-1,-1,-1,-1,-1,-1,-1,-1,-1,-1,-1,-1,-1,-1,-1,-1],"loss_changes":[2.1966201E14,5.4001966E13,2.9765633E13,8.236707E12,9.556306E12,5.8936347E12,0E0,7.7659216E11,9.791296E11,1.3974876E12,1.2583038E12,1.7431947E11,0E0,5.6753127E10,6.5625653E10,8.58207E10,1.5822273E11,1.4895297E11,1.6507837E11,5.0480546E10,0E0,0E0,0E0,0E0,0E0,0E0,0E0,5.7135596E9,1.1077943E10,1.3643915E10,3.3590182E10,1.1780817E10,1.0099622E10,0E0,1.44693E10,0E0,0E0,0E0,0E0,0E0,0E0,1.4635581E9,4.5459313E9,1.0792681E10,5.8781696E9,2.9921444E9,0E0,1.477247E9,2.8985917E9,0E0,0E0,0E0,0E0,0E0,0E0,0E0,0E0,0E0,0E0,0E0,0E0,0E0,0E0,0E0,0E0],"parents":[2147483647,0,0,1,1,2,2,3,3,4,4,5,5,7,7,8,8,9,9,10,10,11,11,13,13,14,14,15,15,16,16,17,17,18,18,19,19,27,27,28,28,29,29,30,30,31,31,32,32,34,34,41,41,42,42,43,43,44,44,45,45,47,47,48,48],"right_children":[2,4,6,8,10,12,-1,14,16,18,20,22,-1,24,26,28,30,32,34,36,-1,-1,-1,-1,-1,-1,-1,38,40,42,44,46,48,-1,50,-1,-1,-1,-1,-1,-1,52,54,56,58,60,-1,62,64,-1,-1,-1,-1,-1,-1,-1,-1,-1,-1,-1,-1,-1,-1,-1,-1],"split_conditions":[1.0234177E6,2.8331375E5,2.2472758E6,1.1687933E5,5.6736425E5,1.5398648E6,1.135957E5,5.351676E4,1.9029939E5,4.1808228E5,2.183278E-2,1.2330511E6,6.710413E4,2.6694521E4,8.272871E4,1.5617823E5,2.3631316E5,3.4490488E5,3.1002978E-2,8.375097E5,1.5408097E4,3.3185926E4,4.488397E4,-9.346049E3,-8.391667E3,-7.208949E3,-5.907155E3,1.3565223E5,1.743311E5,2.1001478E5,2.9154325E5,3.2571038E5,3.7122847E5,1.1627088E4,4.423429E5,2.1069615E4,2.6769717E4,-4.8520273E3,-4.0754739E3,-3.3507273E3,-2.45165E3,9.606947E0,7.8800756E-1,5.9381936E-2,2E0,9.874298E-1,3.6432E3,9.79224E-1,1.5272741E1,6.9451104E3,8.86925E3,-9.1263226E2,-1.7622006E3,-9.8239417E2,4.4465923E1,8.662034E2,7.65393E1,4.5219536E3,1.7587363E3,1.0636437E3,2.6377644E3,4.6643223E3,2.9200793E3,5.8278105E3,3.1670393E3],"split_indices":[0,0,0,2,2,0,0,3,2,3,22,2,0,2,2,3,2,3,22,3,0,0,0,0,0,0,0,2,3,0,3,2,2,0,2,0,0,0,0,0,0,19,17,22,16,13,0,6,19,0,0,0,0,0,0,0,0,0,0,0,0,0,0,0,0],"split_type":[0,0,0,0,0,0,0,0,0,0,0,0,0,0,0,0,0,0,0,0,0,0,0,0,0,0,0,0,0,0,0,0,0,0,0,0,0,0,0,0,0,0,0,0,0,0,0,0,0,0,0,0,0,0,0,0,0,0,0,0,0,0,0,0,0],"sum_hessian":[3.185E3,3.062E3,1.23E2,2.395E3,6.67E2,9.8E1,2.5E1,1.591E3,8.04E2,4.87E2,1.8E2,5.8E1,4E1,1.102E3,4.89E2,4.05E2,3.99E2,2.96E2,1.91E2,8.5E1,9.5E1,2.6E1,3.2E1,7.35E2,3.67E2,2.56E2,2.33E2,2.25E2,1.8E2,2.09E2,1.9E2,1.54E2,1.42E2,6.9E1,1.22E2,4.2E1,4.3E1,1.09E2,1.16E2,9.9E1,8.1E1,9.9E1,1.1E2,1.79E2,1.1E1,1.07E2,4.7E1,6.2E1,8E1,4.2E1,8E1,9E0,9E1,9.8E1,1.2E1,1.06E2,7.3E1,5E0,6E0,5E0,1.02E2,5.4E1,8E0,7.5E1,5E0],"tree_param":{"num_deleted":"0","num_feature":"25","num_nodes":"65","size_leaf_vector":"1"}},{"base_weights":[3.7603162E3,-5.1216996E4,1.2567226E6,-1.1774759E5,1.8751095E5,8.9449775E5,1.9773076E6,-1.5810795E5,-4.1466652E4,1.1275229E5,3.6620394E5,3.2274162E4,1.0063822E6,8.2172055E4,1.28767375E5,-1.2703363E5,-1.7249002E5,-7.341654E4,-6.763466E3,7.500343E4,1.7675464E5,2.376284E4,2.9317666E5,4.4474344E4,5.9334168E4,-6.9995244E3,-1.1393317E5,-8.967441E3,-8.1539644E3,-8.5656484E4,-5.6833508E4,-2.2926498E4,1.4175876E4,5.6934254E4,1.0286253E5,1.0798455E4,1.5367453E5,1.2803784E4,1.6762312E4,-5.984325E3,-5.2196265E3,-4.682233E3,-3.8315164E3,-3.172086E3,-4.8053992E4,-2.9862244E4,-1.2575231E4,1.7487705E3,2.314053E4,4.833732E4,7.216391E4,8.607183E4,5.528361E3,8.51669E3,6.715962E3,-2.4956624E3,-1.808694E3,-1.8618883E3,-1.2656338E3,-7.466247E2,-6.4857994E1,-1.2672237E2,8.716919E2,1.0250756E3,2.56282E3,1.4281558E3,2.5236423E3,2.5525005E3,3.9658044E3,4.484609E3,2.500224E3],"categories":[],"categories_nodes":[],"categories_segments":[],"categories_sizes":[],"default_left":[0,0,0,0,0,0,0,0,0,0,0,0,0,0,0,0,0,0,0,0,0,0,0,0,0,0,0,0,0,0,0,0,0,0,0,0,0,0,0,0,0,0,0,0,0,0,0,0,0,0,0,0,0,0,0,0,0,0,0,0,0,0,0,0,0,0,0,0,0,0,0],"id":5,"left_children":[1,3,5,7,9,11,13,15,17,19,21,-1,23,-1,-1,25,27,29,31,33,35,-1,37,-1,-1,-1,39,-1,-1,41,43,45,47,49,51,-1,53,-1,-1,-1,-1,-1,-1,-1,55,57,59,61,63,65,67,69,-1,-1,-1,-1,-1,-1,-1,-1,-1,-1,-1,-1,-1,-1,-1,-1,-1,-1,-1],"loss_changes":[2.1959926E14,4.8527888E13,3.3207144E13,7.3485213E12,8.855702E12,1.8857339E12,4.55285E12,6.7616375E11,9.1755905E11,1.1246864E12,1.4215755E12,0E0,2.301163E11,0E0,0E0,6.8581065E10,3.9495664E10,8.261442E10,1.350254E11,1.4415417E11,1.24294005E11,0E0,1.0145078E11,0E0,0E0,0E0,1.3930332E9,0E0,0E0,1.0561126E10,7.742554E9,1.5778071E10,1.9343946E10,2.0471611E10,5.4898196E9,0E0,1.3557301E10,0E0,0E0,0E0,0E0,0E0,0E0,0E0,4.984013E7,3.5538452E9,2.4264858E9,5.0156943E9,6.443188E9,3.6257464E9,5.615583E9,8.686469E8,0E0,0E0,0E0,0E0,0E0,0E0,0E0,0E0,0E0,0E0,0E0,0E0,0E0,0E0,0E0,0E0,0E0,0E0,0E0],"parents":[2147483647,0,0,1,1,2,2,3,3,4,4,5,5,6,6,7,7,8,8,9,9,10,10,12,12,15,15,16,16,17,17,18,18,19,19,20,20,22,22,26,26,29,29,30,30,31,31,32,32,33,33,34,34,36,36,44,44,45,45,46,46,47,47,48,48,49,49,50,50,51,51],"right_children":[2,4,6,8,10,12,14,16,18,20,22,-1,24,-1,-1,26,28,30,32,34,36,-1,38,-1,-1,-1,40,-1,-1,42,44,46,48,50,52,-1,54,-1,-1,-1,-1,-1,-1,-1,56,58,60,62,64,66,68,70,-1,-1,-1,-1,-1,-1,-1,-1,-1,-1,-1,-1,-1,-1,-1,-1,-1,-1,-1],"split_conditions":[1.0234177E6,2.8331375E5,1.9710066E6,1.1493948E5,5.5335575E5,1.2330511E6,2.9438452E6,3.1142446E-1,1.9029939E5,4.1808228E5,2.1054413E-2,3.2274162E4,1.689406E6,8.2172055E4,1.28767375E5,7.967372E4,2.0723059E4,1.5617823E5,2.3675373E5,3.540717E5,3.1002978E-2,2.376284E4,6.3159125E5,4.4474344E4,5.9334168E4,-6.9995244E3,1.0048141E5,-8.967441E3,-8.1539644E3,1.3565223E5,1.743311E5,2.2164039E5,2.5901669E5,3.3121097E5,3.7122847E5,1.0798455E4,3.399953E-2,1.2803784E4,1.6762312E4,-5.984325E3,-5.2196265E3,-4.682233E3,-3.8315164E3,-3.172086E3,1.0040275E0,1.9842061E5,7.518146E-1,5.824858E-1,2.9154325E5,2.9154325E5,6.523717E-2,6.1E2,5.528361E3,8.51669E3,6.715962E3,-2.4956624E3,-1.808694E3,-1.8618883E3,-1.2656338E3,-7.466247E2,-6.4857994E1,-1.2672237E2,8.716919E2,1.0250756E3,2.56282E3,1.4281558E3,2.5236423E3,2.5525005E3,3.9658044E3,4.484609E3,2.500224E3],"split_indices":[0,0,0,2,2,2,3,22,2,3,22,0,3,0,0,2,0,3,0,3,22,0,2,0,0,0,2,0,0,2,3,2,3,3,2,0,22,0,0,0,0,0,0,0,13,0,17,18,3,3,18,23,0,0,0,0,0,0,0,0,0,0,0,0,0,0,0,0,0,0,0],"split_type":[0,0,0,0,0,0,0,0,0,0,0,0,0,0,0,0,0,0,0,0,0,0,0,0,0,0,0,0,0,0,0,0,0,0,0,0,0,0,0,0,0,0,0,0,0,0,0,0,0,0,0,0,0,0,0,0,0,0,0,0,0,0,0,0,0,0,0,0,0,0,0],"sum_hessian":[3.186E3,3.053E3,1.33E2,2.388E3,6.65E2,9E1,4.3E1,1.561E3,8.27E2,4.7E2,1.95E2,3E1,6E1,3E1,1.3E1,4.97E2,1.064E3,4.3E2,3.97E2,2.97E2,1.73E2,7.6E1,1.19E2,4E1,2E1,2.45E2,2.52E2,6.05E2,4.59E2,2.45E2,1.85E2,2.24E2,1.73E2,1.82E2,1.15E2,6.1E1,1.12E2,6.7E1,5.2E1,1.5E2,1.02E2,1.25E2,1.2E2,1.02E2,8.3E1,1.33E2,9.1E1,7.3E1,1E2,1.19E2,6.3E1,4E1,7.5E1,5.6E1,5.6E1,6.9E1,1.4E1,4.8E1,8.5E1,7.5E1,1.6E1,5.8E1,1.5E1,9.3E1,7E0,1.3E1,1.06E2,1.8E1,4.5E1,3.5E1,5E0],"tree_param":{"num_deleted":"0","num_feature":"25","num_nodes":"71","size_leaf_vector":"1"}},{"base_weights":[-4.0565018E2,1.1121791E6,-5.0994094E4,8.4526325E5,1.8523754E6,1.5136222E5,-1.1626521E5,2.8545979E4,9.761489E5,7.6416234E4,1.12621586E5,8.306991E4,3.0230697E5,-1.5206022E5,-4.9066266E4,4.3284074E4,5.736026E4,4.9638168E4,1.337936E5,4.094183E5,2.3874772E5,-1.2545779E5,-1.6481902E5,-7.764382E4,-1.9501316E4,2.0514928E4,6.2293434E4,8.577657E3,1.17246234E5,2.3030172E4,1.8018361E4,1.0732258E4,1.3836455E4,-5.704765E3,-6.83857E3,-8.528502E3,-7.843582E3,-8.810229E4,-6.301254E4,-3.35715E4,-4.4552593E3,1.3792028E4,2.9582184E4,5.1448906E4,7.6468625E4,5.2455283E3,6.5211055E3,-4.6410757E3,-3.955531E3,-3.3255903E3,-2.6884358E3,-3.9510938E4,-2.3394326E4,-1.2215516E4,5.7600195E3,5.7686316E2,1.4124662E3,1.1377695E3,1.920008E3,2.1781697E3,2.803177E3,3.9669243E3,2.6462861E3,-2.1802937E3,-1.6641503E3,-1.6494846E3,-1.0293036E3,-6.615744E2,3.799966E2,5.4756104E2,-1.5089542E2],"categories":[],"categories_nodes":[],"categories_segments":[],"categories_sizes":[],"default_left":[0,0,0,0,0,0,0,0,0,0,0,0,0,0,0,0,0,0,0,0,0,0,0,0,0,0,0,0,0,0,0,0,0,0,0,0,0,0,0,0,0,0,0,0,0,0,0,0,0,0,0,0,0,0,0,0,0,0,0,0,0,0,0,0,0,0,0,0,0,0,0],"id":6,"left_children":[1,3,5,7,9,11,13,-1,15,-1,-1,17,19,21,23,-1,-1,25,27,29,31,33,35,37,39,41,43,-1,45,-1,-1,-1,-1,-1,-1,-1,-1,47,49,51,53,55,57,59,61,-1,-1,-1,-1,-1,-1,63,65,67,69,-1,-1,-1,-1,-1,-1,-1,-1,-1,-1,-1,-1,-1,-1,-1,-1],"loss_changes":[1.7988387E14,2.5896489E13,4.039453E13,3.1771014E12,1.2245354E12,7.664928E12,5.553791E12,0E0,3.1071404E11,0E0,0E0,8.666861E11,1.4816882E12,4.911593E11,6.7862554E11,0E0,0E0,1.1371361E11,1.0734954E11,4.74208E10,7.6088345E10,4.7769977E10,1.9679674E10,5.7033884E10,8.3895665E10,5.4439895E9,2.9423632E10,0E0,9.884533E9,0E0,0E0,0E0,0E0,0E0,0E0,0E0,0E0,2.6711163E9,2.0520632E9,1.1467227E10,1.5370084E10,1.5321549E9,1.5341281E9,2.1426668E9,2.016936E9,0E0,0E0,0E0,0E0,0E0,0E0,1.813037E9,1.422676E9,2.3150756E9,3.860761E9,0E0,0E0,0E0,0E0,0E0,0E0,0E0,0E0,0E0,0E0,0E0,0E0,0E0,0E0,0E0,0E0],"parents":[2147483647,0,0,1,1,2,2,3,3,4,4,5,5,6,6,8,8,11,11,12,12,13,13,14,14,17,17,18,18,19,19,20,20,21,21,22,22,23,23,24,24,25,25,26,26,28,28,37,37,38,38,39,39,40,40,41,41,42,42,43,43,44,44,51,51,52,52,53,53,54,54],"right_children":[2,4,6,8,10,12,14,-1,16,-1,-1,18,20,22,24,-1,-1,26,28,30,32,34,36,38,40,42,44,-1,46,-1,-1,-1,-1,-1,-1,-1,-1,48,50,52,54,56,58,60,62,-1,-1,-1,-1,-1,-1,64,66,68,70,-1,-1,-1,-1,-1,-1,-1,-1,-1,-1,-1,-1,-1,-1,-1,-1],"split_conditions":[1.5636927E-2,1.9710066E6,5.786746E-2,1.2330511E6,2.742941E6,4.838235E5,1.0802436E5,2.8545979E4,1.689406E6,7.6416234E4,1.12621586E5,3.7122847E5,2.2564892E-2,3.433345E-1,1.7594397E5,4.3284074E4,5.736026E4,2.9154325E5,3.399953E-2,1.8906746E-2,5.968071E5,2.1452138E-1,2.036381E4,1.4490431E5,2.1860398E5,1.4943562E3,3.35747E5,8.577657E3,4.1808228E5,2.3030172E4,1.8018361E4,1.0732258E4,1.3836455E4,-5.704765E3,-6.83857E3,-8.528502E3,-7.843582E3,1.3060644E5,1.6722681E5,2.025587E5,2.4204769E5,7.9665685E-1,2.7923075E5,1.22815505E-1,6.45E2,5.2455283E3,6.5211055E3,-4.6410757E3,-3.955531E3,-3.3255903E3,-2.6884358E3,1.9029939E5,9.9261683E-1,1.1E2,1.1268564E0,5.7686316E2,1.4124662E3,1.1377695E3,1.920008E3,2.1781697E3,2.803177E3,3.9669243E3,2.6462861E3,-2.1802937E3,-1.6641503E3,-1.6494846E3,-1.0293036E3,-6.615744E2,3.799966E2,5.4756104E2,-1.5089542E2],"split_indices":[22,0,22,2,0,0,2,0,3,0,0,2,22,22,2,0,0,3,22,22,2,22,3,3,2,1,3,0,3,0,0,0,0,0,0,0,0,3,3,3,3,17,2,18,23,0,0,0,0,0,0,2,13,15,20,0,0,0,0,0,0,0,0,0,0,0,0,0,0,0,0],"split_type":[0,0,0,0,0,0,0,0,0,0,0,0,0,0,0,0,0,0,0,0,0,0,0,0,0,0,0,0,0,0,0,0,0,0,0,0,0,0,0,0,0,0,0,0,0,0,0,0,0,0,0,0,0,0,0,0,0,0,0,0,0,0,0,0,0,0,0,0,0,0,0],"sum_hessian":[3.194E3,1.38E2,3.056E3,1.03E2,3.5E1,7.45E2,2.311E3,3.5E1,6.8E1,2.2E1,1.3E1,5.14E2,2.31E2,1.507E3,8.04E2,4.5E1,2.3E1,3.11E2,2.03E2,8.4E1,1.47E2,4.92E2,1.015E3,4.08E2,3.96E2,9.5E1,2.16E2,5.9E1,1.44E2,3.7E1,4.7E1,9.4E1,5.3E1,2.51E2,2.41E2,5.77E2,4.38E2,2.35E2,1.73E2,2.04E2,1.92E2,5.6E1,3.9E1,1.25E2,9.1E1,7.9E1,6.5E1,1.48E2,8.7E1,1.21E2,5.2E1,1.27E2,7.7E1,1.09E2,8.3E1,5E1,6E0,2.4E1,1.5E1,5E1,7.5E1,7.9E1,1.2E1,7.3E1,5.4E1,1.5E1,6.2E1,1.04E2,5E0,5.2E1,3.1E1],"tree_param":{"num_deleted":"0","num_feature":"25","num_nodes":"71","size_leaf_vector":"1"}},{"base_weights":[-3.5137815E3,9.259059E5,-5.294983E4,6.516995E5,1.5521435E6,-1.112363E5,1.3551045E5,5.1663906E5,4.185934E4,6.0550684E4,9.2140734E4,-1.4387484E5,-4.7035617E4,2.837024E5,8.208374E4,2.0973312E4,2.8005457E4,-1.5642303E5,-1.19227414E5,-7.342315E4,-1.8180812E4,1.8212682E4,2.3919005E5,4.7655645E4,1.2981394E5,-7.4476367E3,-8.089289E3,-6.4847544E3,-5.3918516E3,-8.342085E4,-5.9112082E4,-3.071303E4,-6.316311E2,1.0796036E4,1.3829533E4,2.7763432E4,6.5633766E4,1.1036217E5,7.9590347E3,-4.4462476E3,-3.7308396E3,-3.0818455E3,-2.5364487E3,-3.911873E4,-2.1029842E4,-1.022118E4,6.1504585E3,1.8059248E4,4.1931383E4,7.715974E4,5.1542203E4,1.0013679E5,6.2620264E3,-2.0218512E3,-1.2216805E3,-2.3166026E2,-1.1088584E3,-6.289611E2,2.00299E2,5.254756E2,-6.2442097E1,2.034152E3,7.6612695E2,2.3100007E3,1.5648776E3,4.1456143E3,2.8328171E3,2.6694404E3,1.470164E3,5.112977E3,3.093736E3],"categories":[],"categories_nodes":[],"categories_segments":[],"categories_sizes":[],"default_left":[0,0,0,0,0,0,0,0,0,0,0,0,0,0,0,0,0,0,0,0,0,0,0,0,0,0,0,0,0,0,0,0,0,0,0,0,0,0,0,0,0,0,0,0,0,0,0,0,0,0,0,0,0,0,0,0,0,0,0,0,0,0,0,0,0,0,0,0,0,0,0],"id":7,"left_children":[1,3,5,7,9,11,13,15,-1,-1,-1,17,19,21,23,-1,-1,25,27,29,31,-1,33,35,37,-1,-1,-1,-1,39,41,43,45,-1,-1,47,49,51,-1,-1,-1,-1,-1,53,55,57,59,61,63,65,67,69,-1,-1,-1,-1,-1,-1,-1,-1,-1,-1,-1,-1,-1,-1,-1,-1,-1,-1,-1],"loss_changes":[1.4556263E14,2.6463416E13,3.3057004E13,2.3983492E12,2.5278483E12,4.808499E12,5.6059893E12,5.2292485E10,0E0,0E0,0E0,4.5238505E11,5.89517E11,5.8695405E11,8.548817E11,0E0,0E0,1.6202596E10,4.777522E10,5.3015216E10,8.179463E10,0E0,4.8194126E10,1.076109E11,1.0753304E11,0E0,0E0,0E0,0E0,4.800905E9,4.7140045E8,1.6839819E10,1.0208665E10,0E0,0E0,1.9453542E10,2.201007E10,7.997358E9,0E0,0E0,0E0,0E0,0E0,1.2383027E9,1.8349138E9,2.2310292E9,2.9804874E9,4.887042E9,1.2321751E9,5.4459105E9,1.4963343E9,5.7645466E8,0E0,0E0,0E0,0E0,0E0,0E0,0E0,0E0,0E0,0E0,0E0,0E0,0E0,0E0,0E0,0E0,0E0,0E0,0E0],"parents":[2147483647,0,0,1,1,2,2,3,3,4,4,5,5,6,6,7,7,11,11,12,12,13,13,14,14,17,17,18,18,19,19,20,20,22,22,23,23,24,24,29,29,30,30,31,31,32,32,35,35,36,36,37,37,43,43,44,44,45,45,46,46,47,47,48,48,49,49,50,50,51,51],"right_children":[2,4,6,8,10,12,14,16,-1,-1,-1,18,20,22,24,-1,-1,26,28,30,32,-1,34,36,38,-1,-1,-1,-1,40,42,44,46,-1,-1,48,50,52,-1,-1,-1,-1,-1,54,56,58,60,62,64,66,68,70,-1,-1,-1,-1,-1,-1,-1,-1,-1,-1,-1,-1,-1,-1,-1,-1,-1,-1,-1],"split_conditions":[1.8022766E-2,1.7278061E6,2.5921203E5,1.2330511E6,2.2472758E6,1.0802436E5,2.949119E-2,9.62995E5,4.185934E4,6.0550684E4,9.2140734E4,4.368817E4,1.7594397E5,2.2564892E-2,3.7122847E5,2.0973312E4,2.8005457E4,7.3828155E-1,7.298555E4,1.4361639E5,2.2605389E5,1.8212682E4,6.1645844E5,3.0327206E5,4.4797444E5,-7.4476367E3,-8.089289E3,-6.4847544E3,-5.3918516E3,1.2888533E5,1.6574627E5,1.9842061E5,2.3910953E5,1.0796036E4,1.3829533E4,2.8331375E5,4.5431677E-2,4.107902E5,7.9590347E3,-4.4462476E3,-3.7308396E3,-3.0818455E3,-2.5364487E3,6.64208E-1,5.261116E-1,1.5183191E1,1.0421603E0,2.2E1,5.187795E-1,9.5833415E-1,1.1627907E-2,9.744668E0,6.2620264E3,-2.0218512E3,-1.2216805E3,-2.3166026E2,-1.1088584E3,-6.289611E2,2.00299E2,5.254756E2,-6.2442097E1,2.034152E3,7.6612695E2,2.3100007E3,1.5648776E3,4.1456143E3,2.8328171E3,2.6694404E3,1.470164E3,5.112977E3,3.093736E3],"split_indices":[22,0,0,2,0,2,22,2,0,0,0,0,2,22,2,0,0,22,2,0,2,0,2,0,2,0,0,0,0,2,0,0,2,0,0,0,22,0,0,0,0,0,0,18,20,19,20,4,18,6,14,24,0,0,0,0,0,0,0,0,0,0,0,0,0,0,0,0,0,0,0],"split_type":[0,0,0,0,0,0,0,0,0,0,0,0,0,0,0,0,0,0,0,0,0,0,0,0,0,0,0,0,0,0,0,0,0,0,0,0,0,0,0,0,0,0,0,0,0,0,0,0,0,0,0,0,0,0,0,0,0,0,0,0,0,0,0,0,0,0,0,0,0,0,0],"sum_hessian":[3.166E3,1.59E2,3.007E3,1.12E2,4.7E1,2.297E3,7.1E2,6.7E1,4.5E1,2.4E1,2.3E1,1.522E3,7.75E2,1.87E2,5.23E2,2.4E1,4.3E1,1.005E3,5.17E2,4.04E2,3.71E2,6.4E1,1.23E2,3.05E2,2.18E2,4.32E2,5.73E2,2.64E2,2.53E2,2.35E2,1.69E2,2.16E2,1.55E2,8E1,4.3E1,1.46E2,1.59E2,1.34E2,8.4E1,1.39E2,9.6E1,1.25E2,4.4E1,1.14E2,1.02E2,6.4E1,9.1E1,8.8E1,5.8E1,8.5E1,7.4E1,8.4E1,5E1,1.03E2,1.1E1,7E0,9.5E1,5.5E1,9E0,5.7E1,3.4E1,8E0,8E1,3.9E1,1.9E1,6.4E1,2.1E1,6.7E1,7E0,7.8E1,6E0],"tree_param":{"num_deleted":"0","num_feature":"25","num_nodes":"71","size_leaf_vector":"1"}},{"base_weights":[2.1429666E3,-4.48193E4,1.0718232E6,-1.0093918E5,1.5832442E5,7.7224606E5,1.7398234E6,-1.3491355E5,-3.25251E4,9.9062695E4,3.1657238E5,3.0164615E4,4.5017805E4,6.811865E4,1.0962775E5,-1.4639433E5,-1.0395598E5,-5.8754445E4,-3.601407E3,6.5084098E4,1.5351697E5,1.2298822E4,3.9516556E5,-7.5673228E3,-6.603691E3,-5.641609E3,-4.6342007E3,-6.98977E4,-4.3941055E4,-1.7566188E4,1.1680329E4,4.7809715E4,8.869686E4,1.3278208E5,9.121709E3,1.7119846E4,2.1664479E4,-3.8297004E3,-3.1451455E3,-2.602965E3,-3.868801E4,-2.2514986E4,-8.2576E3,9.554753E3,3.187921E3,4.2328027E4,6.19546E4,2.4265813E3,9.100864E4,5.6839526E3,7.0527773E3,-2.1019412E3,-1.6049851E3,-1.1930516E3,-4.8288336E2,1.4421924E2,-6.048046E2,7.096654E1,7.131766E2,2.5054536E3,1.8809567E3,3.4771536E3,2.1452754E3,4.642928E3,2.0500173E3],"categories":[],"categories_nodes":[],"categories_segments":[],"categories_sizes":[],"default_left":[0,0,0,0,0,0,0,0,0,0,0,0,0,0,0,0,0,0,0,0,0,0,0,0,0,0,0,0,0,0,0,0,0,0,0,0,0,0,0,0,0,0,0,0,0,0,0,0,0,0,0,0,0,0,0,0,0,0,0,0,0,0,0,0,0],"id":8,"left_children":[1,3,5,7,9,11,13,15,17,19,21,-1,-1,-1,-1,23,25,27,29,31,33,-1,35,-1,-1,-1,-1,37,39,41,43,45,47,49,-1,-1,-1,-1,-1,-1,51,53,55,57,-1,59,61,-1,63,-1,-1,-1,-1,-1,-1,-1,-1,-1,-1,-1,-1,-1,-1,-1,-1],"loss_changes":[1.612509E14,3.5072216E13,2.5672311E13,5.5972337E12,6.214417E12,1.5130574E12,4.0191499E12,5.570036E11,6.0746675E11,8.8924435E11,9.070518E11,0E0,0E0,0E0,0E0,6.3126372E10,3.3465303E10,6.6257814E10,8.172632E10,1.1853601E11,8.730077E10,0E0,2.0630733E10,0E0,0E0,0E0,0E0,6.329729E9,5.79004E9,9.027342E9,1.9648158E10,1.1024269E10,7.2827535E9,1.6663183E9,0E0,0E0,0E0,0E0,0E0,0E0,1.1893473E9,2.0194058E9,3.0714476E9,6.7602524E9,0E0,2.878161E9,3.8102303E9,0E0,7.1091487E9,0E0,0E0,0E0,0E0,0E0,0E0,0E0,0E0,0E0,0E0,0E0,0E0,0E0,0E0,0E0,0E0],"parents":[2147483647,0,0,1,1,2,2,3,3,4,4,5,5,6,6,7,7,8,8,9,9,10,10,15,15,16,16,17,17,18,18,19,19,20,20,22,22,27,27,28,28,29,29,30,30,31,31,32,32,33,33,40,40,41,41,42,42,43,43,45,45,46,46,48,48],"right_children":[2,4,6,8,10,12,14,16,18,20,22,-1,-1,-1,-1,24,26,28,30,32,34,-1,36,-1,-1,-1,-1,38,40,42,44,46,48,50,-1,-1,-1,-1,-1,-1,52,54,56,58,-1,60,62,-1,64,-1,-1,-1,-1,-1,-1,-1,-1,-1,-1,-1,-1,-1,-1,-1,-1],"split_conditions":[1.0234177E6,2.8331375E5,1.9710066E6,1.17647086E5,5.6695844E5,1.3265546E6,2.742941E6,6.085165E4,1.9689619E5,4.1808228E5,6.8703925E5,3.0164615E4,4.5017805E4,6.811865E4,1.0962775E5,3.2224066E4,9.049671E4,1.631386E5,2.3675373E5,3.540717E5,4.838235E5,1.2298822E4,8.375097E5,-7.5673228E3,-6.603691E3,-5.641609E3,-4.6342007E3,1.4092256E5,1.743311E5,2.2587981E5,2.9154325E5,3.35747E5,5.2419364E-1,5.460148E-1,9.121709E3,1.7119846E4,2.1664479E4,-3.8297004E3,-3.1451455E3,-2.602965E3,1.8541742E5,1.11E2,8.5707605E-2,2.5582231E5,3.187921E3,2.2607458E0,5.4270524E-1,2.4265813E3,2.4390243E-2,5.6839526E3,7.0527773E3,-2.1019412E3,-1.6049851E3,-1.1930516E3,-4.8288336E2,1.4421924E2,-6.048046E2,7.096654E1,7.131766E2,2.5054536E3,1.8809567E3,3.4771536E3,2.1452754E3,4.642928E3,2.0500173E3],"split_indices":[0,0,0,0,3,0,0,3,3,3,0,0,0,0,0,0,3,3,0,3,0,0,3,0,0,0,0,3,3,3,3,3,20,17,0,0,0,0,0,0,0,4,18,3,0,24,18,0,14,0,0,0,0,0,0,0,0,0,0,0,0,0,0,0,0],"split_type":[0,0,0,0,0,0,0,0,0,0,0,0,0,0,0,0,0,0,0,0,0,0,0,0,0,0,0,0,0,0,0,0,0,0,0,0,0,0,0,0,0,0,0,0,0,0,0,0,0,0,0,0,0,0,0,0,0,0,0,0,0,0,0,0,0],"sum_hessian":[3.208E3,3.074E3,1.34E2,2.409E3,6.65E2,9.4E1,4E1,1.609E3,8E2,4.85E2,1.8E2,4.3E1,5.1E1,2.4E1,1.6E1,1.171E3,4.38E2,4.19E2,3.81E2,3E2,1.85E2,9.7E1,8.3E1,8.63E2,3.08E2,2.4E2,1.98E2,2.37E2,1.82E2,1.99E2,1.82E2,1.75E2,1.25E2,1.11E2,7.4E1,3.9E1,4.4E1,1.16E2,1.21E2,6.8E1,1.14E2,1.29E2,7E1,1.76E2,6E0,1.29E2,4.6E1,8E0,1.17E2,3.8E1,7.3E1,7.2E1,4.2E1,1.16E2,1.3E1,1.8E1,5.2E1,6.5E1,1.11E2,4.5E1,8.4E1,3.1E1,1.5E1,1.12E2,5E0],"tree_param":{"num_deleted":"0","num_feature":"25","num_nodes":"65","size_leaf_vector":"1"}},{"base_weights":[1.9686299E3,-4.083785E4,1.0752469E6,-9.6441836E4,1.5043462E5,8.079676E5,1.842399E6,-1.2893283E5,-3.2905176E4,8.8779664E4,2.914404E5,6.547155E5,5.2161113E4,7.0195055E4,1.0604662E5,-1.3920148E5,-1.0094462E5,-5.64991E4,-1.101475E3,6.4578664E4,1.4508145E5,2.2476838E5,3.8207556E5,3.4385305E4,1.5569937E4,-7.187301E3,-6.3182456E3,-5.3429746E3,-4.372966E3,-7.0069484E4,-4.2919285E4,-1.5532296E4,1.2925638E4,4.30175E4,8.189697E4,6.5511406E3,1.6508497E5,9.538447E3,1.2054173E4,1.6349897E4,2.069589E4,-3.8742449E3,-3.2347998E3,-2.5673818E3,-3.6515445E4,-2.0025998E4,-1.0526611E4,9.930083E3,3.0829414E3,3.284691E4,4.7734523E4,7.060445E4,9.112833E4,8.709289E3,5.600963E3,-1.8596162E3,-7.769098E2,-5.251438E2,-1.1146191E3,-6.189845E2,3.042667E2,3.949469E1,7.393212E2,1.9865596E3,1.1219642E3,2.4743633E3,1.5159476E3,3.7215906E3,2.239209E3,4.6730547E3,3.1878838E3],"categories":[],"categories_nodes":[],"categories_segments":[],"categories_sizes":[],"default_left":[0,0,0,0,0,0,0,0,0,0,0,0,0,0,0,0,0,0,0,0,0,0,0,0,0,0,0,0,0,0,0,0,0,0,0,0,0,0,0,0,0,0,0,0,0,0,0,0,0,0,0,0,0,0,0,0,0,0,0,0,0,0,0,0,0,0,0,0,0,0,0],"id":9,"left_children":[1,3,5,7,9,11,13,15,17,19,21,23,-1,-1,-1,25,27,29,31,33,35,37,39,-1,-1,-1,-1,-1,-1,41,43,45,47,49,51,-1,53,-1,-1,-1,-1,-1,-1,-1,55,57,59,61,-1,63,65,67,69,-1,-1,-1,-1,-1,-1,-1,-1,-1,-1,-1,-1,-1,-1,-1,-1,-1,-1],"loss_changes":[1.47338E14,3.2814429E13,2.3731791E13,4.929599E12,6.016252E12,2.6699345E12,8.0864503E11,4.4033062E11,6.0774095E11,6.514724E11,1.1891586E12,4.5409842E11,0E0,0E0,0E0,4.9155146E10,2.4793055E10,8.268441E10,7.0239035E10,1.23807334E11,1.9147522E10,2.2792372E10,1.898342E10,0E0,0E0,0E0,0E0,0E0,0E0,4.1915515E9,1.0808885E10,3.6356751E9,2.508072E10,5.8202194E9,1.3164085E10,0E0,7.5324457E9,0E0,0E0,0E0,0E0,0E0,0E0,0E0,1.3673595E9,1.6867615E9,2.6303437E9,7.401097E9,0E0,2.8342026E9,1.6436756E9,5.461934E9,4.2604954E8,0E0,0E0,0E0,0E0,0E0,0E0,0E0,0E0,0E0,0E0,0E0,0E0,0E0,0E0,0E0,0E0,0E0,0E0],"parents":[2147483647,0,0,1,1,2,2,3,3,4,4,5,5,6,6,7,7,8,8,9,9,10,10,11,11,15,15,16,16,17,17,18,18,19,19,20,20,21,21,22,22,29,29,30,30,31,31,32,32,33,33,34,34,36,36,44,44,45,45,46,46,47,47,49,49,50,50,51,51,52,52],"right_children":[2,4,6,8,10,12,14,16,18,20,22,24,-1,-1,-1,26,28,30,32,34,36,38,40,-1,-1,-1,-1,-1,-1,42,44,46,48,50,52,-1,54,-1,-1,-1,-1,-1,-1,-1,56,58,60,62,-1,64,66,68,70,-1,-1,-1,-1,-1,-1,-1,-1,-1,-1,-1,-1,-1,-1,-1,-1,-1,-1],"split_conditions":[1.1148898E6,2.8331375E5,2.2472758E6,1.1338772E5,5.2025956E5,1.5398648E6,2.742941E6,5.781721E4,2.025587E5,4.1686003E5,6.8703925E5,9.714286E-1,5.2161113E4,7.0195055E4,1.0604662E5,3.265501E4,9.580508E4,1.5617823E5,2.3675373E5,3.414259E5,4.8504778E5,5.81781E5,8.375097E5,3.4385305E4,1.5569937E4,-7.187301E3,-6.3182456E3,-5.3429746E3,-4.372966E3,1.3060644E5,1.743311E5,2.2374089E5,2.9154325E5,3.0558888E5,3.757371E5,6.5511406E3,8.585183E0,9.538447E3,1.2054173E4,1.6349897E4,2.069589E4,-3.8742449E3,-3.2347998E3,-2.5673818E3,1.892022E1,1.0140111E1,7.677503E-1,2.5260106E5,3.0829414E3,4.07E2,1.1627907E-2,6.45E2,9.1E1,8.709289E3,5.600963E3,-1.8596162E3,-7.769098E2,-5.251438E2,-1.1146191E3,-6.189845E2,3.042667E2,3.949469E1,7.393212E2,1.9865596E3,1.1219642E3,2.4743633E3,1.5159476E3,3.7215906E3,2.239209E3,4.6730547E3,3.1878838E3],"split_indices":[3,0,0,0,0,0,0,3,3,0,0,5,0,0,0,3,3,3,0,3,3,3,3,0,0,0,0,0,0,3,3,3,3,3,3,0,24,0,0,0,0,0,0,0,19,19,17,0,0,23,14,23,4,0,0,0,0,0,0,0,0,0,0,0,0,0,0,0,0,0,0],"split_type":[0,0,0,0,0,0,0,0,0,0,0,0,0,0,0,0,0,0,0,0,0,0,0,0,0,0,0,0,0,0,0,0,0,0,0,0,0,0,0,0,0,0,0,0,0,0,0,0,0,0,0,0,0,0,0,0,0,0,0,0,0,0,0,0,0,0,0,0,0,0,0],"sum_hessian":[3.205E3,3.083E3,1.22E2,2.389E3,6.94E2,9.2E1,3E1,1.58E3,8.09E2,4.84E2,2.1E2,5.8E1,3.4E1,1.4E1,1.6E1,1.153E3,4.27E2,4.64E2,3.45E2,3.4E2,1.44E2,1.23E2,8.7E1,5.2E1,6E0,8.44E2,3.09E2,2.92E2,1.35E2,2.3E2,2.34E2,1.7E2,1.75E2,1.53E2,1.87E2,8.9E1,5.5E1,4.4E1,7.9E1,3.6E1,5.1E1,9.1E1,1.39E2,9.8E1,1.36E2,8.8E1,8.2E1,1.66E2,9E0,5.1E1,1.02E2,8.8E1,9.9E1,4.5E1,1E1,1.31E2,5E0,1.8E1,7E1,7.4E1,8E0,5.8E1,1.08E2,2.9E1,2.2E1,9.1E1,1.1E1,7.5E1,1.3E1,8.9E1,1E1],"tree_param":{"num_deleted":"0","num_feature":"25","num_nodes":"71","size_leaf_vector":"1"}},{"base_weights":[-1.0598829E3,-4.2404645E4,9.2966444E5,-9.4898484E4,1.2168724E5,6.9206206E5,1.5402854E6,-1.2471663E5,-4.3397582E4,6.61418E4,2.4618961E5,5.189761E5,8.3249556E5,6.3277918E4,9.294239E4,-1.3511575E5,-1.0564172E5,-6.4759406E4,-1.4795603E4,4.087576E4,1.058761E5,1.9685244E5,1.6470746E4,1.6160245E4,2.81576E4,2.443992E4,4.2905703E4,-6.9970947E3,-6.466877E3,-5.694908E3,-4.7509185E3,-7.409314E4,-5.0903137E4,-2.4538139E4,1.9157672E2,2.5014908E4,5.5603137E4,8.8663375E4,5.99895E3,8.951312E3,1.1885183E4,-3.8967812E3,-3.2408213E3,-2.7391616E3,-4.2499027E4,-3.353292E4,-1.7433842E4,-3.8514924E3,1.0102161E4,1.4401203E4,3.3336445E4,4.448447E4,6.2410383E4,2.5185078E3,9.026674E4,-1.8062731E3,-2.334521E3,-1.1524905E3,-1.7520813E3,-7.944045E2,-1.5332837E3,-2.8972702E2,6.463116E2,2.8445755E2,1.2825536E3,1.6688838E3,5.6826556E2,1.8679056E3,1.2933604E3,1.9843127E3,3.6855486E3,3.3644016E3,2.2283647E3,4.6021E3,2.828777E3],"categories":[],"categories_nodes":[],"categories_segments":[],"categories_sizes":[],"default_left":[0,0,0,0,0,0,0,0,0,0,0,0,0,0,0,0,0,0,0,0,0,0,0,0,0,0,0,0,0,0,0,0,0,0,0,0,0,0,0,0,0,0,0,0,0,0,0,0,0,0,0,0,0,0,0,0,0,0,0,0,0,0,0,0,0,0,0,0,0,0,0,0,0,0,0],"id":10,"left_children":[1,3,5,7,9,11,13,15,17,19,21,23,25,-1,-1,27,29,31,33,35,37,39,-1,-1,-1,-1,-1,-1,-1,-1,-1,41,43,45,47,49,51,53,-1,-1,-1,-1,-1,-1,55,57,59,61,63,65,67,69,71,-1,73,-1,-1,-1,-1,-1,-1,-1,-1,-1,-1,-1,-1,-1,-1,-1,-1,-1,-1,-1,-1],"loss_changes":[1.2213829E14,2.6188928E13,1.8520495E13,3.531214E12,5.080469E12,1.9743596E12,8.856776E11,2.7493872E11,5.1593963E11,5.086797E11,8.672384E11,2.2445923E11,4.7219474E10,0E0,0E0,8.1128325E9,3.47E10,5.882446E10,5.3007475E10,7.195594E10,3.742656E10,6.3037243E10,0E0,0E0,0E0,0E0,0E0,0E0,0E0,0E0,0E0,5.178917E9,4.1283092E9,1.3473751E10,5.8088704E9,1.3033234E10,9.485091E9,1.1631985E9,0E0,0E0,0E0,0E0,0E0,0E0,1.0313728E8,7.106232E8,2.0694221E9,3.4326938E9,2.7360023E9,3.595779E9,1.586946E9,6.1899653E9,5.530321E9,0E0,5.603328E7,0E0,0E0,0E0,0E0,0E0,0E0,0E0,0E0,0E0,0E0,0E0,0E0,0E0,0E0,0E0,0E0,0E0,0E0,0E0,0E0],"parents":[2147483647,0,0,1,1,2,2,3,3,4,4,5,5,6,6,7,7,8,8,9,9,10,10,11,11,12,12,15,15,16,16,17,17,18,18,19,19,20,20,21,21,31,31,32,32,33,33,34,34,35,35,36,36,37,37,44,44,45,45,46,46,47,47,48,48,49,49,50,50,51,51,52,52,54,54],"right_children":[2,4,6,8,10,12,14,16,18,20,22,24,26,-1,-1,28,30,32,34,36,38,40,-1,-1,-1,-1,-1,-1,-1,-1,-1,42,44,46,48,50,52,54,-1,-1,-1,-1,-1,-1,56,58,60,62,64,66,68,70,72,-1,74,-1,-1,-1,-1,-1,-1,-1,-1,-1,-1,-1,-1,-1,-1,-1,-1,-1,-1,-1,-1],"split_conditions":[9.592668E5,2.5921203E5,1.9710066E6,1.0048141E5,4.838235E5,1.3203825E6,2.742941E6,4.136986E4,1.822302E5,3.7122847E5,6.6474844E5,1.045128E6,1.3851076E6,6.3277918E4,9.294239E4,1.8384322E4,7.058951E4,1.4490431E5,2.2836995E5,3.1293838E5,4.107902E5,6.1645844E5,1.6470746E4,1.6160245E4,2.81576E4,2.443992E4,4.2905703E4,-6.9970947E3,-6.466877E3,-5.694908E3,-4.7509185E3,1.3060644E5,1.6574627E5,1.9842061E5,2.5276225E5,2.8244562E5,3.35747E5,5.2984506E-1,5.99895E3,8.951312E3,1.1885183E4,-3.8967812E3,-3.2408213E3,-2.7391616E3,2.3022308E0,1.0140111E1,1.1572981E1,6.3453984E-1,5.824858E-1,2.3E1,5.187795E-1,6.1391985E-1,9.6199054E-1,2.5185078E3,1.6621729E1,-1.8062731E3,-2.334521E3,-1.1524905E3,-1.7520813E3,-7.944045E2,-1.5332837E3,-2.8972702E2,6.463116E2,2.8445755E2,1.2825536E3,1.6688838E3,5.6826556E2,1.8679056E3,1.2933604E3,1.9843127E3,3.6855486E3,3.3644016E3,2.2283647E3,4.6021E3,2.828777E3],"split_indices":[0,0,0,2,0,2,0,3,3,2,0,2,3,0,0,2,3,3,2,2,0,2,0,0,0,0,0,0,0,0,0,3,0,0,2,3,3,20,0,0,0,0,0,0,24,19,24,18,18,4,18,18,6,0,19,0,0,0,0,0,0,0,0,0,0,0,0,0,0,0,0,0,0,0,0],"split_type":[0,0,0,0,0,0,0,0,0,0,0,0,0,0,0,0,0,0,0,0,0,0,0,0,0,0,0,0,0,0,0,0,0,0,0,0,0,0,0,0,0,0,0,0,0,0,0,0,0,0,0,0,0,0,0,0,0,0,0,0,0,0,0,0,0,0,0,0,0,0,0,0,0,0,0],"sum_hessian":[3.172E3,3.038E3,1.34E2,2.302E3,7.36E2,9.8E1,3.6E1,1.457E3,8.45E2,5.1E2,2.26E2,4.6E1,5.2E1,2.2E1,1.4E1,9.39E2,5.18E2,4.83E2,3.62E2,3.13E2,1.97E2,1.44E2,8.2E1,1E1,3.6E1,5E0,4.7E1,4.99E2,4.4E2,2.86E2,2.32E2,2.86E2,1.97E2,2.19E2,1.43E2,1.52E2,1.61E2,9.2E1,1.05E2,1.04E2,4E1,1.97E2,8.9E1,1.31E2,6.6E1,9.5E1,1.24E2,1.02E2,4.1E1,6.8E1,8.4E1,6.4E1,9.7E1,5E0,8.7E1,3E1,3.6E1,1.4E1,8.1E1,1.13E2,1.1E1,9.2E1,1E1,3.3E1,8E0,8E0,6E1,5.2E1,3.2E1,5.7E1,7E0,7.4E1,2.3E1,8.1E1,6E0],"tree_param":{"num_deleted":"0","num_feature":"25","num_nodes":"75","size_leaf_vector":"1"}},{"base_weights":[-2.2870616E2,8.196615E5,-3.947869E4,6.293616E5,1.416827E6,1.1541975E5,-9.034181E4,2.2741117E4,7.5043225E5,5.4875605E4,8.198448E4,6.233609E4,2.2394227E5,-1.1752878E5,-3.792102E4,3.2748373E4,4.5145605E4,3.4726008E4,9.497895E4,1.8276573E5,1.5381519E4,-9.805273E4,-1.2785782E5,-5.8165812E4,-1.3930191E4,2.0482076E4,4.6975992E4,8.192665E4,5.890808E3,7.954622E3,1.0341124E4,-5.2885776E3,-4.3419546E3,-6.6491025E3,-6.1147285E3,-6.777598E4,-4.6943266E4,-2.217751E4,2.6815044E3,1.4076687E4,2.7073674E4,3.811285E4,5.463792E4,6.6430336E4,4.3050786E3,-3.0479824E3,-3.6251074E3,-2.6220942E3,-4.0611992E4,-1.3894267E4,-2.8079176E4,-7.322949E2,1.1985655E4,5.744421E2,1.3839261E3,1.9649205E2,1.4517445E3,2.0439387E3,7.25832E2,3.1038613E3,2.123448E3,3.5316965E3,1.6820023E3,-2.1059258E3,-1.5566757E3,1.4380486E2,-7.6839026E2,-5.677967E2,-1.4510472E3,1.7965271E2,-3.692384E2,9.9494403E2,8.453709E1],"categories":[],"categories_nodes":[],"categories_segments":[],"categories_sizes":[],"default_left":[0,0,0,0,0,0,0,0,0,0,0,0,0,0,0,0,0,0,0,0,0,0,0,0,0,0,0,0,0,0,0,0,0,0,0,0,0,0,0,0,0,0,0,0,0,0,0,0,0,0,0,0,0,0,0,0,0,0,0,0,0,0,0,0,0,0,0,0,0,0,0,0,0],"id":11,"left_children":[1,3,5,7,9,11,13,-1,15,-1,-1,17,19,21,23,-1,-1,25,27,29,-1,31,33,35,37,39,41,43,-1,-1,-1,-1,-1,-1,-1,45,47,49,51,53,55,57,59,61,-1,-1,-1,-1,63,65,67,69,71,-1,-1,-1,-1,-1,-1,-1,-1,-1,-1,-1,-1,-1,-1,-1,-1,-1,-1,-1,-1],"loss_changes":[1.0143367E14,1.5472544E13,2.370931E13,2.0042901E12,6.1997266E11,4.2720549E12,3.2235323E12,0E0,3.4023775E11,0E0,0E0,4.482391E11,7.8459594E11,2.874063E11,3.75599E11,0E0,0E0,4.6673002E10,5.8607665E10,6.1633724E10,0E0,3.5910582E10,1.1417944E10,4.211566E10,4.883215E10,5.023277E9,7.832273E9,3.9199048E9,0E0,0E0,0E0,0E0,0E0,0E0,0E0,2.7965522E9,4.728455E9,1.1244478E10,3.788515E9,2.0403702E9,2.7000832E9,4.0404173E9,4.2438164E9,2.5860178E9,0E0,0E0,0E0,0E0,5.955584E7,2.5400873E9,1.8438636E9,2.5586693E9,2.573267E9,0E0,0E0,0E0,0E0,0E0,0E0,0E0,0E0,0E0,0E0,0E0,0E0,0E0,0E0,0E0,0E0,0E0,0E0,0E0,0E0],"parents":[2147483647,0,0,1,1,2,2,3,3,4,4,5,5,6,6,8,8,11,11,12,12,13,13,14,14,17,17,18,18,19,19,21,21,22,22,23,23,24,24,25,25,26,26,27,27,35,35,36,36,37,37,38,38,39,39,40,40,41,41,42,42,43,43,48,48,49,49,50,50,51,51,52,52],"right_children":[2,4,6,8,10,12,14,-1,16,-1,-1,18,20,22,24,-1,-1,26,28,30,-1,32,34,36,38,40,42,44,-1,-1,-1,-1,-1,-1,-1,46,48,50,52,54,56,58,60,62,-1,-1,-1,-1,64,66,68,70,72,-1,-1,-1,-1,-1,-1,-1,-1,-1,-1,-1,-1,-1,-1,-1,-1,-1,-1,-1,-1],"split_conditions":[1.6792081E-2,1.9710066E6,5.786746E-2,1.2330511E6,2.539898E6,4.832758E5,1.0802436E5,2.2741117E4,1.689406E6,5.4875605E4,8.198448E4,3.5953275E5,6.780795E5,3.5977745E-1,1.8148152E5,3.2748373E4,4.5145605E4,3.0558888E5,4.2536106E5,5.6736425E5,1.5381519E4,7.644674E4,1.8384322E4,1.4490431E5,2.327068E5,2.8244562E5,3.2571038E5,3.7122847E5,5.890808E3,7.954622E3,1.0341124E4,-5.2885776E3,-4.3419546E3,-6.6491025E3,-6.1147285E3,1.1829191E-1,1.631386E5,7.2365016E-2,2.5581873E5,7.824388E-1,9.606947E0,1.1627907E-2,9.46767E-1,6.1E2,4.3050786E3,-3.0479824E3,-3.6251074E3,-2.6220942E3,1.0752688E-2,9.769926E0,1.07E2,9.527793E-1,5.2E1,5.744421E2,1.3839261E3,1.9649205E2,1.4517445E3,2.0439387E3,7.25832E2,3.1038613E3,2.123448E3,3.5316965E3,1.6820023E3,-2.1059258E3,-1.5566757E3,1.4380486E2,-7.6839026E2,-5.677967E2,-1.4510472E3,1.7965271E2,-3.692384E2,9.9494403E2,8.453709E1],"split_indices":[22,0,22,2,3,2,2,0,3,0,0,3,2,22,2,0,0,3,0,2,0,2,2,3,3,3,2,2,0,0,0,0,0,0,0,22,3,22,2,17,19,14,6,23,0,0,0,0,14,19,23,20,16,0,0,0,0,0,0,0,0,0,0,0,0,0,0,0,0,0,0,0,0],"split_type":[0,0,0,0,0,0,0,0,0,0,0,0,0,0,0,0,0,0,0,0,0,0,0,0,0,0,0,0,0,0,0,0,0,0,0,0,0,0,0,0,0,0,0,0,0,0,0,0,0,0,0,0,0,0,0,0,0,0,0,0,0,0,0,0,0,0,0,0,0,0,0,0,0],"sum_hessian":[3.15E3,1.43E2,3.007E3,1.1E2,3.3E1,7.43E2,2.264E3,4.7E1,6.3E1,1.6E1,1.7E1,5E2,2.43E2,1.49E3,7.74E2,4.2E1,2.1E1,2.72E2,2.28E2,1.65E2,7.8E1,5.2E2,9.7E2,4.19E2,3.55E2,1.27E2,1.45E2,1.48E2,8E1,8.7E1,7.8E1,3.03E2,2.17E2,4.93E2,4.77E2,2.23E2,1.96E2,2.37E2,1.18E2,6.6E1,6.1E1,7E1,7.5E1,3.5E1,1.13E2,9.7E1,1.26E2,1.01E2,9.5E1,1E2,1.37E2,8.7E1,3.1E1,5.7E1,9E0,5E0,5.6E1,6.2E1,8E0,4.4E1,3.1E1,3E1,5E0,7.9E1,1.6E1,8E0,9.2E1,8E0,1.29E2,5.3E1,3.4E1,1.7E1,1.4E1],"tree_param":{"num_deleted":"0","num_feature":"25","num_nodes":"73","size_leaf_vector":"1"}},{"base_weights":[-1.496198E3,8.445207E5,-3.9189527E4,6.106271E5,1.4046016E6,-8.554398E4,1.110148E5,5.1496466E5,3.7920863E4,5.7945477E4,8.426761E4,-1.1181893E5,-3.664678E4,6.484134E4,2.3468247E5,1.7706318E4,2.7135582E4,-1.2221079E5,-9.4588445E4,-5.756785E4,-1.468484E4,4.3780395E4,1.1397292E5,1.8567981E5,1.5756794E4,-5.866005E3,-6.3415244E3,-4.260443E3,-5.159852E3,-6.5415152E4,-4.564107E4,-2.5712572E4,-3.583314E3,2.7483383E4,6.250409E4,6.5225654E3,9.072955E4,8.575101E3,1.1031923E4,-3.0058413E3,-3.4880984E3,-2.3845486E3,-1.9489108E3,-3.062401E4,-1.736085E4,-1.0016785E4,3.565084E3,1.5500703E4,3.90714E4,5.281329E4,6.844684E4,2.594978E3,4.716732E3,-1.6678414E3,-1.2718563E3,-9.834062E2,-2.869028E2,-6.81814E2,-2.0171257E2,-7.593188E1,4.746047E2,1.7515573E3,6.4563324E2,8.363971E2,2.0159811E3,1.2622534E3,2.7286301E3,1.915951E3,3.5301633E3],"categories":[],"categories_nodes":[],"categories_segments":[],"categories_sizes":[],"default_left":[0,0,0,0,0,0,0,0,0,0,0,0,0,0,0,0,0,0,0,0,0,0,0,0,0,0,0,0,0,0,0,0,0,0,0,0,0,0,0,0,0,0,0,0,0,0,0,0,0,0,0,0,0,0,0,0,0,0,0,0,0,0,0,0,0,0,0,0,0],"id":12,"left_children":[1,3,5,7,9,11,13,15,-1,-1,-1,17,19,21,23,-1,-1,25,27,29,31,33,35,37,-1,-1,-1,-1,-1,39,41,43,45,47,49,-1,51,-1,-1,-1,-1,-1,-1,53,55,57,59,61,63,65,67,-1,-1,-1,-1,-1,-1,-1,-1,-1,-1,-1,-1,-1,-1,-1,-1,-1,-1],"loss_changes":[1.009305E14,1.682722E13,2.1106293E13,9.808296E11,7.3698116E11,2.9714316E12,4.06755E12,8.450369E10,0E0,0E0,0E0,2.5810069E11,3.7178258E11,5.3515348E11,7.063166E11,0E0,0E0,6.2683873E9,3.7312004E10,3.585553E10,4.851046E10,1.10268645E11,4.7914287E10,2.312346E10,0E0,0E0,0E0,0E0,0E0,1.5176827E9,4.3565056E8,7.6311265E9,9.187524E9,2.6887766E10,6.1754573E9,0E0,4.623106E9,0E0,0E0,0E0,0E0,0E0,0E0,9.0916454E8,1.9252306E9,2.2186322E9,2.8768855E9,4.5516636E9,2.1145027E9,1.9688817E9,3.9213138E9,0E0,0E0,0E0,0E0,0E0,0E0,0E0,0E0,0E0,0E0,0E0,0E0,0E0,0E0,0E0,0E0,0E0,0E0],"parents":[2147483647,0,0,1,1,2,2,3,3,4,4,5,5,6,6,7,7,11,11,12,12,13,13,14,14,17,17,18,18,19,19,20,20,21,21,22,22,23,23,29,29,30,30,31,31,32,32,33,33,34,34,36,36,43,43,44,44,45,45,46,46,47,47,48,48,49,49,50,50],"right_children":[2,4,6,8,10,12,14,16,-1,-1,-1,18,20,22,24,-1,-1,26,28,30,32,34,36,38,-1,-1,-1,-1,-1,40,42,44,46,48,50,-1,52,-1,-1,-1,-1,-1,-1,54,56,58,60,62,64,66,68,-1,-1,-1,-1,-1,-1,-1,-1,-1,-1,-1,-1,-1,-1,-1,-1,-1,-1],"split_conditions":[1.5636927E-2,1.9710066E6,2.5921203E5,1.4472411E6,2.742941E6,1.0631122E5,5.1542872E5,1.045128E6,3.7920863E4,5.7945477E4,8.426761E4,3.871086E4,1.7594397E5,3.9665762E5,7.0149156E5,1.7706318E4,2.7135582E4,8.854267E-1,2.2506134E-1,1.4361639E5,2.1860398E5,3.2571038E5,3.399953E-2,6.3159125E5,1.5756794E4,-5.866005E3,-6.3415244E3,-4.260443E3,-5.159852E3,1.21551126E-1,1.6574627E5,1.9842061E5,2.3910953E5,2.9111238E5,3.5609353E5,6.5225654E3,-2.133406E1,8.575101E3,1.1031923E4,-3.0058413E3,-3.4880984E3,-2.3845486E3,-1.9489108E3,1.9029939E5,7.661142E-1,1.1062898E3,1.7517595E3,2.3E1,9.870715E-1,3.9640096E-1,5.2419364E-1,2.594978E3,4.716732E3,-1.6678414E3,-1.2718563E3,-9.834062E2,-2.869028E2,-6.81814E2,-2.0171257E2,-7.593188E1,4.746047E2,1.7515573E3,6.4563324E2,8.363971E2,2.0159811E3,1.2622534E3,2.7286301E3,1.915951E3,3.5301633E3],"split_indices":[22,0,0,2,0,2,2,2,0,0,0,0,2,0,2,0,0,22,22,0,2,2,22,2,0,0,0,0,0,22,0,0,2,2,2,0,6,0,0,0,0,0,0,2,17,1,1,4,13,17,20,0,0,0,0,0,0,0,0,0,0,0,0,0,0,0,0,0,0],"split_type":[0,0,0,0,0,0,0,0,0,0,0,0,0,0,0,0,0,0,0,0,0,0,0,0,0,0,0,0,0,0,0,0,0,0,0,0,0,0,0,0,0,0,0,0,0,0,0,0,0,0,0,0,0,0,0,0,0,0,0,0,0,0,0,0,0,0,0,0,0],"sum_hessian":[3.163E3,1.34E2,3.029E3,9.6E1,3.8E1,2.315E3,7.14E2,6.1E1,3.5E1,2.3E1,1.5E1,1.505E3,8.1E2,5.21E2,1.93E2,1.1E1,5E1,9.35E2,5.7E2,4.14E2,3.96E2,3.66E2,1.55E2,1.22E2,7.1E1,4.67E2,4.68E2,2.78E2,2.92E2,2.47E2,1.67E2,1.98E2,1.98E2,1.97E2,1.69E2,8.8E1,6.7E1,9.1E1,3.1E1,1.18E2,1.29E2,1.23E2,4.4E1,1.23E2,7.5E1,1.04E2,9.4E1,9.8E1,9.9E1,6.8E1,1.01E2,7E0,6E1,7.7E1,4.6E1,6.2E1,1.3E1,6.4E1,4E1,5.1E1,4.3E1,1E1,8.8E1,6E0,9.3E1,5E0,6.3E1,8E0,9.3E1],"tree_param":{"num_deleted":"0","num_feature":"25","num_nodes":"69","size_leaf_vector":"1"}},{"base_weights":[5.0648682E2,-3.3786418E4,8.2246056E5,-7.8289555E4,1.247029E5,6.1379806E5,1.2829006E6,-1.033468E5,-2.358487E4,7.957844E4,2.5265948E5,4.7882462E5,3.4745664E4,5.246032E4,8.1263414E4,-1.13136945E5,-7.881839E4,-4.319586E4,-9.4548376E2,5.825562E4,1.3330406E5,2.0921566E5,1.6328604E4,2.5101248E4,1.3764269E4,-5.8644976E3,-5.1227417E3,-4.2968413E3,-3.4087395E3,-5.133638E4,-3.0969875E4,-1.0780636E4,8.673966E3,4.2688684E4,7.671226E4,9.587658E3,1.2834658E5,9.445592E3,1.2369788E4,-2.8164197E3,-2.268853E3,-3.445023E4,-2.4843432E4,-1.4710334E4,-7.58301E3,3.057477E3,1.451354E4,-6.784945E2,4.4527016E4,6.486353E4,8.430602E4,1.1333906E5,1.3811092E5,-1.7802219E3,-1.190477E3,-1.0448208E3,-1.5624698E3,-6.1523956E2,-1.5759174E3,2.2426953E2,-4.9090436E2,2.4255852E2,-6.067963E2,4.3117795E2,1.094079E3,1.9240502E3,3.0868699E3,3.4876033E3,2.051273E3,4.3517393E3,2.8975908E3,3.0655745E3,5.854525E3,4.45587E3,7.089486E3],"categories":[],"categories_nodes":[],"categories_segments":[],"categories_sizes":[],"default_left":[0,0,0,0,0,0,0,0,0,0,0,0,0,0,0,0,0,0,0,0,0,0,0,0,0,0,0,0,0,0,0,0,0,0,0,0,0,0,0,0,0,0,0,0,0,0,0,0,0,0,0,0,0,0,0,0,0,0,0,0,0,0,0,0,0,0,0,0,0,0,0,0,0,0,0],"id":13,"left_children":[1,3,5,7,9,11,13,15,17,19,21,23,-1,-1,-1,25,27,29,31,33,35,37,-1,-1,-1,-1,-1,-1,-1,39,41,43,45,47,49,-1,51,-1,-1,-1,-1,53,55,57,59,61,63,-1,65,67,69,71,73,-1,-1,-1,-1,-1,-1,-1,-1,-1,-1,-1,-1,-1,-1,-1,-1,-1,-1,-1,-1,-1,-1],"loss_changes":[9.0085865E13,2.1649202E13,1.1510361E13,3.2818762E12,3.8657768E12,6.526127E11,1.4151162E12,3.856264E11,3.3472066E11,5.638796E11,4.9360876E11,3.652033E10,0E0,0E0,0E0,3.997591E10,2.9902242E10,3.8618595E10,3.3301182E10,9.987057E10,1.6245588E10,4.0861434E10,0E0,0E0,0E0,0E0,0E0,0E0,0E0,4.613472E9,2.6409697E9,2.0748841E9,5.7936527E9,2.0978336E10,9.197781E9,0E0,3.8360842E9,0E0,0E0,0E0,0E0,4.049879E8,9.399214E8,2.7254671E9,2.68747E9,2.566086E9,3.586898E9,0E0,1.749867E10,5.062656E9,1.8599772E9,4.141351E9,1.0622075E9,0E0,0E0,0E0,0E0,0E0,0E0,0E0,0E0,0E0,0E0,0E0,0E0,0E0,0E0,0E0,0E0,0E0,0E0,0E0,0E0,0E0,0E0],"parents":[2147483647,0,0,1,1,2,2,3,3,4,4,5,5,6,6,7,7,8,8,9,9,10,10,11,11,15,15,16,16,17,17,18,18,19,19,20,20,21,21,29,29,30,30,31,31,32,32,33,33,34,34,36,36,41,41,42,42,43,43,44,44,45,45,46,46,48,48,49,49,50,50,51,51,52,52],"right_children":[2,4,6,8,10,12,14,16,18,20,22,24,-1,-1,-1,26,28,30,32,34,36,38,-1,-1,-1,-1,-1,-1,-1,40,42,44,46,48,50,-1,52,-1,-1,-1,-1,54,56,58,60,62,64,-1,66,68,70,72,74,-1,-1,-1,-1,-1,-1,-1,-1,-1,-1,-1,-1,-1,-1,-1,-1,-1,-1,-1,-1,-1,-1],"split_conditions":[1.0234177E6,2.9154325E5,1.9710066E6,1.2340386E5,5.5689494E5,1.3265546E6,2.9438452E6,6.085165E4,2.025587E5,4.411816E5,7.8936925E5,1.4731354E1,3.4745664E4,5.246032E4,8.1263414E4,3.180423E4,9.580508E4,1.6722681E5,2.4204769E5,3.554574E5,8E0,6.971589E5,1.6328604E4,2.5101248E4,1.3764269E4,-5.8644976E3,-5.1227417E3,-4.2968413E3,-3.4087395E3,1.4361639E5,1.8541742E5,2.1863945E5,2.6248106E5,2.5260106E5,3.8367934E5,9.587658E3,4.838235E5,9.445592E3,1.2369788E4,-2.8164197E3,-2.268853E3,1.3513514E-2,2E0,1.5746722E1,2.2E1,1.4844807E1,1.5343723E3,-6.784945E2,3.4490488E5,6.42E2,9.923671E-1,2.6E1,-2.4968676E1,-1.7802219E3,-1.190477E3,-1.0448208E3,-1.5624698E3,-6.1523956E2,-1.5759174E3,2.2426953E2,-4.9090436E2,2.4255852E2,-6.067963E2,4.3117795E2,1.094079E3,1.9240502E3,3.0868699E3,3.4876033E3,2.051273E3,4.3517393E3,2.8975908E3,3.0655745E3,5.854525E3,4.45587E3,7.089486E3],"split_indices":[0,3,0,0,0,0,3,3,3,0,3,19,0,0,0,3,3,3,3,0,8,3,0,0,0,0,0,0,0,0,0,0,0,0,0,0,0,0,0,0,0,14,16,19,4,19,1,0,3,23,6,4,6,0,0,0,0,0,0,0,0,0,0,0,0,0,0,0,0,0,0,0,0,0,0],"split_type":[0,0,0,0,0,0,0,0,0,0,0,0,0,0,0,0,0,0,0,0,0,0,0,0,0,0,0,0,0,0,0,0,0,0,0,0,0,0,0,0,0,0,0,0,0,0,0,0,0,0,0,0,0,0,0,0,0,0,0,0,0,0,0,0,0,0,0,0,0,0,0,0,0,0,0],"sum_hessian":[3.194E3,3.067E3,1.27E2,2.395E3,6.72E2,8.9E1,3.8E1,1.642E3,7.53E2,4.98E2,1.74E2,3.6E1,5.3E1,2.5E1,1.3E1,1.171E3,4.71E2,4.03E2,3.5E2,3.58E2,1.4E2,1.12E2,6.2E1,3.1E1,5E0,8.36E2,3.35E2,2.78E2,1.93E2,2.4E2,1.63E2,1.73E2,1.77E2,1.96E2,1.62E2,8E0,1.32E2,7.7E1,3.5E1,1.26E2,1.14E2,1.01E2,6.2E1,7.6E1,9.7E1,9.1E1,8.6E1,6E0,1.9E2,6.7E1,9.5E1,5.7E1,7.5E1,8.9E1,1.2E1,4.1E1,2.1E1,6.8E1,8E0,1.5E1,8.2E1,8.2E1,9E0,4.9E1,3.7E1,1.43E2,4.7E1,5.4E1,1.3E1,8.4E1,1.1E1,5E0,5.2E1,7E0,6.8E1],"tree_param":{"num_deleted":"0","num_feature":"25","num_nodes":"75","size_leaf_vector":"1"}},{"base_weights":[3.2758923E3,-2.9816355E4,8.793364E5,1.2799793E5,-7.32373E4,6.654941E5,1.4442106E6,8.249012E4,2.5845028E5,-9.777163E4,-2.0787262E4,5.5312594E5,4.3925113E4,5.342679E4,8.2808414E4,5.8587164E4,1.3472722E5,1.6851033E4,2.1181561E5,-1.0748535E5,-7.398285E4,-4.099752E4,2.2651736E2,2.8669936E4,1.3924179E4,4.4223477E4,7.854568E4,1.5311558E5,1.20314234E5,9.227167E3,1.1696822E4,-5.5887876E3,-4.89186E3,-8.005683E4,-3.1815525E3,-4.739481E4,-2.803775E4,-1.2384027E4,1.2124536E4,3.547225E4,5.411109E4,8.057385E4,1.9923281E3,7.941642E3,4.6620347E3,6.203004E3,4.2657886E3,-4.242984E3,-3.7750496E3,-2.6568215E3,-4.292788E4,-1.6237318E4,-2.952542E4,-1.6105031E4,-5.3239585E3,9.204586E3,4.2156688E4,1.921013E3,7.967834E2,2.9964216E3,1.9337006E3,3.6052244E3,4.6388726E3,-2.1696638E3,-1.2185509E3,-4.0690506E2,-1.3322522E3,-1.525481E3,-7.2172156E2,-9.2316846E2,-3.4343002E2,-4.6784244E2,9.777155E1,6.2823663E2,1.0787135E2,2.7322017E3,1.0638964E3],"categories":[],"categories_nodes":[],"categories_segments":[],"categories_sizes":[],"default_left":[0,0,0,0,0,0,0,0,0,0,0,0,0,0,0,0,0,0,0,0,0,0,0,0,0,0,0,0,0,0,0,0,0,0,0,0,0,0,0,0,0,0,0,0,0,0,0,0,0,0,0,0,0,0,0,0,0,0,0,0,0,0,0,0,0,0,0,0,0,0,0,0,0,0,0,0,0],"id":14,"left_children":[1,3,5,7,9,11,13,15,17,19,21,23,-1,-1,-1,25,27,-1,29,31,33,35,37,-1,-1,39,41,43,45,-1,-1,-1,-1,47,-1,49,51,53,55,57,59,61,-1,-1,-1,-1,-1,-1,-1,-1,63,65,67,69,71,73,75,-1,-1,-1,-1,-1,-1,-1,-1,-1,-1,-1,-1,-1,-1,-1,-1,-1,-1,-1,-1],"loss_changes":[9.239094E13,2.1053233E13,1.3050988E13,3.9146467E12,3.0979329E12,1.5725159E12,6.9876685E11,6.076768E11,5.5517485E11,3.712452E11,3.265989E11,1.6881444E11,0E0,0E0,0E0,9.399697E10,2.2392865E10,0E0,2.3189783E10,3.7206622E10,2.5023742E10,3.1170822E10,5.686546E10,0E0,0E0,1.5386345E10,7.8563246E9,7.0988595E9,1.3457162E9,0E0,0E0,0E0,0E0,1.1350835E8,0E0,4.412932E9,1.8378588E9,4.748038E9,1.6711983E10,5.665497E9,5.9441807E9,7.05672E9,0E0,0E0,0E0,0E0,0E0,0E0,0E0,0E0,2.5519718E8,1.2161649E9,1.282515E9,2.4870953E9,1.9265004E9,4.2115215E9,3.2695337E9,0E0,0E0,0E0,0E0,0E0,0E0,0E0,0E0,0E0,0E0,0E0,0E0,0E0,0E0,0E0,0E0,0E0,0E0,0E0,0E0],"parents":[2147483647,0,0,1,1,2,2,3,3,4,4,5,5,6,6,7,7,8,8,9,9,10,10,11,11,15,15,16,16,18,18,19,19,20,20,21,21,22,22,25,25,26,26,27,27,28,28,33,33,35,35,36,36,37,37,38,38,39,39,40,40,41,41,50,50,51,51,52,52,53,53,54,54,55,55,56,56],"right_children":[2,4,6,8,10,12,14,16,18,20,22,24,-1,-1,-1,26,28,-1,30,32,34,36,38,-1,-1,40,42,44,46,-1,-1,-1,-1,48,-1,50,52,54,56,58,60,62,-1,-1,-1,-1,-1,-1,-1,-1,64,66,68,70,72,74,76,-1,-1,-1,-1,-1,-1,-1,-1,-1,-1,-1,-1,-1,-1,-1,-1,-1,-1,-1,-1],"split_conditions":[1.1338326E6,5.160997E-2,2.2472758E6,5.968071E5,1.271558E5,1.7835815E6,2.742941E6,4.411816E5,1.8906746E-2,6.008939E4,1.9794562E5,1.7687739E0,4.3925113E4,5.342679E4,8.2808414E4,3.7122847E5,2.8831707E-2,1.6851033E4,6.780795E5,3.0239275E4,1.0048141E5,1.7320666E5,2.3910953E5,2.8669936E4,1.3924179E4,3.361871E5,1.723239E0,6.32E2,2.73E2,9.227167E3,1.1696822E4,-5.5887876E3,-4.89186E3,7.805194E4,-3.1815525E3,1.4361639E5,-1.0719743E1,2.2605389E5,2.9111238E5,1.1627907E-2,9.5833415E-1,4.1667906E5,1.9923281E3,7.941642E3,4.6620347E3,6.203004E3,4.2657886E3,-4.242984E3,-3.7750496E3,-2.6568215E3,2.8985508E-2,1.2657739E-1,6.921649E-1,5.784385E-1,1.1847446E3,5.9381936E-2,3.54E2,1.921013E3,7.967834E2,2.9964216E3,1.9337006E3,3.6052244E3,4.6388726E3,-2.1696638E3,-1.2185509E3,-4.0690506E2,-1.3322522E3,-1.525481E3,-7.2172156E2,-9.2316846E2,-3.4343002E2,-4.6784244E2,9.777155E1,6.2823663E2,1.0787135E2,2.7322017E3,1.0638964E3],"split_indices":[0,22,0,2,2,2,0,0,22,0,2,20,0,0,0,2,22,0,2,2,2,2,2,0,0,2,20,23,16,0,0,0,0,2,0,0,6,2,2,14,6,2,0,0,0,0,0,0,0,0,14,18,18,18,1,22,23,0,0,0,0,0,0,0,0,0,0,0,0,0,0,0,0,0,0,0,0],"split_type":[0,0,0,0,0,0,0,0,0,0,0,0,0,0,0,0,0,0,0,0,0,0,0,0,0,0,0,0,0,0,0,0,0,0,0,0,0,0,0,0,0,0,0,0,0,0,0,0,0,0,0,0,0,0,0,0,0,0,0,0,0,0,0,0,0,0,0,0,0,0,0,0,0,0,0,0,0],"sum_hessian":[3.185E3,3.07E3,1.15E2,6.62E2,2.408E3,8.5E1,3E1,4.92E2,1.7E2,1.64E3,7.68E2,5.8E1,2.7E1,1.3E1,1.7E1,3.39E2,1.53E2,6.1E1,1.09E2,1.162E3,4.78E2,3.91E2,3.77E2,5.3E1,5E0,1.99E2,1.4E2,6.3E1,9E1,5.3E1,5.6E1,7.97E2,3.65E2,2.97E2,1.81E2,2.6E2,1.31E2,1.83E2,1.94E2,1.08E2,9.1E1,1.32E2,8E0,5.6E1,7E0,7.9E1,1.1E1,1.36E2,1.61E2,1.09E2,1.51E2,1.6E1,1.15E2,1.19E2,6.4E1,1.78E2,1.6E1,9.3E1,1.5E1,6.4E1,2.7E1,8.2E1,5E1,1.46E2,5E0,1E1,6E0,1.07E2,8E0,9.4E1,2.5E1,4.1E1,2.3E1,1.2E2,5.8E1,9E0,7E0],"tree_param":{"num_deleted":"0","num_feature":"25","num_nodes":"77","size_leaf_vector":"1"}},{"base_weights":[5.384829E2,-3.058439E4,7.5588144E5,-7.025273E4,1.1090551E5,5.1500138E5,1.123897E6,-9.4545234E4,-2.4678225E4,6.323457E4,2.074712E5,1.7755918E4,2.7221354E4,4.7217332E4,7.339606E4,-1.024567E5,-7.328175E4,-4.3099863E4,-4.384743E3,4.322157E4,9.787175E4,1.6082061E5,2.6994922E5,-1.054156E5,-4.5563496E3,-3.9541619E3,-3.2336775E3,-2.639905E3,-3.560441E4,-1.3818057E4,8.9628125E3,3.4283242E4,6.0648004E4,8.133199E4,1.1157553E5,7.567336E3,9.413515E3,1.1748022E4,1.5102461E4,-5.49056E3,-5.085058E3,-1.9776044E3,-2.9428092E4,-1.9484166E4,-9.411325E3,4.0277925E3,1.6493186E4,2.3723258E4,3.793456E4,1.6410406E3,6.2804785E4,4.2332627E3,5.3332594E4,5.84618E3,4.13381E3,-1.5387954E3,-1.1215319E3,-1.1116488E3,-6.832736E2,-9.776694E1,-5.781994E2,-4.0211133E2,2.7961874E2,1.9735941E3,6.047663E2,1.8926711E3,1.0146917E3,2.234807E3,1.7095022E3,3.2129382E3,1.6111971E3,3.2367976E3,1.6520234E3],"categories":[],"categories_nodes":[],"categories_segments":[],"categories_sizes":[],"default_left":[0,0,0,0,0,0,0,0,0,0,0,0,0,0,0,0,0,0,0,0,0,0,0,0,0,0,0,0,0,0,0,0,0,0,0,0,0,0,0,0,0,0,0,0,0,0,0,0,0,0,0,0,0,0,0,0,0,0,0,0,0,0,0,0,0,0,0,0,0,0,0,0,0],"id":15,"left_children":[1,3,5,7,9,11,13,15,17,19,21,-1,-1,-1,-1,23,25,27,29,31,33,35,37,39,-1,-1,-1,-1,41,43,45,47,49,51,53,-1,-1,-1,-1,-1,-1,-1,55,57,59,61,63,65,67,-1,69,-1,71,-1,-1,-1,-1,-1,-1,-1,-1,-1,-1,-1,-1,-1,-1,-1,-1,-1,-1,-1,-1],"loss_changes":[7.485049E13,1.7171333E13,1.0590785E13,2.642573E12,3.0711444E12,1.7362741E11,1.6404888E12,2.5458796E11,3.108452E11,3.07707E11,6.007208E11,0E0,0E0,0E0,0E0,2.8375515E10,1.6160129E10,2.9814227E10,5.0110783E10,4.2624844E10,2.8097118E10,5.0528256E9,3.3482605E10,3.395289E9,0E0,0E0,0E0,0E0,4.907172E9,5.6344084E9,6.0653896E9,6.5031537E9,3.7003592E9,2.7642757E9,3.7795922E9,0E0,0E0,0E0,0E0,0E0,0E0,0E0,2.622423E8,1.3116211E9,2.1120686E9,1.952314E9,6.0912845E9,1.7516421E9,2.0418068E9,0E0,1.8421514E9,0E0,4.0647475E8,0E0,0E0,0E0,0E0,0E0,0E0,0E0,0E0,0E0,0E0,0E0,0E0,0E0,0E0,0E0,0E0,0E0,0E0,0E0,0E0],"parents":[2147483647,0,0,1,1,2,2,3,3,4,4,5,5,6,6,7,7,8,8,9,9,10,10,15,15,16,16,17,17,18,18,19,19,20,20,21,21,22,22,23,23,28,28,29,29,30,30,31,31,32,32,33,33,34,34,42,42,43,43,44,44,45,45,46,46,47,47,48,48,50,50,52,52],"right_children":[2,4,6,8,10,12,14,16,18,20,22,-1,-1,-1,-1,24,26,28,30,32,34,36,38,40,-1,-1,-1,-1,42,44,46,48,50,52,54,-1,-1,-1,-1,-1,-1,-1,56,58,60,62,64,66,68,-1,70,-1,72,-1,-1,-1,-1,-1,-1,-1,-1,-1,-1,-1,-1,-1,-1,-1,-1,-1,-1,-1,-1],"split_conditions":[1.045128E6,2.8331375E5,1.8861315E6,1.1687933E5,5.1542872E5,1.1338326E6,2.7618658E6,5.925317E4,1.9029939E5,3.9665762E5,6.780795E5,1.7755918E4,2.7221354E4,4.7217332E4,7.339606E4,3.689868E4,9.129407E4,1.4728262E5,2.4204769E5,3.5609353E5,4.411816E5,6.3159125E5,7.933666E5,1.5367116E4,-4.5563496E3,-3.9541619E3,-3.2336775E3,-2.639905E3,1.7320666E5,2.1001478E5,2.6955662E5,3.0558888E5,5.2984506E-1,1.5283787E0,8.585183E0,7.567336E3,9.413515E3,1.1748022E4,1.5102461E4,-5.49056E3,-5.085058E3,-1.9776044E3,1.8541742E5,4.1E1,1.0384317E1,4.297156E-1,1.8E1,5.8982253E-1,1.8840452E0,1.6410406E3,1.0922133E1,4.2332627E3,5.5E1,5.84618E3,4.13381E3,-1.5387954E3,-1.1215319E3,-1.1116488E3,-6.832736E2,-9.776694E1,-5.781994E2,-4.0211133E2,2.7961874E2,1.9735941E3,6.047663E2,1.8926711E3,1.0146917E3,2.234807E3,1.7095022E3,3.2129382E3,1.6111971E3,3.2367976E3,1.6520234E3],"split_indices":[2,0,3,2,2,0,2,3,2,0,2,0,0,0,0,3,2,3,3,2,0,2,0,2,0,0,0,0,2,0,3,3,20,20,24,0,0,0,0,0,0,0,0,7,19,17,4,20,24,0,24,0,4,0,0,0,0,0,0,0,0,0,0,0,0,0,0,0,0,0,0,0,0],"split_type":[0,0,0,0,0,0,0,0,0,0,0,0,0,0,0,0,0,0,0,0,0,0,0,0,0,0,0,0,0,0,0,0,0,0,0,0,0,0,0,0,0,0,0,0,0,0,0,0,0,0,0,0,0,0,0,0,0,0,0,0,0,0,0,0,0,0,0,0,0,0,0,0,0],"sum_hessian":[3.182E3,3.057E3,1.25E2,2.388E3,6.69E2,7.7E1,4.8E1,1.557E3,8.31E2,4.49E2,2.2E2,1.4E1,6.3E1,3.4E1,1.4E1,1.132E3,4.25E2,4.35E2,3.96E2,2.86E2,1.63E2,1.28E2,9.2E1,8.91E2,2.41E2,2.49E2,1.76E2,1.87E2,2.48E2,2.32E2,1.64E2,1.91E2,9.5E1,7.7E1,8.6E1,1E2,2.8E1,4.8E1,4.4E1,3.95E2,4.96E2,1.48E2,1E2,1E2,1.32E2,1E2,6.4E1,5.1E1,1.4E2,8E0,8.7E1,6.7E1,1E1,7E1,1.6E1,8.1E1,1.9E1,6.6E1,3.4E1,3E1,1.02E2,1.1E1,8.9E1,9E0,5.5E1,8E0,4.3E1,4.6E1,9.4E1,8.2E1,5E0,5E0,5E0],"tree_param":{"num_deleted":"0","num_feature":"25","num_nodes":"73","size_leaf_vector":"1"}},{"base_weights":[1.4737389E3,-2.935593E4,7.278568E5,-6.7432625E4,1.0570735E5,6.1606344E5,8.050702E4,-9.118166E4,-2.5457521E4,5.978028E4,1.9957695E5,4.7446172E5,4.3839258E4,-9.890679E4,-7.439656E4,-4.3443695E4,-3.4398936E3,4.03321E4,9.084441E4,1.547604E5,2.6189994E5,5.019249E5,8.570917E3,-5.1500566E3,-4.6872065E3,-4.0426367E3,-3.341306E3,-5.026543E4,-3.2344715E4,-1.2278812E4,8.436499E3,-1.8104492E3,4.1849906E4,7.607426E4,1.0474014E5,6.9503945E3,8.609508E3,1.173613E4,1.5881344E4,2.1287035E4,2.784406E4,-2.7302104E3,-2.2354841E3,-1.7905416E3,-2.7792064E4,-1.6570398E4,-7.076362E3,4.7562974E3,1.3996258E4,3.1233518E4,5.461166E4,5.6840637E4,8.2804414E4,8.420098E4,5.6778994E3,-1.4546467E3,-9.9342706E2,-9.398461E2,-4.0200754E2,-4.7530695E2,2.0830656E2,-5.582686E2,3.208581E2,9.491924E2,3.6891772E2,1.6503264E3,8.0511206E2,4.338797E3,2.5669941E3,3.2472966E3,1.7157216E3,4.282402E3,2.0757656E3,4.898249E3,2.769562E3],"categories":[],"categories_nodes":[],"categories_segments":[],"categories_sizes":[],"default_left":[0,0,0,0,0,0,0,0,0,0,0,0,0,0,0,0,0,0,0,0,0,0,0,0,0,0,0,0,0,0,0,0,0,0,0,0,0,0,0,0,0,0,0,0,0,0,0,0,0,0,0,0,0,0,0,0,0,0,0,0,0,0,0,0,0,0,0,0,0,0,0,0,0,0,0],"id":16,"left_children":[1,3,5,7,9,11,-1,13,15,17,19,21,-1,23,25,27,29,31,33,35,37,39,-1,-1,-1,-1,-1,41,43,45,47,-1,49,51,53,-1,-1,-1,-1,-1,-1,-1,-1,-1,55,57,59,61,63,65,67,69,71,73,-1,-1,-1,-1,-1,-1,-1,-1,-1,-1,-1,-1,-1,-1,-1,-1,-1,-1,-1,-1,-1],"loss_changes":[7.15035E13,1.5759409E13,1.1830399E13,2.380194E12,2.8937882E12,3.9034793E12,0E0,1.9051368E11,3.4240168E11,2.7061584E11,5.7674406E11,5.631199E11,0E0,1.2370051E10,1.8302108E10,3.4414133E10,4.104363E10,3.4160378E10,2.7744141E10,1.2032147E10,6.3266357E10,6.017568E10,0E0,0E0,0E0,0E0,0E0,4.6214676E9,1.9082772E9,4.8839373E9,3.3504225E9,0E0,3.5687825E10,6.684508E9,6.194987E9,0E0,0E0,0E0,0E0,0E0,0E0,0E0,0E0,0E0,2.8778906E8,2.1659914E9,2.853229E9,2.7689108E9,2.0384174E9,3.5731866E9,8.593998E9,2.5185403E9,3.8411633E9,6.469714E9,0E0,0E0,0E0,0E0,0E0,0E0,0E0,0E0,0E0,0E0,0E0,0E0,0E0,0E0,0E0,0E0,0E0,0E0,0E0,0E0,0E0],"parents":[2147483647,0,0,1,1,2,2,3,3,4,4,5,5,7,7,8,8,9,9,10,10,11,11,13,13,14,14,15,15,16,16,17,17,18,18,19,19,20,20,21,21,27,27,28,28,29,29,30,30,32,32,33,33,34,34,44,44,45,45,46,46,47,47,48,48,49,49,50,50,51,51,52,52,53,53],"right_children":[2,4,6,8,10,12,-1,14,16,18,20,22,-1,24,26,28,30,32,34,36,38,40,-1,-1,-1,-1,-1,42,44,46,48,-1,50,52,54,-1,-1,-1,-1,-1,-1,-1,-1,-1,56,58,60,62,64,66,68,70,72,74,-1,-1,-1,-1,-1,-1,-1,-1,-1,-1,-1,-1,-1,-1,-1,-1,-1,-1,-1,-1,-1],"split_conditions":[1.1148898E6,2.9154325E5,2.9438452E6,1.0896746E5,5.1542872E5,1.7835815E6,8.050702E4,4.758661E4,1.9029939E5,3.9722172E5,7.0149156E5,9.714286E-1,4.3839258E4,1.9398363E4,7.745395E4,1.5617823E5,2.4204769E5,-3.2078604E3,4.4797444E5,5.968071E5,9.0802206E5,1.3851076E6,8.570917E3,-5.1500566E3,-4.6872065E3,-4.0426367E3,-3.341306E3,1.3330778E5,1.743311E5,2.205449E5,2.692451E5,-1.8104492E3,3.4490488E5,9.958278E-1,5.460148E-1,6.9503945E3,8.609508E3,1.173613E4,1.5881344E4,2.1287035E4,2.784406E4,-2.7302104E3,-2.2354841E3,-1.7905416E3,6.3453984E-1,1.0028477E0,1.3903519E1,9.8E1,4.04E2,8.1458265E-1,4.035022E-1,9.431553E-1,1.8181818E-2,7.5271587E0,5.6778994E3,-1.4546467E3,-9.9342706E2,-9.398461E2,-4.0200754E2,-4.7530695E2,2.0830656E2,-5.582686E2,3.208581E2,9.491924E2,3.6891772E2,1.6503264E3,8.0511206E2,4.338797E3,2.5669941E3,3.2472966E3,1.7157216E3,4.282402E3,2.0757656E3,4.898249E3,2.769562E3],"split_indices":[3,3,3,3,2,2,0,3,2,2,2,5,0,2,3,3,3,6,2,2,2,3,0,0,0,0,0,2,3,3,2,0,3,13,17,0,0,0,0,0,0,0,0,0,18,13,19,23,23,17,17,6,14,24,0,0,0,0,0,0,0,0,0,0,0,0,0,0,0,0,0,0,0,0,0],"split_type":[0,0,0,0,0,0,0,0,0,0,0,0,0,0,0,0,0,0,0,0,0,0,0,0,0,0,0,0,0,0,0,0,0,0,0,0,0,0,0,0,0,0,0,0,0,0,0,0,0,0,0,0,0,0,0,0,0,0,0,0,0,0,0,0,0,0,0,0,0,0,0,0,0,0,0],"sum_hessian":[3.191E3,3.062E3,1.29E2,2.389E3,6.73E2,1.16E2,1.3E1,1.525E3,8.64E2,4.53E2,2.2E2,7.7E1,3.9E1,1.041E3,4.84E2,4.75E2,3.89E2,2.8E2,1.73E2,1.3E2,9E1,7E1,7E0,5.7E2,4.71E2,2.56E2,2.28E2,2.92E2,1.83E2,2.23E2,1.66E2,5E0,2.75E2,8.7E1,8.6E1,7.3E1,5.7E1,6.4E1,2.6E1,3.3E1,3.7E1,1.59E2,1.33E2,1E2,8.3E1,1.21E2,1.02E2,1.01E2,6.5E1,1.52E2,1.23E2,2.5E1,6.2E1,2.9E1,5.7E1,6.9E1,1.4E1,9.5E1,2.6E1,8.4E1,1.8E1,9E0,9.2E1,3.6E1,2.9E1,1.35E2,1.7E1,9E0,1.14E2,1.7E1,8E0,5.7E1,5E0,1.8E1,1.1E1],"tree_param":{"num_deleted":"0","num_feature":"25","num_nodes":"75","size_leaf_vector":"1"}},{"base_weights":[4.3460617E2,7.761996E5,-2.6167537E4,5.859748E5,1.2545139E6,-6.3320453E4,1.0631524E5,2.5436977E4,3.9032918E4,7.524343E4,4.785232E4,-8.391702E4,-1.8724277E4,7.623937E4,2.6068592E5,-9.22947E4,-6.3428227E4,-3.4462766E4,-7.0994617E2,4.9151086E4,1.3001041E5,1.60773955E4,1.1109179E4,-4.8484966E3,-8.582738E4,-3.560409E3,-2.825908E3,-4.294056E4,-2.6582213E4,-1.1560791E4,7.2331597E3,7.118193E4,3.735691E4,1.02181984E5,1.4225667E5,-4.0534849E3,-4.455249E3,-2.299319E3,-1.9308131E3,-2.9592873E4,-1.9913844E4,-1.3551343E4,-3.4825046E3,5.059882E3,4.1765055E4,6.012533E4,7.925357E4,2.7067457E4,4.5692848E4,8.761515E4,5.921068E3,8.963719E3,1.3575633E5,-1.5263137E3,-1.0922723E3,-1.1439408E3,-5.4535706E2,-4.6399054E2,-8.9051935E2,3.0670908E1,-8.80665E2,5.173432E2,5.483363E1,2.8462058E3,8.559323E2,1.1434086E3,3.1575789E3,3.394089E3,4.3326978E3,1.479235E3,7.965542E2,6.326266E2,2.3433152E3,3.2821072E3,5.0092173E3,3.977836E3,6.8810767E3],"categories":[],"categories_nodes":[],"categories_segments":[],"categories_sizes":[],"default_left":[0,0,0,0,0,0,0,0,0,0,0,0,0,0,0,0,0,0,0,0,0,0,0,0,0,0,0,0,0,0,0,0,0,0,0,0,0,0,0,0,0,0,0,0,0,0,0,0,0,0,0,0,0,0,0,0,0,0,0,0,0,0,0,0,0,0,0,0,0,0,0,0,0,0,0,0,0],"id":17,"left_children":[1,3,5,7,9,11,13,-1,-1,-1,-1,15,17,19,21,23,25,27,29,31,33,-1,-1,-1,35,-1,-1,37,39,41,43,45,47,49,51,-1,-1,-1,-1,53,55,57,59,61,63,65,67,69,71,73,-1,-1,75,-1,-1,-1,-1,-1,-1,-1,-1,-1,-1,-1,-1,-1,-1,-1,-1,-1,-1,-1,-1,-1,-1,-1,-1],"loss_changes":[6.535709E13,8.818549E12,1.5078269E13,7.606538E11,7.1946994E11,2.1955472E12,3.0954677E12,0E0,0E0,0E0,0E0,2.749639E11,2.1459891E11,8.136559E11,1.8398052E11,2.6720862E10,2.1672624E10,2.5849627E10,3.0594675E10,9.5039E10,4.9533157E10,0E0,0E0,0E0,4.9519E8,0E0,0E0,7.6621414E8,3.666854E9,2.364844E9,1.5173394E10,6.836781E9,1.9948962E10,4.0544502E9,6.462898E9,0E0,0E0,0E0,0E0,3.744727E8,1.5930778E9,2.0178391E9,1.805042E9,4.0536156E9,3.5089306E9,5.2080476E9,1.7691443E8,2.6964132E9,4.641194E9,3.3662894E9,0E0,0E0,8.9627034E8,0E0,0E0,0E0,0E0,0E0,0E0,0E0,0E0,0E0,0E0,0E0,0E0,0E0,0E0,0E0,0E0,0E0,0E0,0E0,0E0,0E0,0E0,0E0,0E0],"parents":[2147483647,0,0,1,1,2,2,3,3,4,4,5,5,6,6,11,11,12,12,13,13,14,14,15,15,16,16,17,17,18,18,19,19,20,20,24,24,27,27,28,28,29,29,30,30,31,31,32,32,33,33,34,34,39,39,40,40,41,41,42,42,43,43,44,44,45,45,46,46,47,47,48,48,49,49,52,52],"right_children":[2,4,6,8,10,12,14,-1,-1,-1,-1,16,18,20,22,24,26,28,30,32,34,-1,-1,-1,36,-1,-1,38,40,42,44,46,48,50,52,-1,-1,-1,-1,54,56,58,60,62,64,66,68,70,72,74,-1,-1,76,-1,-1,-1,-1,-1,-1,-1,-1,-1,-1,-1,-1,-1,-1,-1,-1,-1,-1,-1,-1,-1,-1,-1,-1],"split_conditions":[1.3229454E-2,2.2472758E6,2.8331375E5,1.8861315E6,5.4685804E-3,1.271558E5,6.6474844E5,2.5436977E4,3.9032918E4,7.524343E4,4.785232E4,6.1400914E4,2.025587E5,4.6279353E5,1.6792081E-2,2.3195643E4,8.969014E4,1.6088477E5,2.3342722E5,3.986916E-2,5.1542872E5,1.60773955E4,1.1109179E4,-4.8484966E3,3.8747817E-1,-3.560409E3,-2.825908E3,1.4361639E5,1.8541742E5,5.784385E-1,2.9154325E5,4.107902E5,3.2571038E5,4.9E1,2.5601791E-2,-4.0534849E3,-4.455249E3,-2.299319E3,-1.9308131E3,6.2655675E-1,7.2146076E-1,1.19105835E1,3.5E1,5.786746E-2,9.8067623E-1,1.06288735E-2,9.9720997E-1,1.49E2,3.6144155E-1,1.1009843E0,5.921068E3,8.963719E3,3.3491988E-2,-1.5263137E3,-1.0922723E3,-1.1439408E3,-5.4535706E2,-4.6399054E2,-8.9051935E2,3.0670908E1,-8.80665E2,5.173432E2,5.483363E1,2.8462058E3,8.559323E2,1.1434086E3,3.1575789E3,3.394089E3,4.3326978E3,1.479235E3,7.965542E2,6.326266E2,2.3433152E3,3.2821072E3,5.0092173E3,3.977836E3,6.8810767E3],"split_indices":[22,0,0,3,22,2,0,0,0,0,0,2,3,2,22,0,2,3,2,22,2,0,0,0,22,0,0,0,0,18,3,0,2,4,18,0,0,0,0,18,17,19,16,22,13,18,13,16,17,20,0,0,18,0,0,0,0,0,0,0,0,0,0,0,0,0,0,0,0,0,0,0,0,0,0,0,0],"split_type":[0,0,0,0,0,0,0,0,0,0,0,0,0,0,0,0,0,0,0,0,0,0,0,0,0,0,0,0,0,0,0,0,0,0,0,0,0,0,0,0,0,0,0,0,0,0,0,0,0,0,0,0,0,0,0,0,0,0,0,0,0,0,0,0,0,0,0,0,0,0,0,0,0,0,0,0,0],"sum_hessian":[3.165E3,1.04E2,3.061E3,7.6E1,2.8E1,2.391E3,6.7E2,5.7E1,1.9E1,1.3E1,1.5E1,1.635E3,7.56E2,5.62E2,1.08E2,1.158E3,4.77E2,4.03E2,3.53E2,3.75E2,1.87E2,3.9E1,6.9E1,6.64E2,4.94E2,2.2E2,2.57E2,1.92E2,2.11E2,1.49E2,2.04E2,1.29E2,2.46E2,6E1,1.27E2,2.12E2,2.82E2,1.07E2,8.5E1,1.43E2,6.8E1,1.19E2,3E1,1.93E2,1.1E1,5.8E1,7.1E1,1.12E2,1.34E2,3.5E1,2.5E1,1.5E1,1.12E2,1.25E2,1.8E1,5E1,1.8E1,6.1E1,5.8E1,2.4E1,6E0,8.2E1,1.11E2,6E0,5E0,5E0,5.3E1,3.2E1,3.9E1,9E1,2.2E1,5E0,1.29E2,1.5E1,2E1,5E0,1.07E2],"tree_param":{"num_deleted":"0","num_feature":"25","num_nodes":"77","size_leaf_vector":"1"}},{"base_weights":[9.197741E2,-2.7607691E4,6.38449E5,8.328739E4,-6.3426223E4,4.9618934E5,1.1891101E6,4.687365E4,1.628479E5,-8.298778E4,-2.8271863E4,3.7450694E5,6.2723E5,4.54853E4,7.1001484E4,2.7303965E4,7.4873805E4,1.364072E5,2.3119125E5,-8.9901016E4,-7.01374E4,-4.3924367E4,-1.1189623E4,3.9129703E5,8.0489136E3,2.342743E4,6.86383E5,1.4651331E4,3.7707055E4,6.435887E4,9.2662164E4,6.043765E3,8.130445E3,6.5410425E3,1.1879417E4,-4.316143E3,-4.7139014E3,-3.7680251E3,-3.1723806E3,-2.543773E3,-3.736855E4,-2.175516E4,-3.1683494E3,1.3213815E4,2.1064818E4,2.664292E4,3.8167926E4,6.265917E3,1.9551217E4,2.4429195E4,4.0618215E4,5.334539E4,6.950973E4,7.244359E4,1.0075633E5,-4.045751E4,-3.3090883E4,-2.2601066E4,-8.804468E3,-8.715091E3,1.5405255E3,5.856672E2,-2.3372037E2,-2.958469E2,1.0598187E3,1.6607617E3,5.380171E2,2.2333335E3,1.3222229E3,2.2561082E3,3.260136E3,2.8118606E3,3.8606758E3,4.105892E3,1.7917919E3,5.2942666E3,3.4569446E3,-1.202597E3,-2.0541284E3,-8.3542883E2,-1.6984072E3,-1.1567533E3,-2.6086407E2,-7.69524E2,-9.5076675E1,-1.2450547E3,-3.8175912E2,2.4967813E2,-1.7658595E2],"categories":[],"categories_nodes":[],"categories_segments":[],"categories_sizes":[],"default_left":[0,0,0,0,0,0,0,0,0,0,0,0,0,0,0,0,0,0,0,0,0,0,0,0,0,0,0,0,0,0,0,0,0,0,0,0,0,0,0,0,0,0,0,0,0,0,0,0,0,0,0,0,0,0,0,0,0,0,0,0,0,0,0,0,0,0,0,0,0,0,0,0,0,0,0,0,0,0,0,0,0,0,0,0,0,0,0,0,0],"id":18,"left_children":[1,3,5,7,9,11,13,15,17,19,21,23,25,-1,-1,27,29,31,33,35,37,39,41,43,-1,-1,45,47,49,51,53,-1,-1,-1,-1,-1,-1,-1,-1,-1,55,57,59,-1,-1,-1,-1,61,63,65,67,69,71,73,75,77,79,81,83,85,87,-1,-1,-1,-1,-1,-1,-1,-1,-1,-1,-1,-1,-1,-1,-1,-1,-1,-1,-1,-1,-1,-1,-1,-1,-1,-1,-1,-1],"loss_changes":[5.732515E13,1.1989106E13,9.985459E12,2.1275266E12,1.5662391E12,1.50314E12,4.5022498E11,2.757684E11,3.858917E11,1.2384207E11,2.179578E11,1.4853394E11,1.5710604E11,0E0,0E0,3.8935495E10,3.2941277E10,4.9121067E10,9.369289E9,6.7239936E9,1.3283361E10,1.7511678E10,3.3152713E10,9.443056E10,0E0,0E0,6.85559E9,5.5064904E9,5.3469676E9,3.8936248E9,4.974838E9,0E0,0E0,0E0,0E0,0E0,0E0,0E0,0E0,0E0,1.6078275E9,1.6524165E9,5.8640625E9,0E0,0E0,0E0,0E0,3.1537766E9,3.7287383E9,3.4856346E9,6.450594E9,1.6406692E9,4.6556447E9,5.911044E9,9.496494E8,2.936832E8,8.552202E8,1.3459948E9,5.1628806E8,1.6102554E9,2.154423E9,0E0,0E0,0E0,0E0,0E0,0E0,0E0,0E0,0E0,0E0,0E0,0E0,0E0,0E0,0E0,0E0,0E0,0E0,0E0,0E0,0E0,0E0,0E0,0E0,0E0,0E0,0E0,0E0],"parents":[2147483647,0,0,1,1,2,2,3,3,4,4,5,5,6,6,7,7,8,8,9,9,10,10,11,11,12,12,15,15,16,16,17,17,18,18,19,19,20,20,21,21,22,22,23,23,26,26,27,27,28,28,29,29,30,30,40,40,41,41,42,42,47,47,48,48,49,49,50,50,51,51,52,52,53,53,54,54,55,55,56,56,57,57,58,58,59,59,60,60],"right_children":[2,4,6,8,10,12,14,16,18,20,22,24,26,-1,-1,28,30,32,34,36,38,40,42,44,-1,-1,46,48,50,52,54,-1,-1,-1,-1,-1,-1,-1,-1,-1,56,58,60,-1,-1,-1,-1,62,64,66,68,70,72,74,76,78,80,82,84,86,88,-1,-1,-1,-1,-1,-1,-1,-1,-1,-1,-1,-1,-1,-1,-1,-1,-1,-1,-1,-1,-1,-1,-1,-1,-1,-1,-1,-1],"split_conditions":[9.592668E5,5.786746E-2,2.2472758E6,4.9656178E5,1.0048141E5,1.4472411E6,2.9438452E6,3.7122847E5,7.3771094E5,4.136986E4,1.7320666E5,3.3608758E-1,1.9292229E4,4.54853E4,7.1001484E4,3.0327206E5,4.4797444E5,6.1645844E5,9.5507467E-1,9.7474617E-1,7.058951E4,1.3330778E5,2.09555E5,1.1148898E6,8.0489136E3,2.342743E4,1.7835815E6,1.2421943E3,4.3197054E-2,9.958278E-1,5.460148E-1,6.043765E3,8.130445E3,6.5410425E3,1.1879417E4,-4.316143E3,-4.7139014E3,-3.7680251E3,-3.1723806E3,-2.543773E3,1.5617823E5,6.921649E-1,2.327068E5,1.3213815E4,2.1064818E4,2.664292E4,3.8167926E4,9.486194E2,9.472103E0,6.257682E-1,9.6341383E-1,4.75E2,3.9665762E5,5.75E2,7.8E1,2.484216E2,5.2984506E-1,2.1477878E0,5.9E1,1.2247751E-2,9.8672235E-1,5.856672E2,-2.3372037E2,-2.958469E2,1.0598187E3,1.6607617E3,5.380171E2,2.2333335E3,1.3222229E3,2.2561082E3,3.260136E3,2.8118606E3,3.8606758E3,4.105892E3,1.7917919E3,5.2942666E3,3.4569446E3,-1.202597E3,-2.0541284E3,-8.3542883E2,-1.6984072E3,-1.1567533E3,-2.6086407E2,-7.69524E2,-9.5076675E1,-1.2450547E3,-3.8175912E2,2.4967813E2,-1.7658595E2],"split_indices":[0,22,0,0,2,2,3,2,2,3,2,18,1,0,0,0,2,2,13,22,3,2,2,3,0,0,2,1,18,13,17,0,0,0,0,0,0,0,0,0,3,18,3,0,0,0,0,1,19,17,6,23,0,23,4,1,20,20,7,18,20,0,0,0,0,0,0,0,0,0,0,0,0,0,0,0,0,0,0,0,0,0,0,0,0,0,0,0,0],"split_type":[0,0,0,0,0,0,0,0,0,0,0,0,0,0,0,0,0,0,0,0,0,0,0,0,0,0,0,0,0,0,0,0,0,0,0,0,0,0,0,0,0,0,0,0,0,0,0,0,0,0,0,0,0,0,0,0,0,0,0,0,0,0,0,0,0,0,0,0,0,0,0,0,0,0,0,0,0,0,0,0,0,0,0,0,0,0,0,0,0],"sum_hessian":[3.15E3,3.016E3,1.34E2,7.36E2,2.28E3,1.08E2,2.6E1,5.06E2,2.3E2,1.464E3,8.16E2,5.8E1,5E1,1.4E1,1.2E1,2.99E2,2.07E2,1.68E2,6.2E1,9.48E2,5.16E2,4.25E2,3.91E2,5.3E1,5E0,1.6E1,3.4E1,1.36E2,1.63E2,1.33E2,7.4E1,1.09E2,5.9E1,5E0,5.7E1,5.33E2,4.15E2,2.84E2,2.32E2,2.03E2,2.22E2,1.68E2,2.23E2,1.2E1,4.1E1,1.4E1,2E1,5.1E1,8.5E1,3.1E1,1.32E2,4.6E1,8.7E1,2.4E1,5E1,1.24E2,9.8E1,1.57E2,1.1E1,1.02E2,1.21E2,3.4E1,1.7E1,5E0,8E1,1.8E1,1.3E1,1.01E2,3.1E1,3E1,1.6E1,3.5E1,5.2E1,1.8E1,6E0,4.1E1,9E0,6E0,1.18E2,6E0,9.2E1,1.52E2,5E0,5E0,6E0,5E0,9.7E1,7.2E1,4.9E1],"tree_param":{"num_deleted":"0","num_feature":"25","num_nodes":"89","size_leaf_vector":"1"}},{"base_weights":[1.9381278E3,6.9458494E5,-2.3274217E4,5.2286434E5,1.1680314E6,-5.716199E4,9.626424E4,4.3709425E5,6.973863E5,4.7856645E4,7.365126E4,-1.876711E4,-7.721292E4,6.5535637E4,2.1869677E5,1.21533E4,2.252793E4,2.0680984E4,3.7262684E4,-3.3578395E4,1.3531715E2,-8.407077E4,-6.110623E4,4.30339E4,1.0293788E5,1.8834344E5,1.4468083E4,-4.048168E4,-2.36598E4,1.2235576E4,-6.349359E3,-4.382636E3,-3.930286E3,-3.2936638E3,-2.6440964E3,2.8432027E4,5.3765742E4,4.2415854E3,1.15415E5,1.0146271E4,7.426337E3,-2.2162903E3,-3.5706098E4,-2.570087E4,-1.6622918E4,5.738468E3,2.1805021E4,-1.1178241E4,-1.0411942E3,2.0380947E4,3.3449797E4,5.5459926E4,2.3166596E4,6.013476E3,8.5614375E4,-1.8285619E3,-1.2686431E3,-1.0430541E3,-1.3598374E3,-6.5764886E2,-1.3233955E3,1.610701E2,1.3522743E3,9.3898145E2,2.0682769E3,-4.6992023E2,-1.0913947E3,-1.2859566E2,6.092121E2,7.692203E2,1.6423815E3,1.9787343E3,1.1666654E3,2.3989539E3,3.1172214E3,6.901003E2,1.5115427E3,5.270789E3,3.3421587E3],"categories":[],"categories_nodes":[],"categories_segments":[],"categories_sizes":[],"default_left":[0,0,0,0,0,0,0,0,0,0,0,0,0,0,0,0,0,0,0,0,0,0,0,0,0,0,0,0,0,0,0,0,0,0,0,0,0,0,0,0,0,0,0,0,0,0,0,0,0,0,0,0,0,0,0,0,0,0,0,0,0,0,0,0,0,0,0,0,0,0,0,0,0,0,0,0,0,0,0],"id":19,"left_children":[1,3,5,7,9,11,13,15,17,-1,-1,19,21,23,25,-1,-1,-1,-1,27,29,31,33,35,37,39,-1,41,43,45,47,-1,-1,-1,-1,49,51,-1,53,-1,-1,-1,55,57,59,61,63,65,67,69,71,73,75,-1,77,-1,-1,-1,-1,-1,-1,-1,-1,-1,-1,-1,-1,-1,-1,-1,-1,-1,-1,-1,-1,-1,-1,-1,-1],"loss_changes":[5.5689007E13,8.4949336E12,1.2470097E13,9.525516E11,4.5547625E11,1.8446586E12,2.5439497E12,4.4620055E10,4.491051E10,0E0,0E0,2.3069917E11,1.6883332E11,4.5425073E11,2.3720939E11,0E0,0E0,0E0,0E0,3.067573E10,2.8560937E10,1.4682161E10,1.5099888E10,5.2064485E10,3.629541E10,2.6759135E10,0E0,3.3923072E9,2.3304274E9,7.7709353E9,6.063265E9,0E0,0E0,0E0,0E0,5.256831E9,8.875868E9,0E0,6.773801E9,0E0,0E0,0E0,1.9847578E8,4.9687757E8,1.223298E9,4.0424755E9,2.2412616E9,2.1452268E9,2.3392013E9,3.1697859E9,4.5912474E9,6.536626E9,3.7660006E8,0E0,3.8761267E8,0E0,0E0,0E0,0E0,0E0,0E0,0E0,0E0,0E0,0E0,0E0,0E0,0E0,0E0,0E0,0E0,0E0,0E0,0E0,0E0,0E0,0E0,0E0,0E0],"parents":[2147483647,0,0,1,1,2,2,3,3,4,4,5,5,6,6,7,7,8,8,11,11,12,12,13,13,14,14,19,19,20,20,21,21,22,22,23,23,24,24,25,25,27,27,28,28,29,29,30,30,35,35,36,36,38,38,42,42,43,43,44,44,45,45,46,46,47,47,48,48,49,49,50,50,51,51,52,52,54,54],"right_children":[2,4,6,8,10,12,14,16,18,-1,-1,20,22,24,26,-1,-1,-1,-1,28,30,32,34,36,38,40,-1,42,44,46,48,-1,-1,-1,-1,50,52,-1,54,-1,-1,-1,56,58,60,62,64,66,68,70,72,74,76,-1,78,-1,-1,-1,-1,-1,-1,-1,-1,-1,-1,-1,-1,-1,-1,-1,-1,-1,-1,-1,-1,-1,-1,-1,-1],"split_conditions":[1.3229454E-2,2.2472758E6,2.9111238E5,1.7835815E6,9.997004E-1,1.3228829E-1,6.3159125E5,3.673607E-1,1.7576701E4,4.7856645E4,7.365126E4,2.025587E5,5.351676E4,4.498085E5,9.0802206E5,1.21533E4,2.252793E4,2.0680984E4,3.7262684E4,1.631386E5,5.9381936E-2,2.2670363E4,8.969014E4,3.4490488E5,5.038777E5,2.2564892E-2,1.4468083E4,1.3907158E5,1.9029939E5,1.5343723E3,2.2836995E5,-4.382636E3,-3.930286E3,-3.2936638E3,-2.6440964E3,1.3032901E-1,8.513658E3,4.2415854E3,5.85E2,1.0146271E4,7.426337E3,-2.2162903E3,1.0072446E0,2.51E2,1.3713158E3,7.9665685E-1,2.9154325E5,2.475682E3,1.980198E-2,5.68E2,6.814241E-1,3.8367934E5,3.69E2,6.013476E3,2.4E1,-1.8285619E3,-1.2686431E3,-1.0430541E3,-1.3598374E3,-6.5764886E2,-1.3233955E3,1.610701E2,1.3522743E3,9.3898145E2,2.0682769E3,-4.6992023E2,-1.0913947E3,-1.2859566E2,6.092121E2,7.692203E2,1.6423815E3,1.9787343E3,1.1666654E3,2.3989539E3,3.1172214E3,6.901003E2,1.5115427E3,5.270789E3,3.3421587E3],"split_indices":[22,0,2,2,6,22,2,17,1,0,0,3,3,3,2,0,0,0,0,3,22,0,2,3,2,22,0,3,2,1,2,0,0,0,0,18,1,0,23,0,0,0,13,23,1,17,3,1,14,23,17,0,23,0,7,0,0,0,0,0,0,0,0,0,0,0,0,0,0,0,0,0,0,0,0,0,0,0,0],"split_type":[0,0,0,0,0,0,0,0,0,0,0,0,0,0,0,0,0,0,0,0,0,0,0,0,0,0,0,0,0,0,0,0,0,0,0,0,0,0,0,0,0,0,0,0,0,0,0,0,0,0,0,0,0,0,0,0,0,0,0,0,0,0,0,0,0,0,0,0,0,0,0,0,0,0,0,0,0,0,0],"sum_hessian":[3.187E3,1.11E2,3.076E3,8.3E1,2.8E1,2.397E3,6.79E2,5.8E1,2.5E1,1.9E1,9E0,8.23E2,1.574E3,5.44E2,1.35E2,5E0,5.3E1,5E0,2E1,4.61E2,3.62E2,1.101E3,4.73E2,3.41E2,2.03E2,9.7E1,3.8E1,2.7E2,1.91E2,1.26E2,2.36E2,6.56E2,4.45E2,2.95E2,1.78E2,1.46E2,1.95E2,8.6E1,1.17E2,6.8E1,2.9E1,1.45E2,1.25E2,1.46E2,4.5E1,7.6E1,5E1,1.23E2,1.13E2,5.8E1,8.8E1,1.84E2,1.1E1,9.8E1,1.9E1,1.13E2,1.2E1,3.8E1,1.08E2,3.5E1,1E1,6.9E1,7E0,4.5E1,5E0,1.07E2,1.6E1,1.02E2,1.1E1,4.3E1,1.5E1,5.3E1,3.5E1,9.2E1,9.2E1,6E0,5E0,7E0,1.2E1],"tree_param":{"num_deleted":"0","num_feature":"25","num_nodes":"79","size_leaf_vector":"1"}},{"base_weights":[-8.875809E2,5.570582E5,-2.5521467E4,4.385214E5,1.1100606E6,-5.472083E4,8.2334484E4,3.5274112E5,6.028668E5,8.610037E5,7.7816664E4,-7.2688516E4,-1.8192334E4,5.043957E4,1.5935792E5,3.6909975E5,5.0187065E3,2.1466846E4,3.3449387E4,4.8872215E4,2.4231086E4,-7.89296E4,-5.545429E4,-3.422279E4,-3.5151545E3,3.386232E4,7.525628E4,2.0697738E5,1.282846E5,1.444237E4,2.058904E4,-3.5438103E3,-8.194557E4,-2.980129E3,-2.4391824E3,-3.9650918E4,-2.6531076E4,5.4417646E3,-1.2032997E4,2.3084102E4,4.3946656E4,9.635751E4,6.725544E4,7.1676636E3,1.0684231E4,8.350738E3,1.20495516E5,-4.2744604E3,-3.952903E3,-4.11743E4,-3.459895E4,-2.757224E4,-4.1302554E2,4.1764756E3,2.0046234E3,-1.5617009E4,-7.9395083E3,2.1671604E4,2.0304037E3,4.5840285E4,1.9612314E4,5.1754434E3,6.2893047E4,7.110947E4,5.4574547E4,1.10344055E5,1.4553458E5,-1.5546508E3,-2.1067593E3,-1.0958363E3,-1.7968063E3,-1.1857935E3,-1.4840406E3,8.157208E1,5.0292392E2,-8.3988104E2,-1.6248964E2,1.8262786E0,-5.016837E2,1.4322615E3,8.564682E2,6.03404E2,2.3682405E3,1.4580105E3,4.3133237E2,1.7675852E3,3.9976106E3,3.2169412E3,4.323184E3,2.0127588E3,3.4978906E3,5.67465E3,3.4695708E3,7.8949307E3,3.9002356E3],"categories":[],"categories_nodes":[],"categories_segments":[],"categories_sizes":[],"default_left":[0,0,0,0,0,0,0,0,0,0,0,0,0,0,0,0,0,0,0,0,0,0,0,0,0,0,0,0,0,0,0,0,0,0,0,0,0,0,0,0,0,0,0,0,0,0,0,0,0,0,0,0,0,0,0,0,0,0,0,0,0,0,0,0,0,0,0,0,0,0,0,0,0,0,0,0,0,0,0,0,0,0,0,0,0,0,0,0,0,0,0,0,0,0,0],"id":20,"left_children":[1,3,5,7,9,11,13,15,17,19,-1,21,23,25,27,29,-1,-1,-1,-1,-1,31,33,35,37,39,41,43,45,-1,-1,-1,47,-1,-1,49,51,53,55,57,59,61,63,-1,-1,-1,65,-1,-1,67,69,71,-1,73,-1,75,77,79,-1,81,83,-1,85,87,89,91,93,-1,-1,-1,-1,-1,-1,-1,-1,-1,-1,-1,-1,-1,-1,-1,-1,-1,-1,-1,-1,-1,-1,-1,-1,-1,-1,-1,-1],"loss_changes":[4.3556383E13,8.2970715E12,9.562706E12,1.3662757E12,1.2163775E12,1.5666564E12,1.581418E12,2.7670767E11,1.3731417E11,2.713526E11,0E0,1.6782669E11,1.8551708E11,1.8628097E11,2.5311052E11,1.2425101E11,0E0,0E0,0E0,0E0,0E0,2.2682796E10,8.963621E9,1.468842E10,3.1574745E10,2.9093003E10,2.4414913E10,5.1983155E8,1.5171191E10,0E0,0E0,0E0,1.907884E9,0E0,0E0,2.6086605E8,2.796847E9,8.688873E9,2.986285E9,2.486313E9,5.644321E9,4.977197E9,2.7658813E9,0E0,0E0,0E0,9.613607E9,0E0,0E0,2.6886144E8,1.7902387E8,5.158011E8,0E0,2.9176904E9,0E0,1.5807099E9,1.6873836E9,3.5638354E9,0E0,6.173131E9,1.007125E9,0E0,2.3417078E9,4.936794E9,5.1138724E9,1.9253821E9,9.391636E9,0E0,0E0,0E0,0E0,0E0,0E0,0E0,0E0,0E0,0E0,0E0,0E0,0E0,0E0,0E0,0E0,0E0,0E0,0E0,0E0,0E0,0E0,0E0,0E0,0E0,0E0,0E0,0E0],"parents":[2147483647,0,0,1,1,2,2,3,3,4,4,5,5,6,6,7,7,8,8,9,9,11,11,12,12,13,13,14,14,15,15,21,21,22,22,23,23,24,24,25,25,26,26,27,27,28,28,32,32,35,35,36,36,37,37,38,38,39,39,40,40,41,41,42,42,46,46,49,49,50,50,51,51,53,53,55,55,56,56,57,57,59,59,60,60,62,62,63,63,64,64,65,65,66,66],"right_children":[2,4,6,8,10,12,14,16,18,20,-1,22,24,26,28,30,-1,-1,-1,-1,-1,32,34,36,38,40,42,44,46,-1,-1,-1,48,-1,-1,50,52,54,56,58,60,62,64,-1,-1,-1,66,-1,-1,68,70,72,-1,74,-1,76,78,80,-1,82,84,-1,86,88,90,92,94,-1,-1,-1,-1,-1,-1,-1,-1,-1,-1,-1,-1,-1,-1,-1,-1,-1,-1,-1,-1,-1,-1,-1,-1,-1,-1,-1,-1],"split_conditions":[1.5636927E-2,2.2472758E6,2.8331375E5,1.5398648E6,9.997485E-1,1.17647086E5,5.396505E5,9.714286E-1,2.1369268E4,3E1,7.7816664E4,6.343163E4,1.8541742E5,3.9665762E5,2.183278E-2,1.1979682E6,5.0187065E3,2.1466846E4,3.3449387E4,4.8872215E4,2.4231086E4,4.5650852E-1,9.580508E4,1.5617823E5,6.518138E-2,3.414259E5,3.1002978E-2,4.38089E3,2.3125645E-2,1.444237E4,2.058904E4,-3.5438103E3,1.4575585E4,-2.980129E3,-2.4391824E3,1.4361639E5,7.1428575E-2,2.9154325E5,2.1001478E5,1.1315891E1,6.8021834E-1,1.3868774E0,6.6E1,7.1676636E3,1.0684231E4,8.350738E3,6.186349E5,-4.2744604E3,-3.952903E3,2.3E1,3.4975943E2,8.421645E-1,-4.1302554E2,1.8202124E3,2.0046234E3,6.5675116E-1,2.3E1,2.2607458E0,2.0304037E3,4.6386793E-3,9.5833415E-1,5.1754434E3,1.634268E0,1.1383629E0,5.131398E-1,6.4293927E-1,9.9930054E-1,-1.5546508E3,-2.1067593E3,-1.0958363E3,-1.7968063E3,-1.1857935E3,-1.4840406E3,8.157208E1,5.0292392E2,-8.3988104E2,-1.6248964E2,1.8262786E0,-5.016837E2,1.4322615E3,8.564682E2,6.03404E2,2.3682405E3,1.4580105E3,4.3133237E2,1.7675852E3,3.9976106E3,3.2169412E3,4.323184E3,2.0127588E3,3.4978906E3,5.67465E3,3.4695708E3,7.8949307E3,3.9002356E3],"split_indices":[22,0,0,0,6,0,3,5,1,16,0,3,0,0,22,3,0,0,0,0,0,22,3,3,22,3,22,1,18,0,0,0,0,0,0,0,14,3,0,24,18,20,4,0,0,0,0,0,0,4,1,20,0,1,0,18,8,24,0,18,6,0,20,20,18,18,6,0,0,0,0,0,0,0,0,0,0,0,0,0,0,0,0,0,0,0,0,0,0,0,0,0,0,0,0],"split_type":[0,0,0,0,0,0,0,0,0,0,0,0,0,0,0,0,0,0,0,0,0,0,0,0,0,0,0,0,0,0,0,0,0,0,0,0,0,0,0,0,0,0,0,0,0,0,0,0,0,0,0,0,0,0,0,0,0,0,0,0,0,0,0,0,0,0,0,0,0,0,0,0,0,0,0,0,0,0,0,0,0,0,0,0,0,0,0,0,0,0,0,0,0,0,0],"sum_hessian":[3.167E3,1.33E2,3.034E3,1.11E2,2.2E1,2.388E3,6.46E2,7.5E1,3.6E1,1.6E1,6E0,1.6E3,7.88E2,4.58E2,1.88E2,7E1,5E0,1.2E1,2.4E1,1.1E1,5E0,1.172E3,4.28E2,3.76E2,4.12E2,2.76E2,1.82E2,7.2E1,1.16E2,2.7E1,4.3E1,3.26E2,8.46E2,2.59E2,1.69E2,2.18E2,1.58E2,2.01E2,2.11E2,1.35E2,1.41E2,4.7E1,1.35E2,9E0,6.3E1,1.6E1,1E2,3.67E2,4.79E2,1.62E2,5.6E1,1.49E2,9E0,1.95E2,6E0,1.11E2,1E2,1.27E2,8E0,1.3E2,1.1E1,3.7E1,1E1,1E2,3.5E1,7.5E1,2.5E1,1.7E1,1.45E2,7E0,4.9E1,5.7E1,9.2E1,1.37E2,5.8E1,1.01E2,1E1,2.1E1,7.9E1,4.8E1,7.9E1,6E0,1.24E2,5E0,6E0,5E0,5E0,7.3E1,2.7E1,2E1,1.5E1,6.8E1,7E0,2E1,5E0],"tree_param":{"num_deleted":"0","num_feature":"25","num_nodes":"95","size_leaf_vector":"1"}},{"base_weights":[1.7499343E3,5.384241E5,-2.298217E4,3.9189744E5,9.0784194E5,8.2532E4,-5.1177168E4,3.421143E5,5.480171E5,3.7115645E4,1.123201E6,5.245881E4,1.6358283E5,-6.905936E4,-1.6552568E4,3.5599866E5,5.577056E3,1.787276E4,3.045235E4,4.2102715E4,7.022893E4,3.596305E4,8.047488E4,1.3937839E5,1.0583197E4,-7.501739E4,-5.2571363E4,-2.9783713E4,1.1397069E2,1.3015831E4,2.0072807E4,2.7581006E4,4.696594E4,8.761681E4,6.3113652E4,5.860163E3,7.645493E3,-7.776723E4,-3.3717754E3,-2.863498E3,-2.3647722E3,-3.4112547E4,-1.8783842E4,8.501953E3,-8.367326E3,3.062006E4,1.9614094E4,5.1453523E4,2.5562838E4,9.097225E4,6.1935477E4,1.7443518E3,6.5915164E4,-4.0648933E3,-3.7569297E3,-1.9847473E3,-1.5311967E3,-1.3870822E4,-2.1550514E4,2.0432281E3,6.9826187E3,-2.0719739E3,-9.9160205E3,1.5967059E3,5.2865643E2,3.728719E2,1.3734974E3,2.2190134E3,3.0619868E3,1.6720159E3,5.595169E2,3.3351736E3,4.7313384E3,2.0399127E3,4.694367E3,3.793449E3,2.535149E3,-8.7248566E2,-4.0488025E2,-1.1351384E3,-1.58575E2,1.4617416E2,5.964807E2,-4.1509677E2,2.1335197E2,-6.065859E2,-1.4351968E2],"categories":[],"categories_nodes":[],"categories_segments":[],"categories_sizes":[],"default_left":[0,0,0,0,0,0,0,0,0,0,0,0,0,0,0,0,0,0,0,0,0,0,0,0,0,0,0,0,0,0,0,0,0,0,0,0,0,0,0,0,0,0,0,0,0,0,0,0,0,0,0,0,0,0,0,0,0,0,0,0,0,0,0,0,0,0,0,0,0,0,0,0,0,0,0,0,0,0,0,0,0,0,0,0,0,0,0],"id":21,"left_children":[1,3,5,7,9,11,13,15,17,-1,19,21,23,25,27,29,-1,-1,-1,-1,-1,31,33,35,-1,37,39,41,43,-1,-1,45,47,49,51,-1,-1,53,-1,-1,-1,55,57,59,61,63,65,67,69,71,73,-1,75,-1,-1,-1,-1,77,79,-1,81,83,85,-1,-1,-1,-1,-1,-1,-1,-1,-1,-1,-1,-1,-1,-1,-1,-1,-1,-1,-1,-1,-1,-1,-1,-1],"loss_changes":[4.2180954E13,7.222361E12,9.042186E12,6.052716E11,5.5650864E11,1.553829E12,1.4836113E12,2.1639987E11,4.978272E10,0E0,3.8965084E9,2.1385262E11,1.7183172E11,1.5136719E11,1.8038664E11,2.2170357E11,0E0,0E0,0E0,0E0,0E0,2.6095976E10,1.5920792E10,1.7485791E10,0E0,1.8919457E10,7.777288E9,2.1072413E10,2.589531E10,0E0,0E0,3.5396485E9,1.088281E10,4.706271E9,1.9705856E9,0E0,0E0,1.7243832E9,0E0,0E0,0E0,5.1331727E9,1.4817198E9,8.712699E9,1.744128E9,2.876162E9,4.570192E9,4.481057E9,2.3430482E9,2.9118956E9,7.6509143E9,0E0,3.4213396E9,0E0,0E0,0E0,0E0,8.917852E8,1.6645366E9,0E0,3.4992963E9,1.4966217E9,2.2287677E9,0E0,0E0,0E0,0E0,0E0,0E0,0E0,0E0,0E0,0E0,0E0,0E0,0E0,0E0,0E0,0E0,0E0,0E0,0E0,0E0,0E0,0E0,0E0,0E0],"parents":[2147483647,0,0,1,1,2,2,3,3,4,4,5,5,6,6,7,7,8,8,10,10,11,11,12,12,13,13,14,14,15,15,21,21,22,22,23,23,25,25,26,26,27,27,28,28,31,31,32,32,33,33,34,34,37,37,41,41,42,42,43,43,44,44,45,45,46,46,47,47,48,48,49,49,50,50,52,52,57,57,58,58,60,60,61,61,62,62],"right_children":[2,4,6,8,10,12,14,16,18,-1,20,22,24,26,28,30,-1,-1,-1,-1,-1,32,34,36,-1,38,40,42,44,-1,-1,46,48,50,52,-1,-1,54,-1,-1,-1,56,58,60,62,64,66,68,70,72,74,-1,76,-1,-1,-1,-1,78,80,-1,82,84,86,-1,-1,-1,-1,-1,-1,-1,-1,-1,-1,-1,-1,-1,-1,-1,-1,-1,-1,-1,-1,-1,-1,-1,-1],"split_conditions":[1.5636927E-2,1.9710066E6,5.160997E-2,1.5398648E6,2.9438452E6,5.6695844E5,1.17647086E5,9.714286E-1,1.9292229E4,3.7115645E4,9.997004E-1,4.107902E5,7.4792556E5,6.343163E4,2.025587E5,1.1979682E6,5.577056E3,1.787276E4,3.045235E4,4.2102715E4,7.022893E4,3.540717E5,3.399953E-2,6.322662E5,1.0583197E4,3.2857094E4,9.049671E4,1.743311E5,6.2740445E-2,1.3015831E4,2.0072807E4,7.8E1,6.42E2,1.0078808E0,9.9102503E-1,5.860163E3,7.645493E3,1.4263104E4,-3.3717754E3,-2.863498E3,-2.3647722E3,1.3907158E5,1.10319395E1,9.7626257E-1,1.0300193E1,3.503976E5,9.088604E-1,4.07E2,5.8E1,-1.9649155E1,1.27E2,1.7443518E3,9.6199054E-1,-4.0648933E3,-3.7569297E3,-1.9847473E3,-1.5311967E3,4.58E2,1.9230999E1,2.0432281E3,1.5343723E3,8.833746E-1,5.75E2,1.5967059E3,5.2865643E2,3.728719E2,1.3734974E3,2.2190134E3,3.0619868E3,1.6720159E3,5.595169E2,3.3351736E3,4.7313384E3,2.0399127E3,4.694367E3,3.793449E3,2.535149E3,-8.7248566E2,-4.0488025E2,-1.1351384E3,-1.58575E2,1.4617416E2,5.964807E2,-4.1509677E2,2.1335197E2,-6.065859E2,-1.4351968E2],"split_indices":[22,0,22,0,3,3,0,5,1,0,6,0,0,3,3,3,0,0,0,0,0,3,22,3,0,0,3,3,22,0,0,4,23,13,13,0,0,0,0,0,0,3,19,13,19,3,6,23,7,6,16,0,6,0,0,0,0,23,19,0,1,6,23,0,0,0,0,0,0,0,0,0,0,0,0,0,0,0,0,0,0,0,0,0,0,0,0],"split_type":[0,0,0,0,0,0,0,0,0,0,0,0,0,0,0,0,0,0,0,0,0,0,0,0,0,0,0,0,0,0,0,0,0,0,0,0,0,0,0,0,0,0,0,0,0,0,0,0,0,0,0,0,0,0,0,0,0,0,0,0,0,0,0,0,0,0,0,0,0,0,0,0,0,0,0,0,0,0,0,0,0,0,0,0,0,0,0],"sum_hessian":[3.176E3,1.39E2,3.037E3,1.01E2,3.8E1,6.4E2,2.397E3,7.9E1,2.2E1,2.4E1,1.4E1,4.68E2,1.72E2,1.58E3,8.17E2,7.4E1,5E0,7E0,1.5E1,9E0,5E0,2.96E2,1.72E2,1.17E2,5.5E1,1.158E3,4.22E2,4.55E2,3.62E2,2.6E1,4.8E1,1.7E2,1.26E2,1.19E2,5.3E1,4.8E1,6.9E1,8.43E2,3.15E2,2.18E2,2.04E2,3.25E2,1.3E2,1.82E2,1.8E2,1.21E2,4.9E1,1.03E2,2.3E1,1.03E2,1.6E1,6E0,4.7E1,3.47E2,4.96E2,1.21E2,2.04E2,4.9E1,8.1E1,7E0,1.75E2,3.6E1,1.44E2,1.13E2,8E0,2E1,2.9E1,6.3E1,4E1,1.4E1,9E0,1.6E1,8.7E1,1.1E1,5E0,2.6E1,2.1E1,2.9E1,2E1,7.6E1,5E0,9.7E1,7.8E1,1.8E1,1.8E1,1.09E2,3.5E1],"tree_param":{"num_deleted":"0","num_feature":"25","num_nodes":"87","size_leaf_vector":"1"}},{"base_weights":[3.9228174E2,5.0250928E5,-2.3716115E4,7.8333725E5,3.3706422E5,6.2879742E4,-5.210152E4,3.2324568E4,1.01351044E6,2.4516481E5,2.0089826E4,3.3601043E4,1.2600913E5,-6.771887E4,-2.4307662E4,5.8662227E4,3.335936E4,1.3373335E4,4.931598E3,1.8509004E4,5.2252523E4,8.901618E3,1.0299915E5,-5.7403254E4,-7.333737E4,-3.5340926E4,-1.0250821E4,2.4774889E4,8.665189E3,3.9925645E4,5.985804E4,8.8747414E4,1.1910796E5,-2.5714426E3,-3.0622993E3,-3.8521438E3,-3.5323132E3,-2.09611E3,-3.0004977E4,-1.7958773E4,-4.2600557E3,2.9980046E3,2.2929969E4,3.2044734E3,1.3344402E4,4.9785867E4,3.2430201E4,3.7002508E4,6.1726258E4,9.4479336E4,6.621496E4,3.4945254E3,1.2237483E5,-2.624584E4,-3.242908E4,-1.8674246E4,-2.7511633E2,-6.6128135E3,6.601461E3,1.2943799E3,7.445353E2,4.362997E2,-2.8123978E2,3.5345358E2,8.527114E2,2.8207336E3,3.067297E2,1.1874059E3,2.1146653E3,2.4429597E3,1.1742343E3,2.050302E3,3.2067583E3,4.830156E3,2.7685603E3,1.727535E3,3.7964817E3,6.3783345E3,4.509855E3,-5.1752985E2,-1.3465126E3,-1.6599213E3,-9.774709E2,-9.5980096E2,-1.5196758E2,-6.554599E2,-1.6818E2,2.9090971E1,8.8349445E2],"categories":[],"categories_nodes":[],"categories_segments":[],"categories_sizes":[],"default_left":[0,0,0,0,0,0,0,0,0,0,0,0,0,0,0,0,0,0,0,0,0,0,0,0,0,0,0,0,0,0,0,0,0,0,0,0,0,0,0,0,0,0,0,0,0,0,0,0,0,0,0,0,0,0,0,0,0,0,0,0,0,0,0,0,0,0,0,0,0,0,0,0,0,0,0,0,0,0,0,0,0,0,0,0,0,0,0,0,0],"id":22,"left_children":[1,3,5,7,9,11,13,-1,15,17,-1,19,21,23,25,-1,-1,-1,-1,27,29,-1,31,33,35,37,39,41,43,45,47,49,51,-1,-1,-1,-1,-1,53,55,57,-1,59,61,63,65,67,69,71,73,75,-1,77,79,81,83,-1,85,87,-1,-1,-1,-1,-1,-1,-1,-1,-1,-1,-1,-1,-1,-1,-1,-1,-1,-1,-1,-1,-1,-1,-1,-1,-1,-1,-1,-1,-1,-1],"loss_changes":[3.8312887E13,6.472893E12,7.426613E12,1.0141827E12,4.5473805E11,1.3746325E12,9.858549E11,0E0,2.1298047E11,1.0760539E11,0E0,1.4287372E11,2.6416775E11,8.017779E10,1.2681383E11,0E0,0E0,0E0,0E0,1.7302503E10,1.8985648E10,0E0,2.753967E10,8.742502E9,3.9206257E9,1.4860943E10,1.6639402E10,9.855205E9,2.819046E9,5.0370314E9,3.6511744E9,5.6262656E9,3.506176E9,0E0,0E0,0E0,0E0,0E0,1.4907965E9,1.305387E9,5.2823296E9,0E0,3.5615212E9,2.6328842E9,1.2762655E9,1.0360078E10,3.619754E9,9.361531E8,3.7090427E9,5.48012E8,4.143956E9,0E0,2.1102592E7,8.744223E8,8.5714534E8,1.1571773E9,0E0,3.5231826E9,2.4549542E9,0E0,0E0,0E0,0E0,0E0,0E0,0E0,0E0,0E0,0E0,0E0,0E0,0E0,0E0,0E0,0E0,0E0,0E0,0E0,0E0,0E0,0E0,0E0,0E0,0E0,0E0,0E0,0E0,0E0,0E0],"parents":[2147483647,0,0,1,1,2,2,3,3,4,4,5,5,6,6,8,8,9,9,11,11,12,12,13,13,14,14,19,19,20,20,22,22,23,23,24,24,25,25,26,26,27,27,28,28,29,29,30,30,31,31,32,32,38,38,39,39,40,40,42,42,43,43,44,44,45,45,46,46,47,47,48,48,49,49,50,50,52,52,53,53,54,54,55,55,57,57,58,58],"right_children":[2,4,6,8,10,12,14,-1,16,18,-1,20,22,24,26,-1,-1,-1,-1,28,30,-1,32,34,36,38,40,42,44,46,48,50,52,-1,-1,-1,-1,-1,54,56,58,-1,60,62,64,66,68,70,72,74,76,-1,78,80,82,84,-1,86,88,-1,-1,-1,-1,-1,-1,-1,-1,-1,-1,-1,-1,-1,-1,-1,-1,-1,-1,-1,-1,-1,-1,-1,-1,-1,-1,-1,-1,-1,-1],"split_conditions":[1.6792081E-2,8.681525E-3,5.9381936E-2,7.5137805E4,1.2330511E6,4.832758E5,