{"learner":{"attributes":{},"feature_names":["avg_amount","std_amount","p90_amount","max_amount","tx_count","cash_out_ratio","balance_drain_ratio","times_balance_zero","times_near_limit","avg_days_between_limit_hits","tx_count_7d","freq_spike_ratio","late_night_ratio","amount_vs_avg_ratio","repeat_receiver_ratio","unique_receiver_count_7d","account_age_days","device_consistency","offline_tx_ratio","avg_offline_session_hours","days_since_last_sync","current_unsynced_amount","unsynced_amount_vs_avg_ratio","kyc_days_ago","balance_recovery_speed"],"feature_types":["float","float","float","float","float","float","float","float","float","float","float","float","float","float","float","float","float","float","float","float","float","float","float","float","float"],"gradient_booster":{"model":{"gbtree_model_param":{"num_parallel_tree":"1","num_trees":"400"},"iteration_indptr":[0,1,2,3,4,5,6,7,8,9,10,11,12,13,14,15,16,17,18,19,20,21,22,23,24,25,26,27,28,29,30,31,32,33,34,35,36,37,38,39,40,41,42,43,44,45,46,47,48,49,50,51,52,53,54,55,56,57,58,59,60,61,62,63,64,65,66,67,68,69,70,71,72,73,74,75,76,77,78,79,80,81,82,83,84,85,86,87,88,89,90,91,92,93,94,95,96,97,98,99,100,101,102,103,104,105,106,107,108,109,110,111,112,113,114,115,116,117,118,119,120,121,122,123,124,125,126,127,128,129,130,131,132,133,134,135,136,137,138,139,140,141,142,143,144,145,146,147,148,149,150,151,152,153,154,155,156,157,158,159,160,161,162,163,164,165,166,167,168,169,170,171,172,173,174,175,176,177,178,179,180,181,182,183,184,185,186,187,188,189,190,191,192,193,194,195,196,197,198,199,200,201,202,203,204,205,206,207,208,209,210,211,212,213,214,215,216,217,218,219,220,221,222,223,224,225,226,227,228,229,230,231,232,233,234,235,236,237,238,239,240,241,242,243,244,245,246,247,248,249,250,251,252,253,254,255,256,257,258,259,260,261,262,263,264,265,266,267,268,269,270,271,272,273,274,275,276,277,278,279,280,281,282,283,284,285,286,287,288,289,290,291,292,293,294,295,296,297,298,299,300,301,302,303,304,305,306,307,308,309,310,311,312,313,314,315,316,317,318,319,320,321,322,323,324,325,326,327,328,329,330,331,332,333,334,335,336,337,338,339,340,341,342,343,344,345,346,347,348,349,350,351,352,353,354,355,356,357,358,359,360,361,362,363,364,365,366,367,368,369,370,371,372,373,374,375,376,377,378,379,380,381,382,383,384,385,386,387,388,389,390,391,392,393,394,395,396,397,398,399,400],"tree_info":[0,0,0,0,0,0,0,0,0,0,0,0,0,0,0,0,0,0,0,0,0,0,0,0,0,0,0,0,0,0,0,0,0,0,0,0,0,0,0,0,0,0,0,0,0,0,0,0,0,0,0,0,0,0,0,0,0,0,0,0,0,0,0,0,0,0,0,0,0,0,0,0,0,0,0,0,0,0,0,0,0,0,0,0,0,0,0,0,0,0,0,0,0,0,0,0,0,0,0,0,0,0,0,0,0,0,0,0,0,0,0,0,0,0,0,0,0,0,0,0,0,0,0,0,0,0,0,0,0,0,0,0,0,0,0,0,0,0,0,0,0,0,0,0,0,0,0,0,0,0,0,0,0,0,0,0,0,0,0,0,0,0,0,0,0,0,0,0,0,0,0,0,0,0,0,0,0,0,0,0,0,0,0,0,0,0,0,0,0,0,0,0,0,0,0,0,0,0,0,0,0,0,0,0,0,0,0,0,0,0,0,0,0,0,0,0,0,0,0,0,0,0,0,0,0,0,0,0,0,0,0,0,0,0,0,0,0,0,0,0,0,0,0,0,0,0,0,0,0,0,0,0,0,0,0,0,0,0,0,0,0,0,0,0,0,0,0,0,0,0,0,0,0,0,0,0,0,0,0,0,0,0,0,0,0,0,0,0,0,0,0,0,0,0,0,0,0,0,0,0,0,0,0,0,0,0,0,0,0,0,0,0,0,0,0,0,0,0,0,0,0,0,0,0,0,0,0,0,0,0,0,0,0,0,0,0,0,0,0,0,0,0,0,0,0,0,0,0,0,0,0,0,0,0,0,0,0,0,0,0,0,0,0,0,0,0,0,0,0,0,0,0,0,0,0,0,0,0,0,0,0,0,0,0,0,0,0,0,0,0,0,0,0,0,0,0,0,0,0,0],"trees":[{"base_weights":[-2.3759359E-4,1.4333811E-1,-1.388905E-1,2.0902508E-1,7.404662E-2,-4.527785E-2,-1.8044983E-1,1.0592528E-2,1.091878E-1,8.385517E-2,-7.8045838E-3,-3.4762155E-2,-1.3885851E-2,-4.340398E-1,-1.7003566E-1,9.178474E-3,9.3573827E-4,5.964096E-3,5.1889636E-2,-8.360616E-6,-3.157061E-3,-4.8792067E-1,-1.2292708E-2,-6.8812743E-3,-9.516252E-3,-7.318345E-3,5.5129558E-2,-2.5947645E-2,-9.827792E-3,3.702379E-3,1.9486509E-3],"categories":[],"categories_nodes":[],"categories_segments":[],"categories_sizes":[],"default_left":[0,0,0,0,0,0,0,0,0,0,0,0,0,0,0,0,0,0,0,0,0,0,0,0,0,0,0,0,0,0,0],"id":0,"left_children":[1,3,5,7,9,11,13,-1,15,17,-1,19,-1,21,23,-1,-1,-1,25,-1,-1,27,-1,-1,-1,-1,29,-1,-1,-1,-1],"loss_changes":[6.310535E1,7.0429764E0,6.2446003E0,1.6987228E-1,1.7214308E0,1.1763389E0,2.8130646E0,0E0,1.445745E-1,8.033705E-1,0E0,4.6294564E-1,0E0,2.4266815E-1,6.4725494E-1,0E0,0E0,0E0,2.4752927E-1,0E0,0E0,1.1578083E-1,0E0,0E0,0E0,0E0,1.02570295E-1,0E0,0E0,0E0,0E0],"parents":[2147483647,0,0,1,1,2,2,3,3,4,4,5,5,6,6,8,8,9,9,11,11,13,13,14,14,18,18,21,21,26,26],"right_children":[2,4,6,8,10,12,14,-1,16,18,-1,20,-1,22,24,-1,-1,-1,26,-1,-1,28,-1,-1,-1,-1,30,-1,-1,-1,-1],"split_conditions":[4.2833552E-1,8.6432405E-2,7.2871584E-1,3.7037037E-2,9.2E-1,2.2727273E-2,9E0,1.0592528E-2,-4.97455E-1,2.6841748E-1,-7.8045838E-3,5.4199916E-1,-1.3885851E-2,2.4E1,8.99017E-1,9.178474E-3,9.3573827E-4,5.964096E-3,5E0,-8.360616E-6,-3.157061E-3,3.6618276E0,-1.2292708E-2,-6.8812743E-3,-9.516252E-3,-7.318345E-3,3.431897E-1,-2.5947645E-2,-9.827792E-3,3.702379E-3,1.9486509E-3],"split_indices":[6,6,6,12,12,12,8,0,6,6,0,6,0,15,6,0,0,0,8,0,0,24,0,0,0,0,6,0,0,0,0],"split_type":[0,0,0,0,0,0,0,0,0,0,0,0,0,0,0,0,0,0,0,0,0,0,0,0,0,0,0,0,0,0,0],"sum_hessian":[3.168E3,1.556E3,1.612E3,7.97E2,7.59E2,4.97E2,1.115E3,7.73E2,2.4E1,7.29E2,3E1,4.77E2,2E1,4.2E1,1.073E3,1.2E1,1.2E1,3.43E2,3.86E2,2.17E2,2.6E2,3.1E1,1.1E1,4.18E2,6.55E2,5E0,3.81E2,2.7E1,4E0,1.71E2,2.1E2],"tree_param":{"num_deleted":"0","num_feature":"25","num_nodes":"31","size_leaf_vector":"1"}},{"base_weights":[-9.541641E-4,1.366878E-1,-1.341238E-1,1.990682E-1,7.3276244E-2,-4.5885406E-2,-1.7458749E-1,1.0088112E-2,8.694361E-2,8.3248936E-2,-7.507417E-3,-3.3840373E-2,-1.41608445E-2,-4.4039688E-1,-1.6484538E-1,6.991517E-3,-1.2259949E-3,5.7054623E-3,2.477465E-3,-2.0054915E-5,-2.9828579E-3,-6.3280924E-3,-4.921609E-1,-1.3490851E-1,-1.8405114E-1,-5.264895E-1,-9.074432E-3,-6.59184E-3,-1.4194856E-2,-9.081556E-3,-1.8201942E-2,-2.79887E-2,-8.091944E-3],"categories":[],"categories_nodes":[],"categories_segments":[],"categories_sizes":[],"default_left":[0,0,0,0,0,0,0,0,0,0,0,0,0,0,0,0,0,0,0,0,0,0,0,0,0,0,0,0,0,0,0,0,0],"id":1,"left_children":[1,3,5,7,9,11,13,-1,15,17,-1,19,-1,21,23,-1,-1,-1,-1,-1,-1,-1,25,27,29,31,-1,-1,-1,-1,-1,-1,-1],"loss_changes":[5.8013348E1,6.1131516E0,5.714796E0,1.9010735E-1,1.7303925E0,1.4109124E0,2.7205582E0,0E0,1.3875338E-1,7.496462E-1,0E0,4.1266805E-1,0E0,4.9316263E-1,5.5560684E-1,0E0,0E0,0E0,0E0,0E0,0E0,0E0,1.7492819E-1,1.14126205E-1,1.5982056E-1,1.7708778E-1,0E0,0E0,0E0,0E0,0E0,0E0,0E0],"parents":[2147483647,0,0,1,1,2,2,3,3,4,4,5,5,6,6,8,8,9,9,11,11,13,13,14,14,22,22,23,23,24,24,25,25],"right_children":[2,4,6,8,10,12,14,-1,16,18,-1,20,-1,22,24,-1,-1,-1,-1,-1,-1,-1,26,28,30,32,-1,-1,-1,-1,-1,-1,-1],"split_conditions":[4.2833552E-1,7.638315E-2,7.3613966E-1,7.307692E-1,1.5789473E-1,2.2727273E-2,8E0,1.0088112E-2,-1.9244201E-1,2.7255493E-1,-7.507417E-3,5.4199916E-1,-1.41608445E-2,1.3042264E1,9.094672E-1,6.991517E-3,-1.2259949E-3,5.7054623E-3,2.477465E-3,-2.0054915E-5,-2.9828579E-3,-6.3280924E-3,3.37E2,2.2727273E-2,2.2727273E-2,1.536723E6,-9.074432E-3,-6.59184E-3,-1.4194856E-2,-9.081556E-3,-1.8201942E-2,-2.79887E-2,-8.091944E-3],"split_indices":[6,6,6,12,12,12,8,0,6,6,0,6,0,19,6,0,0,0,0,0,0,0,16,12,12,0,0,0,0,0,0,0,0],"split_type":[0,0,0,0,0,0,0,0,0,0,0,0,0,0,0,0,0,0,0,0,0,0,0,0,0,0,0,0,0,0,0,0,0],"sum_hessian":[3.163E3,1.555E3,1.608E3,7.82E2,7.73E2,5.07E2,1.101E3,7.62E2,2E1,7.41E2,3.2E1,4.84E2,2.3E1,3.7E1,1.064E3,1.4E1,6E0,3.84E2,3.57E2,2.13E2,2.71E2,6E0,3.1E1,4.21E2,6.43E2,2.7E1,4E0,4.15E2,6E0,6.37E2,6E0,2.4E1,3E0],"tree_param":{"num_deleted":"0","num_feature":"25","num_nodes":"33","size_leaf_vector":"1"}},{"base_weights":[-8.001794E-4,1.2775777E-1,-1.2844856E-1,1.8918502E-1,6.819114E-2,-4.1727304E-2,-1.6393611E-1,9.840297E-3,7.828808E-3,9.818093E-2,3.5841614E-2,-1.9403704E-1,-3.1992543E-2,-3.9711657E-1,-1.5443408E-1,5.442104E-3,2.440443E-3,-2.2367947E-2,2.1810066E-3,-2.3202412E-1,-1.9035259E-3,-5.541563E-4,-3.1184552E-3,-4.35636E-1,-1.0821939E-2,-5.899086E-3,-8.5375225E-3,7.2754547E-4,-3.945874E-3,-7.303001E-3,-2.029622E-2,-2.9066503E-2,-1.732707E-2],"categories":[],"categories_nodes":[],"categories_segments":[],"categories_sizes":[],"default_left":[0,0,0,0,0,0,0,0,0,0,0,0,0,0,0,0,0,0,0,0,0,0,0,0,0,0,0,0,0,0,0,0,0],"id":2,"left_children":[1,3,5,7,9,11,13,-1,-1,15,17,19,21,23,25,-1,-1,27,-1,29,-1,-1,-1,31,-1,-1,-1,-1,-1,-1,-1,-1,-1],"loss_changes":[5.1889168E1,5.724308E0,4.8566246E0,1.26194E-1,7.6114345E-1,6.5767884E-1,2.3761654E0,0E0,0E0,1.9683623E-1,1.7923394E-1,1.2412453E-1,2.6952678E-1,1.3976717E-1,5.9511566E-1,0E0,0E0,1.0153347E-1,0E0,1.9944501E-1,0E0,0E0,0E0,1.4709711E-1,0E0,0E0,0E0,0E0,0E0,0E0,0E0,0E0,0E0],"parents":[2147483647,0,0,1,1,2,2,3,3,4,4,5,5,6,6,9,9,10,10,11,11,12,12,13,13,14,14,17,17,19,19,23,23],"right_children":[2,4,6,8,10,12,14,-1,-1,16,18,20,22,24,26,-1,-1,28,-1,30,-1,-1,-1,32,-1,-1,-1,-1,-1,-1,-1,-1,-1],"split_conditions":[4.3485653E-1,7.638315E-2,7.2871584E-1,-3.8870043E-1,2.7919406E-1,1E1,9E0,9.840297E-3,7.828808E-3,5.049629E1,1.1E1,3.107749E4,5.9706724E-1,2.7E1,8.772053E-1,5.442104E-3,2.440443E-3,5.269327E-1,2.1810066E-3,3.0382432E3,-1.9035259E-3,-5.541563E-4,-3.1184552E-3,9.0200436E-1,-1.0821939E-2,-5.899086E-3,-8.5375225E-3,7.2754547E-4,-3.945874E-3,-7.303001E-3,-2.029622E-2,-2.9066503E-2,-1.732707E-2],"split_indices":[6,6,6,6,6,8,8,0,0,1,7,0,6,4,6,0,0,17,0,1,0,0,0,13,0,0,0,0,0,0,0,0,0],"split_type":[0,0,0,0,0,0,0,0,0,0,0,0,0,0,0,0,0,0,0,0,0,0,0,0,0,0,0,0,0,0,0,0,0],"sum_hessian":[3.16E3,1.574E3,1.586E3,7.73E2,8.01E2,4.62E2,1.124E3,6.2E2,1.53E2,4.13E2,3.88E2,2.6E1,4.36E2,4.2E1,1.082E3,3.37E2,7.6E1,4.4E1,3.44E2,2E1,6E0,2.61E2,1.75E2,3.3E1,9E0,3.39E2,7.43E2,2.6E1,1.8E1,1.5E1,5E0,1E1,2.3E1],"tree_param":{"num_deleted":"0","num_feature":"25","num_nodes":"33","size_leaf_vector":"1"}},{"base_weights":[-5.8958E-4,9.211442E-3,-5.500159E-2,3.856497E-2,-1.4429682E-1,4.8606884E-2,-2.0178871E-1,-3.5602966E-1,-1.3698098E-1,9.004037E-2,1.2312814E-3,-8.601467E-3,-2.3056714E-2,-2.911003E-1,-2.5910033E-2,-8.9249164E-2,-1.5520775E-1,1.1151759E-1,6.181385E-2,-1.3591312E-2,3.4450337E-3,-3.1978562E-1,-4.8416434E-3,-3.309464E-3,-5.5213124E-3,-1.533857E-1,-1.6106931E-2,5.7336907E-3,-0E0,-9.863618E-3,3.2919159E-3,1.2036139E-3,-1.131456E-3,-1.973361E-2,-8.294475E-3,-6.6589476E-3,-8.09995E-3],"categories":[],"categories_nodes":[],"categories_segments":[],"categories_sizes":[],"default_left":[0,0,0,0,0,0,0,0,0,0,0,0,0,0,0,0,0,0,0,0,0,0,0,0,0,0,0,0,0,0,0,0,0,0,0,0,0],"id":3,"left_children":[1,-1,3,5,7,9,11,13,15,17,19,-1,-1,21,-1,23,25,27,29,-1,31,33,-1,-1,-1,35,-1,-1,-1,-1,-1,-1,-1,-1,-1,-1,-1],"loss_changes":[3.2016605E1,0E0,2.0577911E1,2.8956506E0,1.8536797E0,2.2579534E0,2.2781694E-1,1.9993782E-1,1.023098E0,3.4860373E-1,3.0112293E-1,0E0,0E0,1.0569644E-1,0E0,1.4155364E-1,1.7069435E-1,1.1551142E-1,2.8136885E-1,0E0,2.9004586E-1,1.8964028E-1,0E0,0E0,0E0,1.0085106E-1,0E0,0E0,0E0,0E0,0E0,0E0,0E0,0E0,0E0,0E0,0E0],"parents":[2147483647,0,0,2,2,3,3,4,4,5,5,6,6,7,7,8,8,9,9,10,10,13,13,15,15,16,16,17,17,18,18,20,20,21,21,25,25],"right_children":[2,-1,4,6,8,10,12,14,16,18,20,-1,-1,22,-1,24,26,28,30,-1,32,34,-1,-1,-1,36,-1,-1,-1,-1,-1,-1,-1,-1,-1,-1,-1],"split_conditions":[1E0,9.211442E-3,3.59907E4,9.2E-1,7E0,8.81848E3,2.2241882E3,5.149833E-1,1.1595485E5,3.86642E3,1.3E1,-8.601467E-3,-2.3056714E-2,2.3916738E-1,-2.5910033E-2,6.651756E4,2.2727273E-2,5.280003E-1,8.69252E-1,-1.3591312E-2,1.876181E4,4.89E2,-4.8416434E-3,-3.309464E-3,-5.5213124E-3,2.2323264E5,-1.6106931E-2,5.7336907E-3,-0E0,-9.863618E-3,3.2919159E-3,1.2036139E-3,-1.131456E-3,-1.973361E-2,-8.294475E-3,-6.6589476E-3,-8.09995E-3],"split_indices":[7,0,3,12,8,3,1,18,3,2,4,0,0,18,0,3,12,18,13,0,3,23,0,0,0,2,0,0,0,0,0,0,0,0,0,0,0],"split_type":[0,0,0,0,0,0,0,0,0,0,0,0,0,0,0,0,0,0,0,0,0,0,0,0,0,0,0,0,0,0,0,0,0,0,0,0,0],"sum_hessian":[3.183E3,7.23E2,2.46E3,1.201E3,1.259E3,1.154E3,4.7E1,4E1,1.219E3,6.14E2,5.4E2,4.4E1,3E0,3.1E1,9E0,3.4E2,8.79E2,3.45E2,2.69E2,3E0,5.37E2,2.6E1,5E0,1.67E2,1.73E2,8.72E2,7E0,3.35E2,1E1,3E0,2.66E2,3.02E2,2.35E2,1.6E1,1E1,2.69E2,6.03E2],"tree_param":{"num_deleted":"0","num_feature":"25","num_nodes":"37","size_leaf_vector":"1"}},{"base_weights":[-1.0026267E-3,1.1788301E-1,-1.1327944E-1,1.6977924E-1,6.2875874E-2,-4.3949705E-2,-1.496823E-1,8.6937575E-3,6.3558556E-2,7.228515E-2,-7.09314E-3,-3.3438154E-2,-2.762136E-1,-3.808604E-1,-1.416622E-1,7.6092565E-3,-4.1361953E-4,5.3927433E-3,5.083023E-2,-3.265912E-5,-2.8036546E-3,-8.962808E-3,-1.920142E-2,-5.8764773E-3,-4.0782148E-1,-5.8411383E-3,-7.903633E-3,-6.4020315E-3,5.252569E-2,-2.183896E-2,-7.494283E-3,3.5087809E-3,1.8495374E-3],"categories":[],"categories_nodes":[],"categories_segments":[],"categories_sizes":[],"default_left":[0,0,0,0,0,0,0,0,0,0,0,0,0,0,0,0,0,0,0,0,0,0,0,0,0,0,0,0,0,0,0,0,0],"id":4,"left_children":[1,3,5,7,9,11,13,-1,15,17,-1,19,21,23,25,-1,-1,-1,27,-1,-1,-1,-1,-1,29,-1,-1,-1,31,-1,-1,-1,-1],"loss_changes":[4.2553288E1,4.3850746E0,4.1130943E0,3.1109047E-1,1.4558351E0,1.3441029E0,1.8850689E0,0E0,2.1936639E-1,5.2964044E-1,0E0,3.9798546E-1,1.257149E-1,1.4802313E-1,3.7797546E-1,0E0,0E0,0E0,1.3685787E-1,0E0,0E0,0E0,0E0,0E0,1.0741234E-1,0E0,0E0,0E0,1.1034751E-1,0E0,0E0,0E0,0E0],"parents":[2147483647,0,0,1,1,2,2,3,3,4,4,5,5,6,6,8,8,9,9,11,11,12,12,13,13,14,14,18,18,24,24,28,28],"right_children":[2,4,6,8,10,12,14,-1,16,18,-1,20,22,24,26,-1,-1,-1,28,-1,-1,-1,-1,-1,30,-1,-1,-1,32,-1,-1,-1,-1],"split_conditions":[4.2431918E-1,7.638315E-2,7.557538E-1,7.307692E-1,9.2E-1,2.2727273E-2,8E0,8.6937575E-3,-3.8870043E-1,2.2164232E-1,-7.09314E-3,5.4199916E-1,4.9809727E-1,1.2767876E1,9.12282E-1,7.6092565E-3,-4.1361953E-4,5.3927433E-3,3E0,-3.265912E-5,-2.8036546E-3,-8.962808E-3,-1.920142E-2,-5.8764773E-3,3.37E2,-5.8411383E-3,-7.903633E-3,-6.4020315E-3,3.2019678E-1,-2.183896E-2,-7.494283E-3,3.5087809E-3,1.8495374E-3],"split_indices":[6,6,6,12,12,12,8,0,6,6,0,6,6,19,6,0,0,0,8,0,0,0,0,0,16,0,0,0,6,0,0,0,0],"split_type":[0,0,0,0,0,0,0,0,0,0,0,0,0,0,0,0,0,0,0,0,0,0,0,0,0,0,0,0,0,0,0,0,0],"sum_hessian":[3.186E3,1.547E3,1.639E3,7.94E2,7.53E2,5.66E2,1.073E3,7.63E2,3.1E1,7.21E2,3.2E1,5.43E2,2.3E1,3.4E1,1.039E3,1.4E1,1.7E1,2.68E2,4.53E2,2.24E2,3.19E2,1.4E1,9E0,4E0,3E1,4.19E2,6.2E2,3E0,4.5E2,2.6E1,4E0,2.06E2,2.44E2],"tree_param":{"num_deleted":"0","num_feature":"25","num_nodes":"33","size_leaf_vector":"1"}},{"base_weights":[-1.0484356E-3,1.1085169E-1,-1.0935093E-1,1.6201693E-1,6.0002845E-2,-3.6717825E-2,-1.4106703E-1,8.258324E-3,6.0481116E-2,6.928944E-2,-6.395548E-3,-2.6691597E-2,-1.232615E-2,-3.3724782E-1,-1.3269287E-1,6.8006716E-3,-8.9107326E-4,5.279524E-3,5.0288733E-2,1.3697245E-4,-2.253003E-3,-4.47689E-1,-1.3763291E-2,-5.0668423E-3,-7.3203295E-3,3.32958E-3,1.6724961E-3,-2.6948556E-2,-7.7793472E-3],"categories":[],"categories_nodes":[],"categories_segments":[],"categories_sizes":[],"default_left":[0,0,0,0,0,0,0,0,0,0,0,0,0,0,0,0,0,0,0,0,0,0,0,0,0,0,0,0,0],"id":5,"left_children":[1,3,5,7,9,11,13,-1,15,17,-1,19,-1,21,23,-1,-1,-1,25,-1,-1,27,-1,-1,-1,-1,-1,-1,-1],"loss_changes":[3.864754E1,4.047531E0,3.7112389E0,2.1688652E-1,1.3798687E0,1.0073578E0,1.7597427E0,0E0,1.6801693E-1,4.9848008E-1,0E0,2.6060134E-1,0E0,1.1251211E-1,4.2608833E-1,0E0,0E0,0E0,1.2447965E-1,0E0,0E0,2.1997905E-1,0E0,0E0,0E0,0E0,0E0,0E0,0E0],"parents":[2147483647,0,0,1,1,2,2,3,3,4,4,5,5,6,6,8,8,9,9,11,11,13,13,14,14,18,18,21,21],"right_children":[2,4,6,8,10,12,14,-1,16,18,-1,20,-1,22,24,-1,-1,-1,26,-1,-1,28,-1,-1,-1,-1,-1,-1,-1],"split_conditions":[4.2833552E-1,7.638315E-2,7.2871584E-1,2.2727273E-2,1.5789473E-1,2.2727273E-2,9E0,8.258324E-3,-2.9002887E-1,2.0979548E-1,-6.395548E-3,5.155332E-1,-1.232615E-2,9.0200436E-1,8.772053E-1,6.8006716E-3,-8.9107326E-4,5.279524E-3,3.2019678E-1,1.3697245E-4,-2.253003E-3,1.9E1,-1.3763291E-2,-5.0668423E-3,-7.3203295E-3,3.32958E-3,1.6724961E-3,-2.6948556E-2,-7.7793472E-3],"split_indices":[6,6,6,12,12,12,8,0,6,6,0,6,0,13,6,0,0,0,6,0,0,4,0,0,0,0,0,0,0],"split_type":[0,0,0,0,0,0,0,0,0,0,0,0,0,0,0,0,0,0,0,0,0,0,0,0,0,0,0,0,0],"sum_hessian":[3.187E3,1.567E3,1.62E3,7.79E2,7.88E2,4.94E2,1.126E3,7.54E2,2.5E1,7.52E2,3.6E1,4.73E2,2.1E1,4.4E1,1.082E3,1.3E1,1.2E1,2.55E2,4.97E2,1.8E2,2.93E2,1.3E1,3.1E1,3.34E2,7.48E2,2.48E2,2.49E2,9E0,4E0],"tree_param":{"num_deleted":"0","num_feature":"25","num_nodes":"29","size_leaf_vector":"1"}},{"base_weights":[-0E0,4.603013E-2,-1.0383698E-1,6.19012E-2,-1.4345738E-1,-4.42854E-2,-1.2656379E-1,6.961889E-2,-1.1354738E-1,8.776585E-4,-1.4901525E-1,-3.697019E-2,-1.3519748E-2,-1.2314132E-1,-2.4518585E-2,8.313121E-2,6.720668E-3,-1.511149E-1,1.2981165E-2,-1.3893256E-1,-1.59141E-2,8.0770266E-4,-3.0994907E-3,-1.2001315E-1,-1.5010766E-2,6.2586054E-2,1.4355953E-1,-9.981449E-3,6.2498143E-3,-2.2479017E-1,-5.7592653E-3,-8.989151E-3,3.17281E-3,-7.1285493E-3,6.349857E-4,-5.049055E-3,-6.5305196E-3,4.8416494E-3,2.2447386E-3,1.1977111E-3,7.885784E-3,-1.6573694E-3,5.657135E-3,-0E0,-1.3996871E-2],"categories":[],"categories_nodes":[],"categories_segments":[],"categories_sizes":[],"default_left":[0,0,0,0,0,0,0,0,0,0,0,0,0,0,0,0,0,0,0,0,0,0,0,0,0,0,0,0,0,0,0,0,0,0,0,0,0,0,0,0,0,0,0,0,0],"id":6,"left_children":[1,3,5,7,9,11,13,15,17,-1,19,21,-1,23,-1,25,27,29,31,33,-1,-1,-1,35,-1,37,39,41,-1,43,-1,-1,-1,-1,-1,-1,-1,-1,-1,-1,-1,-1,-1,-1,-1],"loss_changes":[1.5281124E1,6.6620474E0,1.306364E0,2.772562E0,1.6878557E-1,4.1247368E-1,7.6105213E-1,1.6562614E0,4.2456424E-1,0E0,1.9336557E-1,3.6046752E-1,0E0,3.119068E-1,0E0,1.971714E0,7.021823E-1,1.17467284E-1,1.9437124E-1,1.0251856E-1,0E0,0E0,0E0,1.0362244E-1,0E0,7.1216154E-1,6.6716766E-1,8.685504E-1,0E0,2.4322689E-1,0E0,0E0,0E0,0E0,0E0,0E0,0E0,0E0,0E0,0E0,0E0,0E0,0E0,0E0,0E0],"parents":[2147483647,0,0,1,1,2,2,3,3,4,4,5,5,6,6,7,7,8,8,10,10,11,11,13,13,15,15,16,16,17,17,18,18,19,19,23,23,25,25,26,26,27,27,29,29],"right_children":[2,4,6,8,10,12,14,16,18,-1,20,22,-1,24,-1,26,28,30,32,34,-1,-1,-1,36,-1,38,40,42,-1,44,-1,-1,-1,-1,-1,-1,-1,-1,-1,-1,-1,-1,-1,-1,-1],"split_conditions":[1.5873017E-2,6.1457794E5,7.066277E4,1.5789473E-1,9.29132E-1,5.882353E-2,1.00220794E6,2.1479233E3,1.1898833E5,8.776585E-4,1.6068042E5,1.9173223E4,-1.3519748E-2,2.2727273E-2,-2.4518585E-2,4.7672395E4,6.4E1,2E1,4E0,1.0851182E0,-1.59141E-2,8.0770266E-4,-3.0994907E-3,1.6860531E5,-1.5010766E-2,4.79018E3,2.1E1,1.1050152E4,6.2498143E-3,1.1036722E4,-5.7592653E-3,-8.989151E-3,3.17281E-3,-7.1285493E-3,6.349857E-4,-5.049055E-3,-6.5305196E-3,4.8416494E-3,2.2447386E-3,1.1977111E-3,7.885784E-3,-1.6573694E-3,5.657135E-3,-0E0,-1.3996871E-2],"split_indices":[5,0,2,12,13,12,3,1,0,0,1,0,0,12,0,0,15,4,8,13,0,0,0,0,0,3,4,1,0,0,0,0,0,0,0,0,0,0,0,0,0,0,0,0,0],"split_type":[0,0,0,0,0,0,0,0,0,0,0,0,0,0,0,0,0,0,0,0,0,0,0,0,0,0,0,0,0,0,0,0,0,0,0,0,0,0,0,0,0,0,0,0,0],"sum_hessian":[3.195E3,2.214E3,9.81E2,2.044E3,1.7E2,2.73E2,7.08E2,1.959E3,8.5E1,5E0,1.65E2,2.66E2,7E0,7.03E2,5E0,1.611E3,3.48E2,6.6E1,1.9E1,1.58E2,7E0,8.4E1,1.82E2,6.93E2,1E1,1.205E3,4.06E2,3.05E2,4.3E1,1.9E1,4.7E1,3E0,1.6E1,1.55E2,3E0,2.55E2,4.38E2,4.07E2,7.98E2,4.4E1,3.62E2,2.58E2,4.7E1,4E0,1.5E1],"tree_param":{"num_deleted":"0","num_feature":"25","num_nodes":"45","size_leaf_vector":"1"}},{"base_weights":[-9.027386E-4,9.977509E-2,-1.0234469E-1,1.4889792E-1,5.046301E-2,-3.6247175E-2,-1.293944E-1,7.7668265E-3,5.951274E-3,3.8634848E-3,2.5300153E-2,-1.695214E-1,-2.766177E-2,-3.0177322E-1,-1.2196515E-1,-6.006826E-3,1.4354055E-3,-2.0093112E-3,-1.0388971E-2,-5.1611505E-4,-2.5921897E-3,-1.6757052E-2,-7.073588E-3,-4.6698744E-3,-6.690857E-3],"categories":[],"categories_nodes":[],"categories_segments":[],"categories_sizes":[],"default_left":[0,0,0,0,0,0,0,0,0,0,0,0,0,0,0,0,0,0,0,0,0,0,0,0,0],"id":7,"left_children":[1,3,5,7,9,11,13,-1,-1,-1,15,17,19,21,23,-1,-1,-1,-1,-1,-1,-1,-1,-1,-1],"loss_changes":[3.2365112E1,3.8240852E0,2.8018665E0,1.06983185E-1,5.247164E-1,5.0307477E-1,1.3538647E0,0E0,0E0,0E0,1.995017E-1,1.0045248E-1,1.7564523E-1,1.4562654E-1,3.2875633E-1,0E0,0E0,0E0,0E0,0E0,0E0,0E0,0E0,0E0,0E0],"parents":[2147483647,0,0,1,1,2,2,3,3,4,4,5,5,6,6,10,10,11,11,12,12,13,13,14,14],"right_children":[2,4,6,8,10,12,14,-1,-1,-1,16,18,20,22,24,-1,-1,-1,-1,-1,-1,-1,-1,-1,-1],"split_conditions":[4.5088035E-1,8.6432405E-2,7.3613966E-1,-2.9002887E-1,2.6841748E-1,1E1,9E0,7.7668265E-3,5.951274E-3,3.8634848E-3,5E0,1.7417192E0,5.9706724E-1,2.7E1,8.772053E-1,-6.006826E-3,1.4354055E-3,-2.0093112E-3,-1.0388971E-2,-5.1611505E-4,-2.5921897E-3,-1.6757052E-2,-7.073588E-3,-4.6698744E-3,-6.690857E-3],"split_indices":[6,6,6,6,6,8,8,0,0,0,8,24,6,4,6,0,0,0,0,0,0,0,0,0,0],"split_type":[0,0,0,0,0,0,0,0,0,0,0,0,0,0,0,0,0,0,0,0,0,0,0,0,0],"sum_hessian":[3.167E3,1.589E3,1.578E3,7.94E2,7.95E2,4.6E2,1.118E3,6.47E2,1.47E2,3.82E2,4.13E2,2.6E1,4.34E2,4.4E1,1.074E3,8E0,4.05E2,7E0,1.9E1,2.56E2,1.78E2,3.5E1,9E0,3.2E2,7.54E2],"tree_param":{"num_deleted":"0","num_feature":"25","num_nodes":"25","size_leaf_vector":"1"}},{"base_weights":[-9.4694784E-4,9.830896E-2,-9.490908E-2,1.37898E-1,4.8120286E-2,-2.1158546E-2,-1.1999369E-1,1.4135186E-1,2.0994002E-2,5.3740684E-2,-5.3076227E-3,-1.4379421E-2,-8.329062E-3,-3.2703334E-1,-1.1195256E-1,7.3790597E-3,5.6012007E-3,4.852288E-3,-3.034032E-3,3.7965998E-3,3.5060797E-2,2.323812E-6,-1.7011557E-3,-3.6889988E-1,-5.373362E-3,-8.2793154E-2,-1.2706633E-1,-6.868053E-3,1.9292021E-3,-1.9666428E-2,-5.694535E-3,-3.973793E-3,-1.1352661E-2,-6.282286E-3,-1.5064082E-2],"categories":[],"categories_nodes":[],"categories_segments":[],"categories_sizes":[],"default_left":[0,0,0,0,0,0,0,0,0,0,0,0,0,0,0,0,0,0,0,0,0,0,0,0,0,0,0,0,0,0,0,0,0,0,0],"id":8,"left_children":[1,3,5,7,9,11,13,15,17,19,-1,21,-1,23,25,-1,-1,-1,-1,-1,27,-1,-1,29,-1,31,33,-1,-1,-1,-1,-1,-1,-1,-1],"loss_changes":[2.9946402E1,3.0763493E0,3.0358505E0,3.3247948E-1,5.9961164E-1,3.9454663E-1,1.9672318E0,1.1188316E-1,1.7723581E-1,2.6314533E-1,0E0,1.1788392E-1,0E0,3.2637978E-1,4.9117565E-1,0E0,0E0,0E0,0E0,0E0,2.1836919E-1,0E0,0E0,1.3497448E-1,0E0,1.475091E-1,1.1175537E-1,0E0,0E0,0E0,0E0,0E0,0E0,0E0,0E0],"parents":[2147483647,0,0,1,1,2,2,3,3,4,4,5,5,6,6,7,7,8,8,9,9,11,11,13,13,14,14,20,20,23,23,25,25,26,26],"right_children":[2,4,6,8,10,12,14,16,18,20,-1,22,-1,24,26,-1,-1,-1,-1,-1,28,-1,-1,30,-1,32,34,-1,-1,-1,-1,-1,-1,-1,-1],"split_conditions":[4.2431918E-1,1.1766531E-1,6.723814E-1,7.307692E-1,2.2727273E-2,2.2727273E-2,8E0,1E0,-1.9244201E-1,2.6841748E-1,-5.3076227E-3,5.4199916E-1,-8.329062E-3,2.7E1,8.7315655E-1,7.3790597E-3,5.6012007E-3,4.852288E-3,-3.034032E-3,3.7965998E-3,5E0,2.323812E-6,-1.7011557E-3,3.37E2,-5.373362E-3,2.2727273E-2,2.2727273E-2,-6.868053E-3,1.9292021E-3,-1.9666428E-2,-5.694535E-3,-3.973793E-3,-1.1352661E-2,-6.282286E-3,-1.5064082E-2],"split_indices":[6,6,6,12,12,12,8,7,6,6,0,6,0,4,6,0,0,0,0,0,8,0,0,16,0,12,12,0,0,0,0,0,0,0,0],"split_type":[0,0,0,0,0,0,0,0,0,0,0,0,0,0,0,0,0,0,0,0,0,0,0,0,0,0,0,0,0,0,0,0,0,0,0],"sum_hessian":[3.209E3,1.56E3,1.649E3,8.7E2,6.9E2,4.2E2,1.229E3,8.44E2,2.6E1,6.67E2,2.3E1,4.03E2,1.7E1,4.4E1,1.185E3,6.9E2,1.54E2,1.4E1,1.2E1,3.01E2,3.66E2,2.3E2,1.73E2,3.6E1,8E0,4.09E2,7.76E2,6E0,3.6E2,3.2E1,4E0,4.02E2,7E0,7.72E2,4E0],"tree_param":{"num_deleted":"0","num_feature":"25","num_nodes":"35","size_leaf_vector":"1"}},{"base_weights":[1.85119E-4,9.131609E-2,-9.202665E-2,6.7631886E-3,4.751182E-2,-3.3579424E-2,-1.1724067E-1,5.4405496E-2,-5.944063E-3,-2.449258E-2,-1.0916567E-2,-1.11859575E-1,-1.6281715E-2,4.377921E-3,3.8227282E-2,-3.5697335E-4,-2.416869E-3,-2.0178774E-2,-1.0922757E-1,-1.07016206E-1,4.0293332E-2,-4.61831E-3,-6.354236E-3,-1.1806214E-2,1.1922958E-3,2.708429E-3,1.1412579E-3],"categories":[],"categories_nodes":[],"categories_segments":[],"categories_sizes":[],"default_left":[0,0,0,0,0,0,0,0,0,0,0,0,0,0,0,0,0,0,0,0,0,0,0,0,0,0,0],"id":9,"left_children":[1,3,5,-1,7,9,11,13,-1,15,-1,17,-1,-1,19,-1,-1,-1,21,23,25,-1,-1,-1,-1,-1,-1],"loss_changes":[2.6957867E1,3.0824003E0,2.330042E0,0E0,9.302856E-1,7.8123623E-1,1.1668062E0,4.0243125E-1,0E0,1.8527424E-1,0E0,7.3846626E-1,0E0,0E0,1.5608203E-1,0E0,0E0,0E0,2.9089832E-1,1.4512593E-1,1.1758411E-1,0E0,0E0,0E0,0E0,0E0,0E0],"parents":[2147483647,0,0,1,1,2,2,4,4,5,5,6,6,7,7,9,9,11,11,14,14,18,18,19,19,20,20],"right_children":[2,4,6,-1,8,10,12,14,-1,16,-1,18,-1,-1,20,-1,-1,-1,22,24,26,-1,-1,-1,-1,-1,-1],"split_conditions":[4.3485653E-1,7.638315E-2,7.3613966E-1,6.7631886E-3,9.2E-1,2.2727273E-2,2.2727273E-2,2.0979548E-1,-5.944063E-3,5.9706724E-1,-1.0916567E-2,8.69252E-1,-1.6281715E-2,4.377921E-3,7.941919E-1,-3.5697335E-4,-2.416869E-3,-2.0178774E-2,9.36329E-1,2E1,3.431897E-1,-4.61831E-3,-6.354236E-3,-1.1806214E-2,1.1922958E-3,2.708429E-3,1.1412579E-3],"split_indices":[6,6,6,0,12,12,12,6,0,6,0,13,0,0,13,0,0,0,6,4,6,0,0,0,0,0,0],"split_type":[0,0,0,0,0,0,0,0,0,0,0,0,0,0,0,0,0,0,0,0,0,0,0,0,0,0,0],"sum_hessian":[3.206E3,1.613E3,1.593E3,8.03E2,8.1E2,4.82E2,1.111E3,7.79E2,3.1E1,4.61E2,2.1E1,1.085E3,2.6E1,2.52E2,5.27E2,2.7E2,1.91E2,8E0,1.077E3,6E0,5.21E2,5.6E2,5.17E2,3E0,3E0,2.86E2,2.35E2],"tree_param":{"num_deleted":"0","num_feature":"25","num_nodes":"27","size_leaf_vector":"1"}},{"base_weights":[-1.4038358E-3,8.822471E-2,-8.663354E-2,1.27658E-1,4.6341993E-2,-2.0664966E-2,-1.0946975E-1,6.5244175E-3,4.1894786E-2,5.297075E-2,-5.077125E-3,-6.0905115E-4,-8.4716845E-3,-2.0647047E-2,-1.04707405E-1,5.7581924E-3,-7.002375E-4,4.0621236E-3,3.869407E-2,-1.0092956E-1,-1.6358275E-2,-1.1363481E-2,2.051664E-3,-3.84586E-3,-5.845116E-3],"categories":[],"categories_nodes":[],"categories_segments":[],"categories_sizes":[],"default_left":[0,0,0,0,0,0,0,0,0,0,0,0,0,0,0,0,0,0,0,0,0,0,0,0,0],"id":10,"left_children":[1,3,5,7,9,11,13,-1,15,17,-1,-1,-1,-1,19,-1,-1,-1,21,23,-1,-1,-1,-1,-1],"loss_changes":[2.4253716E1,2.5316677E0,2.4372616E0,1.7027378E-1,7.386801E-1,5.111378E-1,1.6508398E0,0E0,1.2640853E-1,2.7628088E-1,0E0,0E0,0E0,0E0,9.250994E-1,0E0,0E0,0E0,2.9182035E-1,4.215231E-1,0E0,0E0,0E0,0E0,0E0],"parents":[2147483647,0,0,1,1,2,2,3,3,4,4,5,5,6,6,8,8,9,9,14,14,18,18,19,19],"right_children":[2,4,6,8,10,12,14,-1,16,18,-1,-1,-1,-1,20,-1,-1,-1,22,24,-1,-1,-1,-1,-1],"split_conditions":[4.2431918E-1,8.6432405E-2,6.723814E-1,7.307692E-1,1.5789473E-1,2.2727273E-2,8.69252E-1,6.5244175E-3,-3.8870043E-1,2.0979548E-1,-5.077125E-3,-6.0905115E-4,-8.4716845E-3,-2.0647047E-2,2.2727273E-2,5.7581924E-3,-7.002375E-4,4.0621236E-3,7.941919E-1,8.957662E-1,-1.6358275E-2,-1.1363481E-2,2.051664E-3,-3.84586E-3,-5.845116E-3],"split_indices":[6,6,6,12,12,12,13,0,6,6,0,0,0,0,12,0,0,0,13,6,0,0,0,0,0],"split_type":[0,0,0,0,0,0,0,0,0,0,0,0,0,0,0,0,0,0,0,0,0,0,0,0,0],"sum_hessian":[3.173E3,1.546E3,1.627E3,7.94E2,7.52E2,4.2E2,1.207E3,7.67E2,2.7E1,7.21E2,3.1E1,3.99E2,2.1E1,1.7E1,1.19E3,1.2E1,1.5E1,2.38E2,4.83E2,1.172E3,1.8E1,3E0,4.8E2,4.73E2,6.99E2],"tree_param":{"num_deleted":"0","num_feature":"25","num_nodes":"25","size_leaf_vector":"1"}},{"base_weights":[-1.7862536E-4,8.404202E-2,-8.209151E-2,1.20993346E-1,4.5246493E-2,-2.9362807E-2,-1.0738304E-1,6.3666753E-3,4.7121393E-3,6.5715626E-2,1.3325894E-3,-2.4662986E-2,-1.6990948E-1,-2.7214321E-1,-1.0166631E-1,3.7004766E-3,1.2762299E-3,-6.3254137E-4,-2.3369703E-3,-1.9248744E-2,-4.1486626E-3,-5.5663236E-3,-1.9109473E-2,-9.002396E-2,-1.2710206E-1,-3.166743E-3,-4.9220533E-3,-1.2057795E-1,-1.1924873E-2,-1.5685936E-2,-5.8660875E-3],"categories":[],"categories_nodes":[],"categories_segments":[],"categories_sizes":[],"default_left":[0,0,0,0,0,0,0,0,0,0,0,0,0,0,0,0,0,0,0,0,0,0,0,0,0,0,0,0,0,0,0],"id":11,"left_children":[1,3,5,7,9,11,13,-1,-1,15,-1,17,19,21,23,-1,-1,-1,-1,-1,-1,-1,-1,25,27,-1,-1,29,-1,-1,-1],"loss_changes":[2.1751581E1,2.2056322E0,2.1155825E0,1.0050678E-1,2.7866173E-1,3.2049584E-1,9.51252E-1,0E0,0E0,1.0782671E-1,0E0,1.2765357E-1,2.2041422E-1,5.2750516E-1,2.7630234E-1,0E0,0E0,0E0,0E0,0E0,0E0,0E0,0E0,1.4000654E-1,1.700778E-1,0E0,0E0,1.1379242E-1,0E0,0E0,0E0],"parents":[2147483647,0,0,1,1,2,2,3,3,4,4,5,5,6,6,9,9,11,11,12,12,13,13,14,14,23,23,24,24,27,27],"right_children":[2,4,6,8,10,12,14,-1,-1,16,-1,18,20,22,24,-1,-1,-1,-1,-1,-1,-1,-1,26,28,-1,-1,30,-1,-1,-1],"split_conditions":[4.2431918E-1,7.638315E-2,7.3613966E-1,-3.8870043E-1,2.521003E-1,5.311191E3,1.4E1,6.3666753E-3,4.7121393E-3,5.049629E1,1.3325894E-3,6.164847E-1,1.8412012E4,2.3017036E3,3.4087036E3,3.7004766E-3,1.2762299E-3,-6.3254137E-4,-2.3369703E-3,-1.9248744E-2,-4.1486626E-3,-5.5663236E-3,-1.9109473E-2,8.413997E-1,1.2E-1,-3.166743E-3,-4.9220533E-3,3.4374484E4,-1.1924873E-2,-1.5685936E-2,-5.8660875E-3],"split_indices":[6,6,6,6,6,1,15,0,0,1,0,6,0,1,1,0,0,0,0,0,0,0,0,6,14,0,0,2,0,0,0],"split_type":[0,0,0,0,0,0,0,0,0,0,0,0,0,0,0,0,0,0,0,0,0,0,0,0,0,0,0,0,0,0,0],"sum_hessian":[3.151E3,1.553E3,1.598E3,7.93E2,7.6E2,5.2E2,1.078E3,6.35E2,1.58E2,3.58E2,4.02E2,5.05E2,1.5E1,3.4E1,1.044E3,2.94E2,6.4E1,3.31E2,1.74E2,3E0,1.2E1,1.5E1,1.9E1,7.22E2,3.22E2,1.78E2,5.44E2,3.07E2,1.5E1,3E0,3.04E2],"tree_param":{"num_deleted":"0","num_feature":"25","num_nodes":"31","size_leaf_vector":"1"}},{"base_weights":[-6.529679E-4,8.21997E-2,-7.46508E-2,1.1496894E-1,4.585579E-2,-1.5799921E-2,-9.788817E-2,5.8882986E-3,3.4736954E-2,5.1865116E-2,-5.2298843E-3,-9.7066155E-3,-8.237295E-3,-2.8428724E-1,-9.1284335E-2,5.188863E-3,-1.4976239E-3,3.7361428E-3,3.815871E-2,1.7490877E-4,-1.2998515E-3,-3.2453918E-1,-1.6939823E-3,-6.463574E-2,-5.1142066E-3,-5.882308E-3,1.987594E-3,-2.1865072E-2,-2.2914821E-1,-3.0286454E-3,-9.213852E-3,-1.408391E-2,-1.7105114E-3],"categories":[],"categories_nodes":[],"categories_segments":[],"categories_sizes":[],"default_left":[0,0,0,0,0,0,0,0,0,0,0,0,0,0,0,0,0,0,0,0,0,0,0,0,0,0,0,0,0,0,0,0,0],"id":12,"left_children":[1,3,5,7,9,11,13,-1,15,17,-1,19,-1,21,23,-1,-1,-1,25,-1,-1,27,-1,29,-1,-1,-1,-1,31,-1,-1,-1,-1],"loss_changes":[1.9409735E1,1.756753E0,2.2749796E0,1.5637302E-1,6.429837E-1,4.1296053E-1,1.411169E0,0E0,1.4001001E-1,2.0046937E-1,0E0,1.01077005E-1,0E0,3.563385E-1,3.1643295E-1,0E0,0E0,0E0,1.0436773E-1,0E0,0E0,1.9886899E-1,0E0,1.3156521E-1,0E0,0E0,0E0,0E0,1.738168E-1,0E0,0E0,0E0,0E0],"parents":[2147483647,0,0,1,1,2,2,3,3,4,4,5,5,6,6,8,8,9,9,11,11,13,13,14,14,18,18,21,21,23,23,28,28],"right_children":[2,4,6,8,10,12,14,-1,16,18,-1,20,-1,22,24,-1,-1,-1,26,-1,-1,28,-1,30,-1,-1,-1,-1,32,-1,-1,-1,-1],"split_conditions":[4.0313405E-1,7.638315E-2,6.723814E-1,7.307692E-1,9.2E-1,2.2727273E-2,7E0,5.8882986E-3,-2.9002887E-1,2.0979548E-1,-5.2298843E-3,5.155332E-1,-8.237295E-3,2.7E1,8.569948E-1,5.188863E-3,-1.4976239E-3,3.7361428E-3,3E0,1.7490877E-4,-1.2998515E-3,9.0200436E-1,-1.6939823E-3,2.2727273E-2,-5.1142066E-3,-5.882308E-3,1.987594E-3,-2.1865072E-2,5.36E2,-3.0286454E-3,-9.213852E-3,-1.408391E-2,-1.7105114E-3],"split_indices":[6,6,6,12,12,12,8,0,6,6,0,6,0,4,6,0,0,0,8,0,0,13,0,12,0,0,0,0,23,0,0,0,0],"split_type":[0,0,0,0,0,0,0,0,0,0,0,0,0,0,0,0,0,0,0,0,0,0,0,0,0,0,0,0,0,0,0,0,0],"sum_hessian":[3.164E3,1.492E3,1.672E3,7.82E2,7.1E2,4.75E2,1.197E3,7.54E2,2.8E1,6.84E2,2.6E1,4.58E2,1.7E1,3.9E1,1.158E3,1.4E1,1.4E1,2.52E2,4.32E2,2.5E2,2.08E2,3.3E1,6E0,3.43E2,8.15E2,3E0,4.29E2,1.3E1,2E1,3.34E2,9E0,1.5E1,5E0],"tree_param":{"num_deleted":"0","num_feature":"25","num_nodes":"33","size_leaf_vector":"1"}},{"base_weights":[-2.8426625E-4,7.881659E-2,-7.1365155E-2,1.0697413E-1,3.8083356E-2,-2.7729986E-2,-9.8194815E-2,5.493868E-3,1.9568931E-2,4.2855196E-2,-4.462169E-3,-1.9551624E-2,-9.279701E-3,-2.6524556E-1,-9.287655E-2,3.8360083E-3,-2.8886397E-3,4.507767E-2,-7.115518E-2,1.5755148E-4,-1.7197988E-3,-1.4360385E-2,-1.0099645E-3,-9.1547966E-2,-1.2803504E-2,2.7421354E-3,1.277726E-3,-1.0246755E-2,1.0140603E-3,-3.9722896E-3,-5.343369E-3],"categories":[],"categories_nodes":[],"categories_segments":[],"categories_sizes":[],"default_left":[0,0,0,0,0,0,0,0,0,0,0,0,0,0,0,0,0,0,0,0,0,0,0,0,0,0,0,0,0,0,0],"id":13,"left_children":[1,3,5,7,9,11,13,-1,15,17,-1,19,-1,21,23,-1,-1,25,27,-1,-1,-1,-1,29,-1,-1,-1,-1,-1,-1,-1],"loss_changes":[1.7968956E1,1.7156057E0,1.956171E0,2.1125698E-1,3.764947E-1,8.073056E-1,8.643999E-1,0E0,1.4335251E-1,1.5263069E-1,0E0,2.1015465E-1,0E0,1.3029146E-1,1.6099834E-1,0E0,0E0,1.0303891E-1,1.571776E-1,0E0,0E0,0E0,0E0,1.5920258E-1,0E0,0E0,0E0,0E0,0E0,0E0,0E0],"parents":[2147483647,0,0,1,1,2,2,3,3,4,4,5,5,6,6,8,8,9,9,11,11,13,13,14,14,17,17,18,18,23,23],"right_children":[2,4,6,8,10,12,14,-1,16,18,-1,20,-1,22,24,-1,-1,26,28,-1,-1,-1,-1,30,-1,-1,-1,-1,-1,-1,-1],"split_conditions":[4.0313405E-1,1.3667685E-1,7.738348E-1,7.307692E-1,2.2727273E-2,2.2727273E-2,8E0,5.493868E-3,-1.9244201E-1,1.0791769E3,-4.462169E-3,5.155332E-1,-9.279701E-3,1.7142858E-1,2.2727273E-2,3.8360083E-3,-2.8886397E-3,3.1695777E-1,7.5824175E3,1.5755148E-4,-1.7197988E-3,-1.4360385E-2,-1.0099645E-3,9.5214415E-1,-1.2803504E-2,2.7421354E-3,1.277726E-3,-1.0246755E-2,1.0140603E-3,-3.9722896E-3,-5.343369E-3],"split_indices":[6,6,6,12,12,12,8,0,6,1,0,6,0,14,12,0,0,6,0,0,0,0,0,6,0,0,0,0,0,0,0],"split_type":[0,0,0,0,0,0,0,0,0,0,0,0,0,0,0,0,0,0,0,0,0,0,0,0,0,0,0,0,0,0,0],"sum_hessian":[3.194E3,1.511E3,1.683E3,8.91E2,6.2E2,6.43E2,1.04E3,8.61E2,3E1,5.99E2,2.1E1,6.13E2,3E1,3E1,1.01E3,1.8E1,1.2E1,5.89E2,1E1,2.4E2,3.73E2,2.7E1,3E0,1.004E3,6E0,3.88E2,2.01E2,4E0,6E0,5.68E2,4.36E2],"tree_param":{"num_deleted":"0","num_feature":"25","num_nodes":"31","size_leaf_vector":"1"}},{"base_weights":[5.321591E-5,7.1482055E-2,-7.068858E-2,1.05542764E-1,3.9291374E-2,-3.1870395E-2,-9.303021E-2,5.4036896E-3,9.15277E-4,4.439682E-2,-5.147586E-3,-2.3000838E-2,-9.637206E-3,-2.6557246E-1,-8.8299036E-2,3.1575642E-3,2.4843413E-2,-3.0383954E-4,-2.036148E-3,-1.9486157E-2,-1.710384E-1,-8.704135E-2,-1.0957144E-2,-5.0102808E-3,1.3818523E-3,-1.1178109E-2,-1.0408906E-3,-3.8195257E-3,-5.0321114E-3],"categories":[],"categories_nodes":[],"categories_segments":[],"categories_sizes":[],"default_left":[0,0,0,0,0,0,0,0,0,0,0,0,0,0,0,0,0,0,0,0,0,0,0,0,0,0,0,0,0],"id":14,"left_children":[1,3,5,7,9,11,13,-1,-1,15,-1,17,-1,19,21,-1,23,-1,-1,-1,25,27,-1,-1,-1,-1,-1,-1,-1],"loss_changes":[1.6109056E1,1.7214155E0,1.3730302E0,1.5517902E-1,5.934851E-1,8.1299675E-1,7.68919E-1,0E0,0E0,2.80069E-1,0E0,1.627334E-1,0E0,1.824143E-1,1.1305761E-1,0E0,1.3245426E-1,0E0,0E0,0E0,1.0504049E-1,1.1686134E-1,0E0,0E0,0E0,0E0,0E0,0E0,0E0],"parents":[2147483647,0,0,1,1,2,2,3,3,4,4,5,5,6,6,9,9,11,11,13,13,14,14,16,16,20,20,21,21],"right_children":[2,4,6,8,10,12,14,-1,-1,16,-1,18,-1,20,22,-1,24,-1,-1,-1,26,28,-1,-1,-1,-1,-1,-1,-1],"split_conditions":[4.3485653E-1,4.5871437E-2,7.8684014E-1,7.307692E-1,9.2E-1,2.2727273E-2,7E0,5.4036896E-3,9.15277E-4,2.6841748E-1,-5.147586E-3,6.087977E-1,-9.637206E-3,3.6604977E-1,1.2E-1,3.1575642E-3,5E0,-3.0383954E-4,-2.036148E-3,-1.9486157E-2,4.89E2,9.5214415E-1,-1.0957144E-2,-5.0102808E-3,1.3818523E-3,-1.1178109E-2,-1.0408906E-3,-3.8195257E-3,-5.0321114E-3],"split_indices":[6,6,6,12,12,12,8,0,0,6,0,6,0,17,14,0,8,0,0,0,23,6,0,0,0,0,0,0,0],"split_type":[0,0,0,0,0,0,0,0,0,0,0,0,0,0,0,0,0,0,0,0,0,0,0,0,0,0,0,0,0],"sum_hessian":[3.186E3,1.586E3,1.6E3,7.68E2,8.18E2,5.87E2,1.013E3,7.45E2,2.3E1,7.91E2,2.7E1,5.58E2,2.9E1,2.5E1,9.88E2,4E2,3.91E2,2.89E2,2.69E2,9E0,1.6E1,9.81E2,7E0,7E0,3.84E2,1.1E1,5E0,5.58E2,4.23E2],"tree_param":{"num_deleted":"0","num_feature":"25","num_nodes":"29","size_leaf_vector":"1"}},{"base_weights":[-1.2876738E-4,6.703947E-2,-6.88967E-2,5.0385757E-3,3.641571E-2,-2.6505776E-2,-8.6938456E-2,4.184692E-2,-4.5871823E-3,-1.0107978E-3,-7.808104E-3,-2.480463E-1,-8.117117E-2,3.1650376E-3,1.2737587E-3,-1.3937856E-2,-3.1160135E-3,-7.953181E-2,-1.0510002E-2,-3.238951E-3,-4.616359E-3],"categories":[],"categories_nodes":[],"categories_segments":[],"categories_sizes":[],"default_left":[0,0,0,0,0,0,0,0,0,0,0,0,0,0,0,0,0,0,0,0,0],"id":15,"left_children":[1,3,5,-1,7,9,11,13,-1,-1,-1,15,17,-1,-1,-1,-1,19,-1,-1,-1],"loss_changes":[1.4707148E1,1.6457448E0,1.1901565E0,0E0,5.884123E-1,3.649438E-1,9.7087383E-1,2.7541637E-1,0E0,0E0,0E0,1.5956068E-1,1.7979336E-1,0E0,0E0,0E0,0E0,1.7745781E-1,0E0,0E0,0E0],"parents":[2147483647,0,0,1,1,2,2,4,4,5,5,6,6,7,7,11,11,12,12,17,17],"right_children":[2,4,6,-1,8,10,12,14,-1,-1,-1,16,18,-1,-1,-1,-1,20,-1,-1,-1],"split_conditions":[4.5088035E-1,4.5871437E-2,7.3613966E-1,5.0385757E-3,1.5789473E-1,2.2727273E-2,8E0,2.4323256E-1,-4.5871823E-3,-1.0107978E-3,-7.808104E-3,2.3E1,2.2727273E-2,3.1650376E-3,1.2737587E-3,-1.3937856E-2,-3.1160135E-3,9.255283E-1,-1.0510002E-2,-3.238951E-3,-4.616359E-3],"split_indices":[6,6,6,0,12,12,8,6,0,0,0,4,12,0,0,0,0,6,0,0,0],"split_type":[0,0,0,0,0,0,0,0,0,0,0,0,0,0,0,0,0,0,0,0,0],"sum_hessian":[3.182E3,1.609E3,1.573E3,7.63E2,8.46E2,4.72E2,1.101E3,8.13E2,3.3E1,4.52E2,2E1,3.6E1,1.065E3,3.48E2,4.65E2,3E1,6E0,1.054E3,1.1E1,4.96E2,5.58E2],"tree_param":{"num_deleted":"0","num_feature":"25","num_nodes":"21","size_leaf_vector":"1"}},{"base_weights":[-3.4631527E-4,6.701632E-2,-6.065622E-2,9.125955E-2,3.274036E-2,-1.3674424E-2,-7.969916E-2,4.9223597E-3,3.403576E-3,2.189244E-3,8.2775485E-4,-1.02673024E-1,-4.1194618E-4,-2.0170723E-1,-7.3452085E-2,-3.055198E-3,-1.2667807E-2,-1.759492E-2,-8.758847E-3,-2.255124E-3,-4.073981E-3],"categories":[],"categories_nodes":[],"categories_segments":[],"categories_sizes":[],"default_left":[0,0,0,0,0,0,0,0,0,0,0,0,0,0,0,0,0,0,0,0,0],"id":16,"left_children":[1,3,5,7,9,11,13,-1,-1,-1,-1,15,-1,17,19,-1,-1,-1,-1,-1,-1],"loss_changes":[1.2975418E1,1.2376995E0,1.4979882E0,1.2348127E-1,1.0550147E-1,2.2461756E-1,8.7077713E-1,0E0,0E0,0E0,0E0,1.2219432E-1,0E0,1.12771034E-1,2.4356031E-1,0E0,0E0,0E0,0E0,0E0,0E0],"parents":[2147483647,0,0,1,1,2,2,3,3,4,4,5,5,6,6,11,11,13,13,14,14],"right_children":[2,4,6,8,10,12,14,-1,-1,-1,-1,16,-1,18,20,-1,-1,-1,-1,-1,-1],"split_conditions":[4.0313405E-1,1.3667685E-1,6.723814E-1,-1.1404774E-1,2.9262683E-1,1E1,1E1,4.9223597E-3,3.403576E-3,2.189244E-3,8.2775485E-4,2.8367388E-1,-4.1194618E-4,7.3322845E-1,8.273798E-1,-3.055198E-3,-1.2667807E-2,-1.759492E-2,-8.758847E-3,-2.255124E-3,-4.073981E-3],"split_indices":[6,6,6,6,6,8,8,0,0,0,0,18,0,13,6,0,0,0,0,0,0],"split_type":[0,0,0,0,0,0,0,0,0,0,0,0,0,0,0,0,0,0,0,0,0],"sum_hessian":[3.192E3,1.507E3,1.685E3,8.8E2,6.27E2,4.88E2,1.197E3,6.66E2,2.14E2,3.68E2,2.59E2,2.6E1,4.62E2,5.6E1,1.141E3,2.2E1,4E0,6E0,5E1,2.56E2,8.85E2],"tree_param":{"num_deleted":"0","num_feature":"25","num_nodes":"21","size_leaf_vector":"1"}},{"base_weights":[3.6761587E-4,6.519202E-2,-5.6916296E-2,4.5115757E-3,3.6996856E-2,-2.0430999E-2,-8.061916E-2,2.4670397E-3,9.658273E-4,-4.8579355E-3,-1.6368354E-2,-1.5488731E-2,-7.654697E-2,-1.0464899E-4,-1.66362E-3,-3.3044145E-3,-4.4243108E-3],"categories":[],"categories_nodes":[],"categories_segments":[],"categories_sizes":[],"default_left":[0,0,0,0,0,0,0,0,0,0,0,0,0,0,0,0,0],"id":17,"left_children":[1,3,5,-1,7,9,11,-1,-1,-1,13,-1,15,-1,-1,-1,-1],"loss_changes":[1.1764861E1,1.0337505E0,1.4419861E0,0E0,1.4560711E-1,1.9434911E-1,8.8668394E-1,0E0,0E0,0E0,1.4938538E-1,0E0,1.0368824E-1,0E0,0E0,0E0,0E0],"parents":[2147483647,0,0,1,1,2,2,4,4,5,5,6,6,10,10,12,12],"right_children":[2,4,6,-1,8,10,12,-1,-1,-1,14,-1,16,-1,-1,-1,-1],"split_conditions":[4.0313405E-1,6.875538E-2,7.796987E-1,4.5115757E-3,2.7919406E-1,1E1,5E0,2.4670397E-3,9.658273E-4,-4.8579355E-3,5.883393E-1,-1.5488731E-2,9.488562E-1,-1.0464899E-4,-1.66362E-3,-3.3044145E-3,-4.4243108E-3],"split_indices":[6,6,6,0,6,8,8,0,0,0,6,0,6,0,0,0,0],"split_type":[0,0,0,0,0,0,0,0,0,0,0,0,0,0,0,0,0],"sum_hessian":[3.166E3,1.486E3,1.68E3,7.84E2,7.02E2,6.64E2,1.016E3,4.09E2,2.93E2,3.1E1,6.33E2,1.6E1,1E3,3.47E2,2.86E2,5.41E2,4.59E2],"tree_param":{"num_deleted":"0","num_feature":"25","num_nodes":"17","size_leaf_vector":"1"}},{"base_weights":[-3.451569E-4,5.3265724E-2,-6.2342454E-2,8.134275E-2,2.1353438E-2,-5.873216E-2,-1.1199725E-2,4.2278846E-3,-0E0,2.6636355E-2,-4.555713E-3,-1.174803E-3,-7.317045E-2,2.7612385E-3,-3.7974194E-3,4.0164102E-2,6.333698E-4,-1.3252269E-2,-7.147416E-2,2.097247E-3,-5.6805545E-3,-3.0747761E-3,-4.2086053E-3],"categories":[],"categories_nodes":[],"categories_segments":[],"categories_sizes":[],"default_left":[0,0,0,0,0,0,0,0,0,0,0,0,0,0,0,0,0,0,0,0,0,0,0],"id":18,"left_children":[1,3,5,7,9,11,-1,-1,13,15,-1,-1,17,-1,-1,19,-1,-1,21,-1,-1,-1,-1],"loss_changes":[1.0480625E1,1.5022368E0,8.123956E-1,2.2817373E-1,4.6774018E-1,7.1765184E-1,0E0,0E0,1.5361741E-1,1.3782424E-1,0E0,0E0,2.774372E-1,0E0,0E0,1.0220879E-1,0E0,0E0,1.0785246E-1,0E0,0E0,0E0,0E0],"parents":[2147483647,0,0,1,1,2,2,3,3,4,4,5,5,8,8,9,9,12,12,15,15,18,18],"right_children":[2,4,6,8,10,12,-1,-1,14,16,-1,-1,18,-1,-1,20,-1,-1,22,-1,-1,-1,-1],"split_conditions":[4.9412146E-1,1.507532E-1,2.2727273E-2,7.307692E-1,2.2727273E-2,7.738348E-1,-1.1199725E-2,4.2278846E-3,-1.1404774E-1,3.2019678E-1,-4.555713E-3,-1.174803E-3,8.69252E-1,2.7612385E-3,-3.7974194E-3,1.0791769E3,6.333698E-4,-1.3252269E-2,9.5214415E-1,2.097247E-3,-5.6805545E-3,-3.0747761E-3,-4.2086053E-3],"split_indices":[6,6,12,12,12,6,0,0,6,6,0,0,13,0,0,1,0,0,6,0,0,0,0],"split_type":[0,0,0,0,0,0,0,0,0,0,0,0,0,0,0,0,0,0,0,0,0,0,0],"sum_hessian":[3.151E3,1.689E3,1.462E3,8.96E2,7.93E2,1.432E3,3E1,8.61E2,3.5E1,7.59E2,3.4E1,4.19E2,1.013E3,2.1E1,1.4E1,3.81E2,3.78E2,7E0,1.006E3,3.78E2,3E0,5.71E2,4.35E2],"tree_param":{"num_deleted":"0","num_feature":"25","num_nodes":"23","size_leaf_vector":"1"}},{"base_weights":[-9.2039636E-4,5.1224407E-2,-5.9884407E-2,7.470809E-2,1.6276019E-2,-1.6745599E-1,-5.418603E-2,4.2509157E-3,2.6643374E-3,-1.6629965E-3,1.0073112E-3,-1.6534552E-2,-7.1986676E-3,-1.1079776E-3,-6.832139E-2,-3.3601355E-3,-1.0044559E-2],"categories":[],"categories_nodes":[],"categories_segments":[],"categories_sizes":[],"default_left":[0,0,0,0,0,0,0,0,0,0,0,0,0,0,0,0,0],"id":19,"left_children":[1,3,5,7,9,11,13,-1,-1,-1,-1,-1,-1,-1,15,-1,-1],"loss_changes":[9.809045E0,1.3783388E0,8.870106E-1,2.0470667E-1,1.302995E-1,1.8857884E-1,6.345439E-1,0E0,0E0,0E0,0E0,0E0,0E0,0E0,1.05917454E-1,0E0,0E0],"parents":[2147483647,0,0,1,1,2,2,3,3,4,4,5,5,6,6,14,14],"right_children":[2,4,6,8,10,12,14,-1,-1,-1,-1,-1,-1,-1,16,-1,-1],"split_conditions":[4.811991E-1,1.8923846E-1,1E1,-1.1404774E-1,1.4E1,7.3322845E-1,7.796987E-1,4.2509157E-3,2.6643374E-3,-1.6629965E-3,1.0073112E-3,-1.6534552E-2,-7.1986676E-3,-1.1079776E-3,1.4705883E-1,-3.3601355E-3,-1.0044559E-2],"split_indices":[6,6,8,6,8,13,6,0,0,0,0,0,0,0,14,0,0],"split_type":[0,0,0,0,0,0,0,0,0,0,0,0,0,0,0,0,0],"sum_hessian":[3.188E3,1.691E3,1.497E3,1.009E3,6.82E2,7.3E1,1.424E3,6.76E2,3.33E2,4.7E1,6.35E2,7E0,6.6E1,4.39E2,9.85E2,9.79E2,6E0],"tree_param":{"num_deleted":"0","num_feature":"25","num_nodes":"17","size_leaf_vector":"1"}},{"base_weights":[-1.0300498E-3,5.6430288E-2,-5.017637E-2,3.939053E-3,1.6541707E-3,-1.8659046E-2,-7.078751E-2,-4.518553E-3,-1.4110796E-2,-2.2389361E-1,-6.540034E-2,-1.1204294E-4,-1.481822E-3,-0E0,-2.506094E-1,-3.1942565E-3,-8.812166E-3,-2.7857208E-1,-0E0,-1.5104561E-2,-2.1407162E-3],"categories":[],"categories_nodes":[],"categories_segments":[],"categories_sizes":[],"default_left":[0,0,0,0,0,0,0,0,0,0,0,0,0,0,0,0,0,0,0,0,0],"id":20,"left_children":[1,3,5,-1,-1,7,9,-1,11,13,15,-1,-1,-1,17,-1,-1,19,-1,-1,-1],"loss_changes":[8.9485235E0,7.480655E-1,1.0999146E0,0E0,0E0,2.0974205E-1,8.0680513E-1,0E0,1.14874735E-1,1.7978823E-1,1.3234282E-1,0E0,0E0,0E0,2.1111274E-1,0E0,0E0,1.0228562E-1,0E0,0E0,0E0],"parents":[2147483647,0,0,1,1,2,2,5,5,6,6,8,8,9,9,10,10,14,14,17,17],"right_children":[2,4,6,-1,-1,8,10,-1,12,14,16,-1,-1,-1,18,-1,-1,20,-1,-1,-1],"split_conditions":[3.9253503E-1,2.9304266E-2,7.738348E-1,3.939053E-3,1.6541707E-3,1E1,8E0,-4.518553E-3,5.883393E-1,1.3042264E1,1.2E-1,-1.1204294E-4,-1.481822E-3,-0E0,2.7E1,-3.1942565E-3,-8.812166E-3,3.37E2,-0E0,-1.5104561E-2,-2.1407162E-3],"split_indices":[6,6,6,0,0,8,8,0,6,19,14,0,0,0,4,0,0,16,0,0,0],"split_type":[0,0,0,0,0,0,0,0,0,0,0,0,0,0,0,0,0,0,0,0,0],"sum_hessian":[3.167E3,1.459E3,1.708E3,7.42E2,7.17E2,6.78E2,1.03E3,3.8E1,6.4E2,3.3E1,9.97E2,3.67E2,2.73E2,4E0,2.9E1,9.86E2,1.1E1,2.6E1,3E0,2.3E1,3E0],"tree_param":{"num_deleted":"0","num_feature":"25","num_nodes":"21","size_leaf_vector":"1"}},{"base_weights":[-1.6796302E-4,4.4796422E-2,-5.4194316E-2,6.787029E-2,1.5212421E-2,-5.0600752E-2,-1.0933532E-2,3.5604336E-3,-9.194219E-3,1.000221E-3,-4.5877458E-3,-1.3957004E-3,-3.264656E-3,3.7976273E-3,-2.8353787E-3],"categories":[],"categories_nodes":[],"categories_segments":[],"categories_sizes":[],"default_left":[0,0,0,0,0,0,0,0,0,0,0,0,0,0,0],"id":21,"left_children":[1,3,5,7,9,11,-1,-1,13,-1,-1,-1,-1,-1,-1],"loss_changes":[7.723562E0,1.1743178E0,8.160839E-1,2.569232E-1,3.857646E-1,4.6084046E-1,0E0,0E0,1.6420692E-1,0E0,0E0,0E0,0E0,0E0,0E0],"parents":[2147483647,0,0,1,1,2,2,3,3,4,4,5,5,8,8],"right_children":[2,4,6,8,10,12,-1,-1,14,-1,-1,-1,-1,-1,-1],"split_conditions":[4.9809727E-1,1.7843455E-1,2E-1,7.307692E-1,2.2727273E-2,8.498469E-1,-1.0933532E-2,3.5604336E-3,-4.97455E-1,1.000221E-3,-4.5877458E-3,-1.3957004E-3,-3.264656E-3,3.7976273E-3,-2.8353787E-3],"split_indices":[6,6,12,12,12,6,0,0,6,0,0,0,0,0,0],"split_type":[0,0,0,0,0,0,0,0,0,0,0,0,0,0,0],"sum_hessian":[3.177E3,1.733E3,1.444E3,9.71E2,7.62E2,1.415E3,2.9E1,9.32E2,3.9E1,7.31E2,3.1E1,5.6E2,8.55E2,1.3E1,2.6E1],"tree_param":{"num_deleted":"0","num_feature":"25","num_nodes":"15","size_leaf_vector":"1"}},{"base_weights":[-0E0,5.2095626E-2,-4.2846095E-2,3.6595247E-3,3.290238E-2,-7.7950335E-3,-5.851309E-2,3.8021985E-2,-3.8382448E-3,-1.4950318E-4,-5.132891E-3,-5.5329114E-2,-9.306203E-3,2.5583066E-3,1.2931814E-3,-1.615727E-1,-5.3257547E-2,-3.1952783E-3,-1.3679191E-2,-2.1064307E-3,-3.2611124E-3],"categories":[],"categories_nodes":[],"categories_segments":[],"categories_sizes":[],"default_left":[0,0,0,0,0,0,0,0,0,0,0,0,0,0,0,0,0,0,0,0,0],"id":22,"left_children":[1,3,5,-1,7,9,11,13,-1,-1,-1,15,-1,-1,-1,17,19,-1,-1,-1,-1],"loss_changes":[7.0661263E0,5.651498E-1,9.4732666E-1,0E0,4.212575E-1,2.3526718E-1,4.5272255E-1,1.06037736E-1,0E0,0E0,0E0,2.2785783E-1,0E0,0E0,0E0,1.785034E-1,1.3991094E-1,0E0,0E0,0E0,0E0],"parents":[2147483647,0,0,1,1,2,2,4,4,5,5,6,6,7,7,11,11,15,15,16,16],"right_children":[2,4,6,-1,8,10,12,14,-1,-1,-1,16,-1,-1,-1,18,20,-1,-1,-1,-1],"split_conditions":[3.8025707E-1,-1.1404774E-1,6.723814E-1,3.6595247E-3,7.307692E-1,2.2727273E-2,2.2727273E-2,2.0110705E-1,-3.8382448E-3,-1.4950318E-4,-5.132891E-3,1.1E1,-9.306203E-3,2.5583066E-3,1.2931814E-3,3.3972418E4,9.255283E-1,-3.1952783E-3,-1.3679191E-2,-2.1064307E-3,-3.2611124E-3],"split_indices":[6,6,6,0,12,12,12,6,0,0,0,4,0,0,0,1,6,0,0,0,0],"split_type":[0,0,0,0,0,0,0,0,0,0,0,0,0,0,0,0,0,0,0,0,0],"sum_hessian":[3.164E3,1.427E3,1.737E3,6.76E2,7.51E2,5.39E2,1.198E3,7.19E2,3.2E1,5.15E2,2.4E1,1.171E3,2.7E1,3.4E2,3.79E2,2E1,1.151E3,1.2E1,8E0,6.03E2,5.48E2],"tree_param":{"num_deleted":"0","num_feature":"25","num_nodes":"21","size_leaf_vector":"1"}},{"base_weights":[-1.5125539E-4,4.9491603E-2,-4.0823184E-2,3.3736012E-3,2.896492E-2,-8.702928E-3,-5.711058E-2,3.335513E-2,-3.8269286E-3,-2.6186884E-4,-4.2734845E-3,-2.177585E-1,-5.4267872E-2,1.7475988E-3,-7.1551204E-2,-2.5584695E-1,-0E0,-5.2498713E-2,-7.7496055E-3,-1.0556171E-2,8.3777326E-4,-4.1324436E-3,-1.5898444E-2,-2.1828879E-3,-3.2497917E-3],"categories":[],"categories_nodes":[],"categories_segments":[],"categories_sizes":[],"default_left":[0,0,0,0,0,0,0,0,0,0,0,0,0,0,0,0,0,0,0,0,0,0,0,0,0],"id":23,"left_children":[1,3,5,-1,7,9,11,13,-1,-1,-1,15,17,-1,19,21,-1,23,-1,-1,-1,-1,-1,-1,-1],"loss_changes":[6.3571887E0,5.1138616E-1,8.9902663E-1,0E0,3.067143E-1,1.4638056E-1,4.84787E-1,1.062206E-1,0E0,0E0,0E0,1.4636588E-1,1.7229843E-1,0E0,1.3390067E-1,1.05808735E-1,0E0,1.0915804E-1,0E0,0E0,0E0,0E0,0E0,0E0,0E0],"parents":[2147483647,0,0,1,1,2,2,4,4,5,5,6,6,7,7,11,11,12,12,14,14,15,15,17,17],"right_children":[2,4,6,-1,8,10,12,14,-1,-1,-1,16,18,-1,20,22,-1,24,-1,-1,-1,-1,-1,-1,-1],"split_conditions":[3.8025707E-1,4.5871437E-2,7.074056E-1,3.3736012E-3,1.5789473E-1,2.2727273E-2,9.0200436E-1,1.0560917E3,-3.8269286E-3,-2.6186884E-4,-4.2734845E-3,6.4229226E-1,2.2727273E-2,1.7475988E-3,5.061247E3,7.796987E-1,-0E0,9.488562E-1,-7.7496055E-3,-1.0556171E-2,8.3777326E-4,-4.1324436E-3,-1.5898444E-2,-2.1828879E-3,-3.2497917E-3],"split_indices":[6,6,6,0,12,12,13,1,0,0,0,17,12,0,2,6,0,6,0,0,0,0,0,0,0],"split_type":[0,0,0,0,0,0,0,0,0,0,0,0,0,0,0,0,0,0,0,0,0,0,0,0,0],"sum_hessian":[3.147E3,1.416E3,1.731E3,7.51E2,6.65E2,5.85E2,1.146E3,6.4E2,2.5E1,5.62E2,2.3E1,1.8E1,1.128E3,6.32E2,8E0,1.5E1,3E0,1.111E3,1.7E1,3E0,5E0,5E0,1E1,6.58E2,4.53E2],"tree_param":{"num_deleted":"0","num_feature":"25","num_nodes":"25","size_leaf_vector":"1"}},{"base_weights":[-4.8673068E-5,4.5413855E-2,-4.104306E-2,3.3221238E-3,2.785003E-2,-1.5063871E-1,-3.7056807E-2,3.2689318E-2,-3.7155014E-3,-1.3388261E-2,-1.0862961E-1,-1.4118605E-2,-2.7013882E-3,2.307876E-3,2.0767689E-2,-2.135184E-1,-3.0493836E-3,-1.1206021E-2,-5.1290295E-3,1.1702273E-3,-8.179342E-2,-5.4026E-4,-1.4565073E-2,2.627078E-4,-1.0606797E-3,-9.599144E-3,3.4983427E-4],"categories":[],"categories_nodes":[],"categories_segments":[],"categories_sizes":[],"default_left":[0,0,0,0,0,0,0,0,0,0,0,0,0,0,0,0,0,0,0,0,0,0,0,0,0,0,0],"id":24,"left_children":[1,3,5,-1,7,9,11,13,-1,-1,15,17,-1,-1,19,21,-1,23,-1,-1,25,-1,-1,-1,-1,-1,-1],"loss_changes":[5.974612E0,5.49752E-1,7.1265817E-1,0E0,4.0959275E-1,2.1865523E-1,6.269541E-1,1.20157E-1,0E0,0E0,1.843971E-1,1.6705601E-1,0E0,0E0,1.1182335E-1,1.7162126E-1,0E0,1.13227166E-1,0E0,0E0,1.1767917E-1,0E0,0E0,0E0,0E0,0E0,0E0],"parents":[2147483647,0,0,1,1,2,2,4,4,5,5,6,6,7,7,10,10,11,11,14,14,15,15,17,17,20,20],"right_children":[2,4,6,-1,8,10,12,14,-1,-1,16,18,-1,-1,20,22,-1,24,-1,-1,26,-1,-1,-1,-1,-1,-1],"split_conditions":[3.9253503E-1,-1.1404774E-1,8E0,3.3221238E-3,9.2E-1,8.69252E-1,8.0837184E-1,2.0613809E-1,-3.7155014E-3,-1.3388261E-2,1.58E2,2.2727273E-2,-2.7013882E-3,2.307876E-3,1.0791769E3,3.961E3,-3.0493836E-3,5.155332E-1,-5.1290295E-3,1.1702273E-3,7.5824175E3,-5.4026E-4,-1.4565073E-2,2.627078E-4,-1.0606797E-3,-9.599144E-3,3.4983427E-4],"split_indices":[6,6,8,0,12,13,6,6,0,0,23,12,0,0,1,1,0,6,0,0,0,0,0,0,0,0,0],"split_type":[0,0,0,0,0,0,0,0,0,0,0,0,0,0,0,0,0,0,0,0,0,0,0,0,0,0,0],"sum_hessian":[3.204E3,1.518E3,1.686E3,6.87E2,8.31E2,5.7E1,1.629E3,7.95E2,3.6E1,1.3E1,4.4E1,6.96E2,9.33E2,3.68E2,4.27E2,1.2E1,3.2E1,6.76E2,2E1,4.18E2,9E0,4E0,8E0,2.52E2,4.24E2,4E0,5E0],"tree_param":{"num_deleted":"0","num_feature":"25","num_nodes":"27","size_leaf_vector":"1"}},{"base_weights":[-6.206984E-4,4.3446664E-2,-3.7903197E-2,3.145652E-3,2.645724E-2,-1.4030596E-2,-5.427553E-2,1.542828E-3,-3.421178E-3,-4.721519E-4,-4.818504E-3,-1.1971015E-2,-5.192304E-2,-2.518935E-3,-8.391474E-3],"categories":[],"categories_nodes":[],"categories_segments":[],"categories_sizes":[],"default_left":[0,0,0,0,0,0,0,0,0,0,0,0,0,0,0],"id":25,"left_children":[1,3,5,-1,7,9,11,-1,-1,-1,-1,-1,13,-1,-1],"loss_changes":[5.2305746E0,4.7159195E-1,6.670153E-1,0E0,3.2518744E-1,2.5519112E-1,4.0313172E-1,0E0,0E0,0E0,0E0,0E0,1.5051365E-1,0E0,0E0],"parents":[2147483647,0,0,1,1,2,2,4,4,5,5,6,6,12,12],"right_children":[2,4,6,-1,8,10,12,-1,-1,-1,-1,-1,14,-1,-1],"split_conditions":[3.9253503E-1,-1.1404774E-1,7.8684014E-1,3.145652E-3,7.307692E-1,2.2727273E-2,8.69252E-1,1.542828E-3,-3.421178E-3,-4.721519E-4,-4.818504E-3,-1.1971015E-2,2.2727273E-2,-2.518935E-3,-8.391474E-3],"split_indices":[6,6,6,0,12,12,13,0,0,0,0,0,12,0,0],"split_type":[0,0,0,0,0,0,0,0,0,0,0,0,0,0,0],"sum_hessian":[3.182E3,1.457E3,1.725E3,6.75E2,7.82E2,7.05E2,1.02E3,7.49E2,3.3E1,6.7E2,3.5E1,1.1E1,1.009E3,9.98E2,1.1E1],"tree_param":{"num_deleted":"0","num_feature":"25","num_nodes":"15","size_leaf_vector":"1"}},{"base_weights":[2.7725482E-4,3.43779E-2,-4.342591E-2,5.342327E-2,1.0676203E-2,-2.058985E-1,-4.1212395E-2,2.8035808E-3,-1.4031739E-2,1.4712371E-2,-3.545278E-3,-1.7427312E-3,-1.3065559E-2,-1.143719E-3,-5.063905E-2,2.9199806E-3,-2.5384033E-3,-1.1497771E-1,8.09197E-4,-2.456529E-3,-7.5610476E-3,-1.0796327E-2,7.4763777E-4],"categories":[],"categories_nodes":[],"categories_segments":[],"categories_sizes":[],"default_left":[0,0,0,0,0,0,0,0,0,0,0,0,0,0,0,0,0,0,0,0,0,0,0],"id":26,"left_children":[1,3,5,7,9,11,13,-1,15,17,-1,-1,-1,-1,19,-1,-1,21,-1,-1,-1,-1,-1],"loss_changes":[4.7740383E0,8.06005E-1,4.7137213E-1,1.8292022E-1,2.608217E-1,1.3187945E-1,2.3108268E-1,0E0,1.0065356E-1,1.3893445E-1,0E0,0E0,0E0,0E0,1.10756636E-1,0E0,0E0,1.2825671E-1,0E0,0E0,0E0,0E0,0E0],"parents":[2147483647,0,0,1,1,2,2,3,3,4,4,5,5,6,6,8,8,9,9,14,14,17,17],"right_children":[2,4,6,8,10,12,14,-1,16,18,-1,-1,-1,-1,20,-1,-1,22,-1,-1,-1,-1,-1],"split_conditions":[5.155332E-1,1.7843455E-1,8.69252E-1,7.307692E-1,2.2727273E-2,1.73E2,8.273798E-1,2.8035808E-3,-3.8870043E-1,7.941919E-1,-3.545278E-3,-1.7427312E-3,-1.3065559E-2,-1.143719E-3,2.2727273E-2,2.9199806E-3,-2.5384033E-3,2E1,8.09197E-4,-2.456529E-3,-7.5610476E-3,-1.0796327E-2,7.4763777E-4],"split_indices":[6,6,13,12,12,23,6,0,6,13,0,0,0,0,12,0,0,15,0,0,0,0,0],"split_type":[0,0,0,0,0,0,0,0,0,0,0,0,0,0,0,0,0,0,0,0,0,0,0],"sum_hessian":[3.202E3,1.8E3,1.402E3,9.95E2,8.05E2,1.7E1,1.385E3,9.59E2,3.6E1,7.69E2,3.6E1,5E0,1.2E1,4.75E2,9.1E2,1.1E1,2.5E1,7E0,7.62E2,8.99E2,1.1E1,4E0,3E0],"tree_param":{"num_deleted":"0","num_feature":"25","num_nodes":"23","size_leaf_vector":"1"}},{"base_weights":[-3.5960227E-4,4.0437028E-2,-3.3451453E-2,2.8405092E-3,2.5545647E-2,-6.748868E-3,-4.548992E-2,1.482899E-3,-3.345076E-3,-1.3408209E-4,-4.056349E-3,-1.2429111E-2,-4.3834448E-2,-4.197614E-2,-6.6056075E-3,-1.7066699E-3,-2.8397366E-3],"categories":[],"categories_nodes":[],"categories_segments":[],"categories_sizes":[],"default_left":[0,0,0,0,0,0,0,0,0,0,0,0,0,0,0,0,0],"id":27,"left_children":[1,3,5,-1,7,9,11,-1,-1,-1,-1,-1,13,15,-1,-1,-1],"loss_changes":[4.2627172E0,3.3482933E-1,5.554135E-1,0E0,2.8148896E-1,1.5657346E-1,3.6331773E-1,0E0,0E0,0E0,0E0,0E0,1.7259002E-1,1.2494397E-1,0E0,0E0,0E0],"parents":[2147483647,0,0,1,1,2,2,4,4,5,5,6,6,12,12,13,13],"right_children":[2,4,6,-1,8,10,12,-1,-1,-1,-1,-1,14,16,-1,-1,-1],"split_conditions":[3.8025707E-1,-4.625457E-2,6.723814E-1,2.8405092E-3,7.307692E-1,2.2727273E-2,7.3322845E-1,1.482899E-3,-3.345076E-3,-1.3408209E-4,-4.056349E-3,-1.2429111E-2,2.2727273E-2,9.605725E-1,-6.6056075E-3,-1.7066699E-3,-2.8397366E-3],"split_indices":[6,6,6,0,12,12,13,0,0,0,0,0,12,6,0,0,0],"split_type":[0,0,0,0,0,0,0,0,0,0,0,0,0,0,0,0,0],"sum_hessian":[3.156E3,1.412E3,1.744E3,6.68E2,7.44E2,5.45E2,1.199E3,7.14E2,3E1,5.19E2,2.6E1,8E0,1.191E3,1.169E3,2.2E1,7.71E2,3.98E2],"tree_param":{"num_deleted":"0","num_feature":"25","num_nodes":"17","size_leaf_vector":"1"}},{"base_weights":[3.855644E-4,2.6664743E-3,-1.5226171E-2,1.3849449E-2,-3.968991E-2,1.2644444E-3,-5.3617812E-5,-2.0233375E-1,-3.789043E-2,-1.301418E-2,-0E0,-3.5376474E-2,-5.075831E-3,-6.8503286E-4,-2.147192E-3],"categories":[],"categories_nodes":[],"categories_segments":[],"categories_sizes":[],"default_left":[0,0,0,0,0,0,0,0,0,0,0,0,0,0,0],"id":28,"left_children":[1,-1,3,5,7,-1,-1,9,11,-1,-1,13,-1,-1,-1],"loss_changes":[2.6735413E0,0E0,1.7764008E0,1.967021E-1,3.6517787E-1,0E0,0E0,1.7207783E-1,1.9753683E-1,0E0,0E0,2.0616448E-1,0E0,0E0,0E0],"parents":[2147483647,0,0,2,2,3,3,4,4,7,7,8,8,11,11],"right_children":[2,-1,4,6,8,-1,-1,10,12,-1,-1,14,-1,-1,-1],"split_conditions":[1E0,2.6664743E-3,2.672395E2,4.860936E1,7.3322845E-1,1.2644444E-3,-5.3617812E-5,3.8E1,5.882353E-2,-1.301418E-2,-0E0,8.375152E4,-5.075831E-3,-6.8503286E-4,-2.147192E-3],"split_indices":[7,0,1,1,13,0,0,15,12,0,0,0,0,0,0],"split_type":[0,0,0,0,0,0,0,0,0,0,0,0,0,0,0],"sum_hessian":[3.228E3,7.36E2,2.492E3,1.137E3,1.355E3,6.47E2,4.9E2,1.3E1,1.342E3,1E1,3E0,1.294E3,4.8E1,3.39E2,9.55E2],"tree_param":{"num_deleted":"0","num_feature":"25","num_nodes":"15","size_leaf_vector":"1"}},{"base_weights":[5.4667296E-4,2.5284647E-3,-1.4644866E-2,1.0921557E-2,-3.7410222E-2,1.1697848E-2,-9.451116E-3,-1.0778519E-1,-3.540216E-2,1.0216924E-3,-0E0,1.1612077E-3,-1.4025947E-1,-1.0517522E-3,-2.1107353E-3,-8.073374E-3,8.003468E-5,-3.8540878E-3,-1.1813561E-2],"categories":[],"categories_nodes":[],"categories_segments":[],"categories_sizes":[],"default_left":[0,0,0,0,0,0,0,0,0,0,0,0,0,0,0,0,0,0,0],"id":29,"left_children":[1,-1,3,5,7,9,-1,11,13,-1,15,-1,17,-1,-1,-1,-1,-1,-1],"loss_changes":[2.4224002E0,0E0,1.4232076E0,1.6266526E-1,1.6458881E-1,1.1764377E-1,0E0,1.5961176E-1,1.16111636E-1,0E0,1.3160138E-1,0E0,1.2029505E-1,0E0,0E0,0E0,0E0,0E0,0E0],"parents":[2147483647,0,0,2,2,3,3,4,4,5,5,7,7,8,8,10,10,12,12],"right_children":[2,-1,4,6,8,10,-1,12,14,-1,16,-1,18,-1,-1,-1,-1,-1,-1],"split_conditions":[2E0,2.5284647E-3,2.985838E4,5.0847456E-2,7E0,8.81848E3,-9.451116E-3,1.3119531E0,1.1595485E5,1.0216924E-3,1.3E1,1.1612077E-3,1.553738E-1,-1.0517522E-3,-2.1107353E-3,-8.073374E-3,8.003468E-5,-3.8540878E-3,-1.1813561E-2],"split_indices":[7,0,3,14,8,3,0,24,3,0,4,0,18,0,0,0,0,0,0],"split_type":[0,0,0,0,0,0,0,0,0,0,0,0,0,0,0,0,0,0,0],"sum_hessian":[3.181E3,7.42E2,2.439E3,1.147E3,1.292E3,1.144E3,3E0,3.3E1,1.259E3,6.56E2,4.88E2,6E0,2.7E1,4.11E2,8.48E2,4E0,4.84E2,1.8E1,9E0],"tree_param":{"num_deleted":"0","num_feature":"25","num_nodes":"19","size_leaf_vector":"1"}},{"base_weights":[-4.0719207E-4,2.777494E-2,-3.7918642E-2,4.2986657E-2,7.5108316E-3,-1.1433979E-2,-3.5553858E-2,2.2749486E-3,-9.791604E-4,5.646394E-4,-3.2050982E-3,-3.372814E-2,-6.7498E-3,-1.1251721E-3,-2.16844E-3],"categories":[],"categories_nodes":[],"categories_segments":[],"categories_sizes":[],"default_left":[0,0,0,0,0,0,0,0,0,0,0,0,0,0,0],"id":30,"left_children":[1,3,5,7,9,-1,11,-1,-1,-1,-1,13,-1,-1,-1],"loss_changes":[3.358527E0,5.5317986E-1,5.807581E-1,1.6570783E-1,2.0696625E-1,0E0,2.2348928E-1,0E0,0E0,0E0,0E0,1.3603616E-1,0E0,0E0,0E0],"parents":[2147483647,0,0,1,1,2,2,3,3,4,4,6,6,11,11],"right_children":[2,4,6,8,10,-1,12,-1,-1,-1,-1,14,-1,-1,-1],"split_conditions":[5.4199916E-1,2.0110705E-1,8.69252E-1,7.307692E-1,2.2727273E-2,-1.1433979E-2,2.2727273E-2,2.2749486E-3,-9.791604E-4,5.646394E-4,-3.2050982E-3,8.918097E-1,-6.7498E-3,-1.1251721E-3,-2.16844E-3],"split_indices":[6,6,13,12,12,0,12,0,0,0,0,6,0,0,0],"split_type":[0,0,0,0,0,0,0,0,0,0,0,0,0,0,0],"sum_hessian":[3.174E3,1.811E3,1.363E3,1.031E3,7.8E2,1.5E1,1.348E3,9.93E2,3.8E1,7.43E2,3.7E1,1.326E3,2.2E1,6.19E2,7.07E2],"tree_param":{"num_deleted":"0","num_feature":"25","num_nodes":"15","size_leaf_vector":"1"}},{"base_weights":[-0E0,3.4375675E-2,-2.73661E-2,4.3834113E-2,9.3243626E-4,-2.3869937E-4,-3.821036E-2,2.2923055E-3,-6.9129426E-4,-3.528011E-2,-7.838166E-3,-5.9853955E-3,-1.6965419E-3],"categories":[],"categories_nodes":[],"categories_segments":[],"categories_sizes":[],"default_left":[0,0,0,0,0,0,0,0,0,0,0,0,0],"id":31,"left_children":[1,3,5,7,-1,-1,9,-1,-1,11,-1,-1,-1],"loss_changes":[3.0287352E0,2.0535266E-1,4.343047E-1,1.0673833E-1,0E0,0E0,3.9456415E-1,0E0,0E0,1.1499524E-1,0E0,0E0,0E0],"parents":[2147483647,0,0,1,1,2,2,3,3,6,6,9,9],"right_children":[2,4,6,8,-1,-1,10,-1,-1,12,-1,-1,-1],"split_conditions":[3.6588362E-1,1.3667685E-1,6.723814E-1,1.5789473E-1,9.3243626E-4,-2.3869937E-4,2E-1,2.2923055E-3,-6.9129426E-4,1.1E1,-7.838166E-3,-5.9853955E-3,-1.6965419E-3],"split_indices":[6,6,6,12,0,0,12,0,0,4,0,0,0],"split_type":[0,0,0,0,0,0,0,0,0,0,0,0,0],"sum_hessian":[3.217E3,1.427E3,1.79E3,8.86E2,5.41E2,5.84E2,1.206E3,8.58E2,2.8E1,1.179E3,2.7E1,1.6E1,1.163E3],"tree_param":{"num_deleted":"0","num_feature":"25","num_nodes":"13","size_leaf_vector":"1"}},{"base_weights":[-4.056836E-4,2.7240846E-2,-3.1014256E-2,4.0879004E-2,5.170075E-4,-1.0150463E-2,-3.0022826E-2,2.153809E-3,-6.839709E-4,-1.150262E-3,-5.1197026E-2,-1.3016367E-1,-2.3395997E-3,-2.0788254E-3,-1.2457344E-2],"categories":[],"categories_nodes":[],"categories_segments":[],"categories_sizes":[],"default_left":[0,0,0,0,0,0,0,0,0,0,0,0,0,0,0],"id":32,"left_children":[1,3,5,7,-1,-1,9,-1,-1,-1,11,13,-1,-1,-1],"loss_changes":[2.7201297E0,3.8329923E-1,2.3098767E-1,1.1501193E-1,0E0,0E0,2.1726155E-1,0E0,0E0,0E0,1.0630989E-1,1.5029594E-1,0E0,0E0,0E0],"parents":[2147483647,0,0,1,1,2,2,3,3,6,6,10,10,11,11],"right_children":[2,4,6,8,-1,-1,10,-1,-1,-1,12,14,-1,-1,-1],"split_conditions":[4.811991E-1,1.507532E-1,7.3322845E-1,7.307692E-1,5.170075E-4,-1.0150463E-2,9.6627635E-1,2.153809E-3,-6.839709E-4,-1.150262E-3,1.3E1,7.623603E5,-2.3395997E-3,-2.0788254E-3,-1.2457344E-2],"split_indices":[6,6,13,12,0,0,6,0,0,0,15,0,0,0,0],"split_type":[0,0,0,0,0,0,0,0,0,0,0,0,0,0,0],"sum_hessian":[3.212E3,1.686E3,1.526E3,9.29E2,7.57E2,7E0,1.519E3,8.95E2,3.4E1,1.146E3,3.73E2,1.7E1,3.56E2,1.1E1,6E0],"tree_param":{"num_deleted":"0","num_feature":"25","num_nodes":"15","size_leaf_vector":"1"}},{"base_weights":[-4.3140276E-4,2.5262764E-2,-3.0742355E-2,1.7937021E-3,2.5709972E-4,-1.29266E-1,-2.8025215E-2,-0E0,-7.6942453E-3,-7.187621E-4,-1.7784821E-3],"categories":[],"categories_nodes":[],"categories_segments":[],"categories_sizes":[],"default_left":[0,0,0,0,0,0,0,0,0,0,0],"id":33,"left_children":[1,3,5,-1,-1,7,9,-1,-1,-1,-1],"loss_changes":[2.4810705E0,3.6337316E-1,3.722968E-1,0E0,0E0,1.2280947E-1,1.413455E-1,0E0,0E0,0E0,0E0],"parents":[2147483647,0,0,1,1,2,2,5,5,6,6],"right_children":[2,4,6,-1,-1,8,10,-1,-1,-1,-1],"split_conditions":[4.9809727E-1,2.4323256E-1,7E0,1.7937021E-3,2.5709972E-4,1.2767876E1,8.273798E-1,-0E0,-7.6942453E-3,-7.187621E-4,-1.7784821E-3],"split_indices":[6,6,8,0,0,19,6,0,0,0,0],"split_type":[0,0,0,0,0,0,0,0,0,0,0],"sum_hessian":[3.183E3,1.721E3,1.462E3,1.123E3,5.98E2,3.7E1,1.425E3,6E0,3.1E1,5.13E2,9.12E2],"tree_param":{"num_deleted":"0","num_feature":"25","num_nodes":"11","size_leaf_vector":"1"}},{"base_weights":[-7.6585036E-4,2.3688743E-2,-2.9258711E-2,1.8947006E-3,8.800764E-3,-9.805859E-3,-2.8153708E-2,1.1778131E-2,-2.6132094E-3,-1.1465742E-3,-4.855673E-2,-9.557578E-2,6.6142593E-4,-1.5001592E-2,-2.187095E-3,-1.0269005E-2,-0E0],"categories":[],"categories_nodes":[],"categories_segments":[],"categories_sizes":[],"default_left":[0,0,0,0,0,0,0,0,0,0,0,0,0,0,0,0,0],"id":34,"left_children":[1,3,5,-1,7,-1,9,11,-1,-1,13,15,-1,-1,-1,-1,-1],"loss_changes":[2.2365246E0,3.5981327E-1,2.456702E-1,0E0,1.5056239E-1,0E0,1.4900422E-1,1.1915053E-1,0E0,0E0,3.1089884E-1,1.19557634E-1,0E0,0E0,0E0,0E0,0E0],"parents":[2147483647,0,0,1,1,2,2,4,4,6,6,7,7,10,10,11,11],"right_children":[2,4,6,-1,8,-1,10,12,-1,-1,14,16,-1,-1,-1,-1,-1],"split_conditions":[4.9412146E-1,1.3667685E-1,7.3322845E-1,1.8947006E-3,2.2727273E-2,-9.805859E-3,4.892693E3,7.941919E-1,-2.6132094E-3,-1.1465742E-3,3.695881E4,2E1,6.6142593E-4,-1.5001592E-2,-2.187095E-3,-1.0269005E-2,-0E0],"split_indices":[6,6,13,0,12,0,1,13,0,0,3,4,0,0,0,0,0],"split_type":[0,0,0,0,0,0,0,0,0,0,0,0,0,0,0,0,0],"sum_hessian":[3.207E3,1.724E3,1.483E3,8.78E2,8.46E2,8E0,1.475E3,8.09E2,3.7E1,1.18E3,2.95E2,9E0,8E2,4E0,2.91E2,4E0,5E0],"tree_param":{"num_deleted":"0","num_feature":"25","num_nodes":"17","size_leaf_vector":"1"}},{"base_weights":[-2.493761E-5,2.7943274E-2,-2.260604E-2,1.9637716E-3,9.0800936E-4,-1.4384666E-4,-3.1113176E-2,-9.234299E-3,-1.4934357E-3],"categories":[],"categories_nodes":[],"categories_segments":[],"categories_sizes":[],"default_left":[0,0,0,0,0,0,0,0,0],"id":35,"left_children":[1,3,5,-1,-1,-1,7,-1,-1],"loss_changes":[2.0027528E0,1.5041494E-1,2.914033E-1,0E0,0E0,0E0,2.06954E-1,0E0,0E0],"parents":[2147483647,0,0,1,1,2,2,6,6],"right_children":[2,4,6,-1,-1,-1,8,-1,-1],"split_conditions":[3.6588362E-1,-2.9002887E-1,6.509801E-1,1.9637716E-3,9.0800936E-4,-1.4384666E-4,7.3322845E-1,-9.234299E-3,-1.4934357E-3],"split_indices":[6,6,6,0,0,0,13,0,0],"split_type":[0,0,0,0,0,0,0,0,0],"sum_hessian":[3.17E3,1.414E3,1.756E3,6.49E2,7.65E2,5.33E2,1.223E3,8E0,1.215E3],"tree_param":{"num_deleted":"0","num_feature":"25","num_nodes":"9","size_leaf_vector":"1"}},{"base_weights":[-0E0,2.6677638E-2,-2.1554645E-2,2.8679343E-2,-1.3318583E-3,-7.04765E-3,-3.2569356E-2,1.7956203E-3,1.613284E-2,-2.0966039E-4,-3.50787E-3,-3.0687667E-2,-6.74526E-3,-5.2025034E-3,8.9716533E-4,-4.841505E-3,-1.4390025E-3],"categories":[],"categories_nodes":[],"categories_segments":[],"categories_sizes":[],"default_left":[0,0,0,0,0,0,0,0,0,0,0,0,0,0,0,0,0],"id":36,"left_children":[1,3,5,7,-1,9,11,-1,13,-1,-1,15,-1,-1,-1,-1,-1],"loss_changes":[1.8581817E0,1.5517914E-1,2.811944E-1,1.2081182E-1,0E0,1.3206182E-1,1.7398298E-1,0E0,1.0574876E-1,0E0,0E0,1.10195935E-1,0E0,0E0,0E0,0E0,0E0],"parents":[2147483647,0,0,1,1,2,2,3,3,5,5,6,6,8,8,11,11],"right_children":[2,4,6,8,-1,10,12,-1,14,-1,-1,16,-1,-1,-1,-1,-1],"split_conditions":[3.6588362E-1,7.307692E-1,7.9403526E-1,1.3667685E-1,-1.3318583E-3,2E-1,2.2727273E-2,1.7956203E-3,4E0,-2.0966039E-4,-3.50787E-3,1.2E1,-6.74526E-3,-5.2025034E-3,8.9716533E-4,-4.841505E-3,-1.4390025E-3],"split_indices":[6,12,6,6,0,12,12,0,8,0,0,7,0,0,0,0,0],"split_type":[0,0,0,0,0,0,0,0,0,0,0,0,0,0,0,0,0],"sum_hessian":[3.229E3,1.444E3,1.785E3,1.394E3,5E1,7.75E2,1.01E3,8.78E2,5.16E2,7.44E2,3.1E1,9.94E2,1.6E1,6E0,5.1E2,2.5E1,9.69E2],"tree_param":{"num_deleted":"0","num_feature":"25","num_nodes":"17","size_leaf_vector":"1"}},{"base_weights":[4.2965985E-4,1.3550498E-3,-1.8343918E-2,-1.7743134E-4,-1.3927597E-3],"categories":[],"categories_nodes":[],"categories_segments":[],"categories_sizes":[],"default_left":[0,0,0,0,0],"id":37,"left_children":[1,-1,3,-1,-1],"loss_changes":[1.5981576E0,0E0,2.5991106E-1,0E0,0E0],"parents":[2147483647,0,0,2,2],"right_children":[2,-1,4,-1,-1],"split_conditions":[3.2477847E-1,1.3550498E-3,7.1687156E-1,-1.7743134E-4,-1.3927597E-3],"split_indices":[6,0,6,0,0],"split_type":[0,0,0,0,0],"sum_hessian":[3.188E3,1.319E3,1.869E3,7.36E2,1.133E3],"tree_param":{"num_deleted":"0","num_feature":"25","num_nodes":"5","size_leaf_vector":"1"}},{"base_weights":[-1.9015446E-4,1.9216344E-2,-2.406452E-2,1.5552489E-3,3.3887834E-4,-4.0464997E-3,-2.1275964E-2,-6.4672023E-4,-1.533476E-3],"categories":[],"categories_nodes":[],"categories_segments":[],"categories_sizes":[],"default_left":[0,0,0,0,0,0,0,0,0],"id":38,"left_children":[1,3,5,-1,-1,-1,7,-1,-1],"loss_changes":[1.4798577E0,2.5612193E-1,2.1545053E-1,0E0,0E0,0E0,1.0259187E-1,0E0,0E0],"parents":[2147483647,0,0,1,1,2,2,6,6],"right_children":[2,4,6,-1,-1,-1,8,-1,-1],"split_conditions":[5.155332E-1,1.3667685E-1,1E1,1.5552489E-3,3.3887834E-4,-4.0464997E-3,9.094672E-1,-6.4672023E-4,-1.533476E-3],"split_indices":[6,6,8,0,0,0,6,0,0],"split_type":[0,0,0,0,0,0,0,0,0],"sum_hessian":[3.191E3,1.758E3,1.433E3,8.94E2,8.64E2,6.4E1,1.369E3,7.32E2,6.37E2],"tree_param":{"num_deleted":"0","num_feature":"25","num_nodes":"9","size_leaf_vector":"1"}},{"base_weights":[-2.1728205E-4,2.4149222E-2,-1.742606E-2,1.3139549E-3,-1.4195006E-3,-8.621524E-3,-3.3317562E-2,2.9070172E-5,-8.844358E-4,-3.0770315E-2,-1.4205989E-1,-6.052192E-3,-1.3998353E-3,-9.83974E-3,9.4880344E-4],"categories":[],"categories_nodes":[],"categories_segments":[],"categories_sizes":[],"default_left":[0,0,0,0,0,0,0,0,0,0,0,0,0,0,0],"id":39,"left_children":[1,3,5,-1,-1,7,9,-1,-1,11,13,-1,-1,-1,-1],"loss_changes":[1.3369529E0,1.4802182E-1,2.5744408E-1,0E0,0E0,1.0268912E-1,1.6199243E-1,0E0,0E0,1.4445627E-1,1.4491633E-1,0E0,0E0,0E0,0E0],"parents":[2147483647,0,0,1,1,2,2,5,5,6,6,9,9,10,10],"right_children":[2,4,6,-1,-1,8,10,-1,-1,12,14,-1,-1,-1,-1],"split_conditions":[3.2019678E-1,7.307692E-1,1.0560917E3,1.3139549E-3,-1.4195006E-3,6.4022374E-1,1.6068042E5,2.9070172E-5,-8.844358E-4,1.8412012E4,4.08E2,-6.052192E-3,-1.3998353E-3,-9.83974E-3,9.4880344E-4],"split_indices":[6,12,1,0,0,6,1,0,0,0,23,0,0,0,0],"split_type":[0,0,0,0,0,0,0,0,0,0,0,0,0,0,0],"sum_hessian":[3.188E3,1.317E3,1.871E3,1.268E3,4.9E1,1.209E3,6.62E2,5.95E2,6.14E2,6.49E2,1.3E1,1.7E1,6.32E2,1E1,3E0],"tree_param":{"num_deleted":"0","num_feature":"25","num_nodes":"15","size_leaf_vector":"1"}},{"base_weights":[-0E0,2.2696977E-2,-1.600628E-2,1.2473245E-3,-1.4998058E-3,-1.3890642E-2,-4.5052017E-3,-5.131076E-5,-1.2204795E-3],"categories":[],"categories_nodes":[],"categories_segments":[],"categories_sizes":[],"default_left":[0,0,0,0,0,0,0,0,0],"id":40,"left_children":[1,3,5,-1,-1,7,-1,-1,-1],"loss_changes":[1.1249101E0,1.5184802E-1,2.735028E-1,0E0,0E0,2.370835E-1,0E0,0E0,0E0],"parents":[2147483647,0,0,1,1,2,2,5,5],"right_children":[2,4,6,-1,-1,8,-1,-1,-1],"split_conditions":[3.2477847E-1,7.307692E-1,2E-1,1.2473245E-3,-1.4998058E-3,7.738348E-1,-4.5052017E-3,-5.131076E-5,-1.2204795E-3],"split_indices":[6,12,12,0,0,6,0,0,0],"split_type":[0,0,0,0,0,0,0,0,0],"sum_hessian":[3.096E3,1.278E3,1.818E3,1.228E3,5E1,1.77E3,4.8E1,8.01E2,9.69E2],"tree_param":{"num_deleted":"0","num_feature":"25","num_nodes":"9","size_leaf_vector":"1"}},{"base_weights":[-0E0,1.6799461E-2,-2.1390459E-2,1.4498817E-3,7.4836947E-3,-9.6882845E-4,-1.0299855E-1,5.1175075E-4,-2.8461458E-3,-7.6628597E-3,-1.0145241E-3],"categories":[],"categories_nodes":[],"categories_segments":[],"categories_sizes":[],"default_left":[0,0,0,0,0,0,0,0,0,0,0],"id":41,"left_children":[1,3,5,-1,7,-1,9,-1,-1,-1,-1],"loss_changes":[1.1343323E0,1.9715574E-1,2.1388412E-1,0E0,1.7471185E-1,0E0,1.1255303E-1,0E0,0E0,0E0,0E0],"parents":[2147483647,0,0,1,1,2,2,4,4,6,6],"right_children":[2,4,6,-1,8,-1,10,-1,-1,-1,-1],"split_conditions":[5.155332E-1,2.9304266E-2,2E-1,1.4498817E-3,9.2E-1,-9.6882845E-4,1.4523748E1,5.1175075E-4,-2.8461458E-3,-7.6628597E-3,-1.0145241E-3],"split_indices":[6,6,12,0,12,0,19,0,0,0,0],"split_type":[0,0,0,0,0,0,0,0,0,0,0],"sum_hessian":[3.155E3,1.768E3,1.387E3,7.6E2,1.008E3,1.356E3,3.1E1,9.69E2,3.9E1,1.8E1,1.3E1],"tree_param":{"num_deleted":"0","num_feature":"25","num_nodes":"11","size_leaf_vector":"1"}},{"base_weights":[-4.2780457E-4,1.6550627E-2,-2.0276705E-2,1.2102037E-3,1.569551E-4,-8.3221674E-2,-8.5016293E-4,-1.5842247E-1,-5.2805882E-2,-2.098425E-3,-1.2451709E-2,-5.0064945E-4,-1.2990245E-1,-1.0787132E-2,-4.489875E-4],"categories":[],"categories_nodes":[],"categories_segments":[],"categories_sizes":[],"default_left":[0,0,0,0,0,0,0,0,0,0,0,0,0,0,0],"id":42,"left_children":[1,3,5,-1,-1,7,-1,9,11,-1,-1,-1,13,-1,-1],"loss_changes":[1.0744003E0,1.7322487E-1,2.9186344E-1,0E0,0E0,1.3290924E-1,0E0,1.609379E-1,1.5956457E-1,0E0,0E0,0E0,1.6243097E-1,0E0,0E0],"parents":[2147483647,0,0,1,1,2,2,5,5,7,7,8,8,12,12],"right_children":[2,4,6,-1,-1,8,-1,10,12,-1,-1,-1,14,-1,-1],"split_conditions":[4.9412146E-1,2.2164232E-1,1E1,1.2102037E-3,1.569551E-4,3.789242E4,-8.5016293E-4,2.6679126E3,8.1072275E5,-2.098425E-3,-1.2451709E-2,-5.0064945E-4,1.536723E6,-1.0787132E-2,-4.489875E-4],"split_indices":[6,6,8,0,0,3,0,1,0,0,0,0,0,0,0],"split_type":[0,0,0,0,0,0,0,0,0,0,0,0,0,0,0],"sum_hessian":[3.185E3,1.714E3,1.471E3,1.086E3,6.28E2,7E1,1.401E3,1.8E1,5.2E1,9E0,9E0,3.5E1,1.7E1,9E0,8E0],"tree_param":{"num_deleted":"0","num_feature":"25","num_nodes":"15","size_leaf_vector":"1"}},{"base_weights":[-5.3710846E-4,9.4297616E-4,-1.603384E-2,-6.3812524E-2,-1.3608607E-2,-2.0260604E-3,-7.005667E-3,-1.4937503E-4,-1.1568771E-3],"categories":[],"categories_nodes":[],"categories_segments":[],"categories_sizes":[],"default_left":[0,0,0,0,0,0,0,0,0],"id":43,"left_children":[1,-1,3,5,7,-1,-1,-1,-1],"loss_changes":[9.5257175E-1,0E0,1.959078E-1,1.2376213E-1,1.6765118E-1,0E0,0E0,0E0,0E0],"parents":[2147483647,0,0,2,2,3,3,4,4],"right_children":[2,-1,4,6,8,-1,-1,-1,-1],"split_conditions":[3.6588362E-1,9.4297616E-4,1E1,5.149833E-1,8.273798E-1,-2.0260604E-3,-7.005667E-3,-1.4937503E-4,-1.1568771E-3],"split_indices":[6,0,8,18,6,0,0,0,0],"split_type":[0,0,0,0,0,0,0,0,0],"sum_hessian":[3.168E3,1.404E3,1.764E3,8.2E1,1.682E3,6.5E1,1.7E1,8.01E2,8.81E2],"tree_param":{"num_deleted":"0","num_feature":"25","num_nodes":"9","size_leaf_vector":"1"}},{"base_weights":[6.5248605E-5,1.0009517E-3,-1.2829475E-2,-2.9254064E-4,-2.6261339E-2,-1.2037808E-3,-6.6337935E-3],"categories":[],"categories_nodes":[],"categories_segments":[],"categories_sizes":[],"default_left":[0,0,0,0,0,0,0],"id":44,"left_children":[1,-1,3,-1,5,-1,-1],"loss_changes":[8.1738406E-1,0E0,1.7707777E-1,0E0,1.3301378E-1,0E0,0E0],"parents":[2147483647,0,0,2,2,4,4],"right_children":[2,-1,4,-1,6,-1,-1],"split_conditions":[2.9262683E-1,1.0009517E-3,9.094672E-1,-2.9254064E-4,1.6068042E5,-1.2037808E-3,-6.6337935E-3],"split_indices":[6,0,6,0,1,0,0],"split_type":[0,0,0,0,0,0,0],"sum_hessian":[3.172E3,1.248E3,1.924E3,1.272E3,6.52E2,6.41E2,1.1E1],"tree_param":{"num_deleted":"0","num_feature":"25","num_nodes":"7","size_leaf_vector":"1"}},{"base_weights":[-2.8316694E-4,1.3836846E-2,-1.7966803E-2,1.2646691E-3,6.060321E-3,-7.9035194E-4,-4.916675E-3,4.4120033E-4,-2.6510851E-3],"categories":[],"categories_nodes":[],"categories_segments":[],"categories_sizes":[],"default_left":[0,0,0,0,0,0,0,0,0],"id":45,"left_children":[1,3,5,-1,7,-1,-1,-1,-1],"loss_changes":[7.809528E-1,1.51286E-1,2.2847182E-1,0E0,1.658636E-1,0E0,0E0,0E0,0E0],"parents":[2147483647,0,0,1,1,2,2,4,4],"right_children":[2,4,6,-1,8,-1,-1,-1,-1],"split_conditions":[5.274101E-1,1E0,2E-1,1.2646691E-3,9.2E-1,-7.9035194E-4,-4.916675E-3,4.4120033E-4,-2.6510851E-3],"split_indices":[6,7,12,0,12,0,0,0,0],"split_type":[0,0,0,0,0,0,0,0,0],"sum_hessian":[3.124E3,1.734E3,1.39E3,6.95E2,1.039E3,1.356E3,3.4E1,9.95E2,4.4E1],"tree_param":{"num_deleted":"0","num_feature":"25","num_nodes":"9","size_leaf_vector":"1"}},{"base_weights":[-4.0360963E-5,1.1971319E-2,-1.8878665E-2,1.4330523E-2,-4.213172E-2,-8.5104065E-4,-4.7359853E-3,1.1564479E-3,3.2354976E-4,2.1856606E-3,-2.9065914E-3],"categories":[],"categories_nodes":[],"categories_segments":[],"categories_sizes":[],"default_left":[0,0,0,0,0,0,0,0,0,0,0],"id":46,"left_children":[1,3,5,7,9,-1,-1,-1,-1,-1,-1],"loss_changes":[7.159605E-1,2.4378619E-1,1.6108608E-1,1.2475157E-1,1.1249173E-1,0E0,0E0,0E0,0E0,0E0,0E0],"parents":[2147483647,0,0,1,1,2,2,3,3,4,4],"right_children":[2,4,6,8,10,-1,-1,-1,-1,-1,-1],"split_conditions":[6.310875E-1,7.307692E-1,2E-1,1.3667685E-1,-4.97455E-1,-8.5104065E-4,-4.7359853E-3,1.1564479E-3,3.2354976E-4,2.1856606E-3,-2.9065914E-3],"split_indices":[6,12,12,6,6,0,0,0,0,0,0],"split_type":[0,0,0,0,0,0,0,0,0,0,0],"sum_hessian":[3.159E3,1.926E3,1.233E3,1.848E3,7.8E1,1.206E3,2.7E1,8.65E2,9.83E2,1.1E1,6.7E1],"tree_param":{"num_deleted":"0","num_feature":"25","num_nodes":"11","size_leaf_vector":"1"}},{"base_weights":[-5.246713E-4,1.0687549E-2,-1.7904256E-2,1.2948205E-2,-4.1407492E-2,-8.365159E-4,-7.0080454E-3,1.0689697E-3,2.4243249E-4,1.8232603E-3,-2.8695818E-3],"categories":[],"categories_nodes":[],"categories_segments":[],"categories_sizes":[],"default_left":[0,0,0,0,0,0,0,0,0,0,0],"id":47,"left_children":[1,3,5,7,9,-1,-1,-1,-1,-1,-1],"loss_changes":[6.231129E-1,2.2592652E-1,1.6222921E-1,1.24290854E-1,1.0251896E-1,0E0,0E0,0E0,0E0,0E0,0E0],"parents":[2147483647,0,0,1,1,2,2,3,3,4,4],"right_children":[2,4,6,8,10,-1,-1,-1,-1,-1,-1],"split_conditions":[6.164847E-1,9.2E-1,2.9761905E-3,1.5642282E-1,-3.8870043E-1,-8.365159E-4,-7.0080454E-3,1.0689697E-3,2.4243249E-4,1.8232603E-3,-2.8695818E-3],"split_indices":[6,12,9,6,6,0,0,0,0,0,0],"split_type":[0,0,0,0,0,0,0,0,0,0,0],"sum_hessian":[3.192E3,1.937E3,1.255E3,1.859E3,7.8E1,1.245E3,1E1,9.04E2,9.55E2,1.2E1,6.6E1],"tree_param":{"num_deleted":"0","num_feature":"25","num_nodes":"11","size_leaf_vector":"1"}},{"base_weights":[-2.1000928E-4,7.5765577E-4,-1.2131107E-2,-7.7331276E-3,-1.1193097E-2,-9.693111E-3,-3.114022E-3,-6.233749E-5,-8.930626E-4],"categories":[],"categories_nodes":[],"categories_segments":[],"categories_sizes":[],"default_left":[0,0,0,0,0,0,0,0,0],"id":48,"left_children":[1,-1,3,-1,5,7,-1,-1,-1],"loss_changes":[5.842983E-1,0E0,2.224698E-1,0E0,1.294437E-1,1.1831838E-1,0E0,0E0,0E0],"parents":[2147483647,0,0,2,2,4,4,5,5],"right_children":[2,-1,4,-1,6,8,-1,-1,-1],"split_conditions":[3.6588362E-1,7.5765577E-4,7.3322845E-1,-7.7331276E-3,2.2727273E-2,8.413997E-1,-3.114022E-3,-6.233749E-5,-8.930626E-4],"split_indices":[6,0,13,0,12,6,0,0,0],"split_type":[0,0,0,0,0,0,0,0,0],"sum_hessian":[3.19E3,1.39E3,1.8E3,1E1,1.79E3,1.742E3,4.8E1,8.63E2,8.79E2],"tree_param":{"num_deleted":"0","num_feature":"25","num_nodes":"9","size_leaf_vector":"1"}},{"base_weights":[-3.2303372E-4,1.1002832E-2,-1.46999555E-2,6.408803E-4,-1.5607431E-3,-6.5444387E-4,-4.0548407E-3],"categories":[],"categories_nodes":[],"categories_segments":[],"categories_sizes":[],"default_left":[0,0,0,0,0,0,0],"id":49,"left_children":[1,3,5,-1,-1,-1,-1],"loss_changes":[5.2403337E-1,1.3608536E-1,1.4152512E-1,0E0,0E0,0E0,0E0],"parents":[2147483647,0,0,1,1,2,2],"right_children":[2,4,6,-1,-1,-1,-1],"split_conditions":[5.155332E-1,7.307692E-1,2E-1,6.408803E-4,-1.5607431E-3,-6.5444387E-4,-4.0548407E-3],"split_indices":[6,12,12,0,0,0,0],"split_type":[0,0,0,0,0,0,0],"sum_hessian":[3.214E3,1.794E3,1.42E3,1.723E3,7.1E1,1.389E3,3.1E1],"tree_param":{"num_deleted":"0","num_feature":"25","num_nodes":"7","size_leaf_vector":"1"}},{"base_weights":[-0E0,7.2177633E-4,-1.0103356E-2,-6.1470075E-3,-9.382274E-3,-2.731734E-4,-1.3101904E-3],"categories":[],"categories_nodes":[],"categories_segments":[],"categories_sizes":[],"default_left":[0,0,0,0,0,0,0],"id":50,"left_children":[1,-1,3,-1,5,-1,-1],"loss_changes":[4.6779874E-1,0E0,1.3890523E-1,0E0,1.20224774E-1,0E0,0E0],"parents":[2147483647,0,0,2,2,4,4],"right_children":[2,-1,4,-1,6,-1,-1],"split_conditions":[3.2019678E-1,7.2177633E-4,7.3322845E-1,-6.1470075E-3,9.6627635E-1,-2.731734E-4,-1.3101904E-3],"split_indices":[6,0,13,0,6,0,0],"split_type":[0,0,0,0,0,0,0],"sum_hessian":[3.204E3,1.321E3,1.883E3,1E1,1.873E3,1.525E3,3.48E2],"tree_param":{"num_deleted":"0","num_feature":"25","num_nodes":"7","size_leaf_vector":"1"}},{"base_weights":[-3.3087697E-4,7.6437916E-4,-9.4634425E-3,-3.5086104E-3,-7.567561E-3,-5.553834E-5,-8.085739E-4],"categories":[],"categories_nodes":[],"categories_segments":[],"categories_sizes":[],"default_left":[0,0,0,0,0,0,0],"id":51,"left_children":[1,-1,3,-1,5,-1,-1],"loss_changes":[4.517203E-1,0E0,2.2246367E-1,0E0,1.0641689E-1,0E0,0E0],"parents":[2147483647,0,0,2,2,4,4],"right_children":[2,-1,4,-1,6,-1,-1],"split_conditions":[2.6841748E-1,7.6437916E-4,7E0,-3.5086104E-3,8.569948E-1,-5.553834E-5,-8.085739E-4],"split_indices":[6,0,8,0,6,0,0],"split_type":[0,0,0,0,0,0,0],"sum_hessian":[3.169E3,1.165E3,2.004E3,5.8E1,1.946E3,1.119E3,8.27E2],"tree_param":{"num_deleted":"0","num_feature":"25","num_nodes":"7","size_leaf_vector":"1"}},{"base_weights":[-3.5593155E-4,8.987955E-3,-1.4014958E-2,5.327856E-4,-1.6099634E-3,-6.147846E-4,-5.0085285E-3],"categories":[],"categories_nodes":[],"categories_segments":[],"categories_sizes":[],"default_left":[0,0,0,0,0,0,0],"id":52,"left_children":[1,3,5,-1,-1,-1,-1],"loss_changes":[4.0508306E-1,1.271891E-1,1.7889854E-1,0E0,0E0,0E0,0E0],"parents":[2147483647,0,0,1,1,2,2],"right_children":[2,4,6,-1,-1,-1,-1],"split_conditions":[6.087977E-1,7.307692E-1,2E-1,5.327856E-4,-1.6099634E-3,-6.147846E-4,-5.0085285E-3],"split_indices":[6,12,12,0,0,0,0],"split_type":[0,0,0,0,0,0,0],"sum_hessian":[3.168E3,1.877E3,1.291E3,1.807E3,7E1,1.268E3,2.3E1],"tree_param":{"num_deleted":"0","num_feature":"25","num_nodes":"7","size_leaf_vector":"1"}},{"base_weights":[-3.0683394E-4,6.770794E-4,-9.232628E-3,-7.5228335E-3,-2.9355602E-3,-1.729533E-4,-1.0650371E-3],"categories":[],"categories_nodes":[],"categories_segments":[],"categories_sizes":[],"default_left":[0,0,0,0,0,0,0],"id":53,"left_children":[1,-1,3,5,-1,-1,-1],"loss_changes":[3.9486948E-1,0E0,1.5781681E-1,1.0310387E-1,0E0,0E0,0E0],"parents":[2147483647,0,0,2,2,3,3],"right_children":[2,-1,4,6,-1,-1,-1],"split_conditions":[2.9262683E-1,6.770794E-4,2E-1,9.575386E-1,-2.9355602E-3,-1.729533E-4,-1.0650371E-3],"split_indices":[6,0,12,6,0,0,0],"split_type":[0,0,0,0,0,0,0],"sum_hessian":[3.196E3,1.248E3,1.948E3,1.886E3,6.2E1,1.463E3,4.23E2],"tree_param":{"num_deleted":"0","num_feature":"25","num_nodes":"7","size_leaf_vector":"1"}},{"base_weights":[-3.1504923E-4,6.4062275E-4,-8.035245E-3,-7.2136684E-3,-3.5866405E-4],"categories":[],"categories_nodes":[],"categories_segments":[],"categories_sizes":[],"default_left":[0,0,0,0,0],"id":54,"left_children":[1,-1,3,-1,-1],"loss_changes":[3.2596225E-1,0E0,2.2256063E-1,0E0,0E0],"parents":[2147483647,0,0,2,2],"right_children":[2,-1,4,-1,-1],"split_conditions":[2.624066E-1,6.4062275E-4,7.941919E-1,-7.2136684E-3,-3.5866405E-4],"split_indices":[6,0,13,0,0],"split_type":[0,0,0,0,0],"sum_hessian":[3.219E3,1.187E3,2.032E3,1.1E1,2.021E3],"tree_param":{"num_deleted":"0","num_feature":"25","num_nodes":"5","size_leaf_vector":"1"}},{"base_weights":[3.0343788E-4,4.2113932E-4,-5.76998E-4],"categories":[],"categories_nodes":[],"categories_segments":[],"categories_sizes":[],"default_left":[0,0,0],"id":55,"left_children":[1,-1,-1],"loss_changes":[3.0846128E-1,0E0,0E0],"parents":[2147483647,0,0],"right_children":[2,-1,-1],"split_conditions":[6.087977E-1,4.2113932E-4,-5.76998E-4],"split_indices":[6,0,0],"split_type":[0,0,0],"sum_hessian":[3.209E3,1.909E3,1.3E3],"tree_param":{"num_deleted":"0","num_feature":"25","num_nodes":"3","size_leaf_vector":"1"}},{"base_weights":[-4.385398E-4,4.106011E-4,-1.152642E-2,-5.0075835E-4,-3.701695E-3],"categories":[],"categories_nodes":[],"categories_segments":[],"categories_sizes":[],"default_left":[0,0,0,0,0],"id":56,"left_children":[1,-1,3,-1,-1],"loss_changes":[3.0256274E-1,0E0,1.2178153E-1,0E0,0E0],"parents":[2147483647,0,0,2,2],"right_children":[2,-1,4,-1,-1],"split_conditions":[5.155332E-1,4.106011E-4,2E-1,-5.0075835E-4,-3.701695E-3],"split_indices":[6,0,12,0,0],"split_type":[0,0,0,0,0],"sum_hessian":[3.149E3,1.764E3,1.385E3,1.355E3,3E1],"tree_param":{"num_deleted":"0","num_feature":"25","num_nodes":"5","size_leaf_vector":"1"}},{"base_weights":[-1.803831E-4,3.7054002E-4,-1.1679606E-2,-6.1892804E-2,-4.9068336E-4,-8.659383E-3,-1.2198737E-3],"categories":[],"categories_nodes":[],"categories_segments":[],"categories_sizes":[],"default_left":[0,0,0,0,0,0,0],"id":57,"left_children":[1,-1,3,5,-1,-1,-1],"loss_changes":[2.7566004E-1,0E0,1.1018363E-1,1.5545675E-1,0E0,0E0,0E0],"parents":[2147483647,0,0,2,2,3,3],"right_children":[2,-1,4,6,-1,-1,-1],"split_conditions":[6.164847E-1,3.7054002E-4,1.4E1,9.61573E-1,-4.9068336E-4,-8.659383E-3,-1.2198737E-3],"split_indices":[6,0,15,13,0,0,0],"split_type":[0,0,0,0,0,0,0],"sum_hessian":[3.151E3,1.893E3,1.258E3,4.2E1,1.216E3,9E0,3.3E1],"tree_param":{"num_deleted":"0","num_feature":"25","num_nodes":"7","size_leaf_vector":"1"}},{"base_weights":[-3.0523737E-5,5.7420664E-5,-1.7851199E-3],"categories":[],"categories_nodes":[],"categories_segments":[],"categories_sizes":[],"default_left":[0,0,0],"id":58,"left_children":[1,-1,-1],"loss_changes":[1.3660014E-1,0E0,0E0],"parents":[2147483647,0,0],"right_children":[2,-1,-1],"split_conditions":[7.307692E-1,5.7420664E-5,-1.7851199E-3],"split_indices":[12,0,0],"split_type":[0,0,0],"sum_hessian":[3.164E3,3.061E3,1.03E2],"tree_param":{"num_deleted":"0","num_feature":"25","num_nodes":"3","size_leaf_vector":"1"}},{"base_weights":[-2.103292E-5,5.993095E-4,-3.246673E-4],"categories":[],"categories_nodes":[],"categories_segments":[],"categories_sizes":[],"default_left":[0,0,0],"id":59,"left_children":[1,-1,-1],"loss_changes":[2.4339665E-1,0E0,0E0],"parents":[2147483647,0,0],"right_children":[2,-1,-1],"split_conditions":[2.4743153E-1,5.993095E-4,-3.246673E-4],"split_indices":[6,0,0],"split_type":[0,0,0],"sum_hessian":[3.137E3,1.093E3,2.044E3],"tree_param":{"num_deleted":"0","num_feature":"25","num_nodes":"3","size_leaf_vector":"1"}},{"base_weights":[-4.1587435E-4,5.878736E-4,-6.2431167E-3,-6.6417805E-3,-2.7713805E-4],"categories":[],"categories_nodes":[],"categories_segments":[],"categories_sizes":[],"default_left":[0,0,0,0,0],"id":60,"left_children":[1,-1,3,-1,-1],"loss_changes":[2.2439237E-1,0E0,1.7604432E-1,0E0,0E0],"parents":[2147483647,0,0,2,2],"right_children":[2,-1,4,-1,-1],"split_conditions":[2.0110705E-1,5.878736E-4,7.3322845E-1,-6.6417805E-3,-2.7713805E-4],"split_indices":[6,0,13,0,0],"split_type":[0,0,0,0,0],"sum_hessian":[3.169E3,1.02E3,2.149E3,1E1,2.139E3],"tree_param":{"num_deleted":"0","num_feature":"25","num_nodes":"5","size_leaf_vector":"1"}},{"base_weights":[1.5519572E-4,7.208313E-4,-3.961205E-3,2.693361E-5,-1.4890703E-2,-1.0710925E-2,-6.6829857E-4],"categories":[],"categories_nodes":[],"categories_segments":[],"categories_sizes":[],"default_left":[0,0,0,0,0,0,0],"id":61,"left_children":[1,-1,3,-1,5,-1,-1],"loss_changes":[1.8990037E-1,0E0,1.2395409E-1,0E0,1.9715275E-1,0E0,0E0],"parents":[2147483647,0,0,2,2,4,4],"right_children":[2,-1,4,-1,6,-1,-1],"split_conditions":[1E0,7.208313E-4,8.8093713E2,2.693361E-5,1.4130034E4,-1.0710925E-2,-6.6829857E-4],"split_indices":[7,0,1,0,21,0,0],"split_type":[0,0,0,0,0,0,0],"sum_hessian":[3.215E3,7.25E2,2.49E3,1.758E3,7.32E2,4E0,7.28E2],"tree_param":{"num_deleted":"0","num_feature":"25","num_nodes":"7","size_leaf_vector":"1"}},{"base_weights":[-6.249216E-4,5.7460526E-3,-1.04951225E-2,3.6569216E-4,-1.5722631E-3,-5.980493E-3,-4.8115963E-4],"categories":[],"categories_nodes":[],"categories_segments":[],"categories_sizes":[],"default_left":[0,0,0,0,0,0,0],"id":62,"left_children":[1,3,5,-1,-1,-1,-1],"loss_changes":[2.0163436E-1,1.10818125E-1,1.05897695E-1,0E0,0E0,0E0,0E0],"parents":[2147483647,0,0,1,1,2,2],"right_children":[2,4,6,-1,-1,-1,-1],"split_conditions":[6.509801E-1,1.5789473E-1,7.3322845E-1,3.6569216E-4,-1.5722631E-3,-5.980493E-3,-4.8115963E-4],"split_indices":[6,12,13,0,0,0,0],"split_type":[0,0,0,0,0,0,0],"sum_hessian":[3.197E3,1.937E3,1.26E3,1.862E3,7.5E1,8E0,1.252E3],"tree_param":{"num_deleted":"0","num_feature":"25","num_nodes":"7","size_leaf_vector":"1"}},{"base_weights":[-5.231735E-4,6.8287196E-4,-4.659753E-3,-3.3942845E-2,-1.3965233E-4,-8.777265E-4,-4.3814178E-3],"categories":[],"categories_nodes":[],"categories_segments":[],"categories_sizes":[],"default_left":[0,0,0,0,0,0,0],"id":63,"left_children":[1,-1,3,5,-1,-1,-1],"loss_changes":[1.8493764E-1,0E0,1.3059308E-1,1.1463681E-1,0E0,0E0,0E0],"parents":[2147483647,0,0,2,2,3,3],"right_children":[2,-1,4,6,-1,-1,-1],"split_conditions":[1E0,6.8287196E-4,1E1,1.5873017E-2,-1.3965233E-4,-8.777265E-4,-4.3814178E-3],"split_indices":[7,0,8,5,0,0,0],"split_type":[0,0,0,0,0,0,0],"sum_hessian":[3.166E3,7.09E2,2.457E3,1.43E2,2.314E3,1.12E2,3.1E1],"tree_param":{"num_deleted":"0","num_feature":"25","num_nodes":"7","size_leaf_vector":"1"}},{"base_weights":[-1.4419839E-4,2.6944207E-4,-4.3511466E-4],"categories":[],"categories_nodes":[],"categories_segments":[],"categories_sizes":[],"default_left":[0,0,0],"id":64,"left_children":[1,-1,-1],"loss_changes":[1.5057968E-1,0E0,0E0],"parents":[2147483647,0,0],"right_children":[2,-1,-1],"split_conditions":[6.509801E-1,2.6944207E-4,-4.3511466E-4],"split_indices":[6,0,0],"split_type":[0,0,0],"sum_hessian":[3.171E3,1.919E3,1.252E3],"tree_param":{"num_deleted":"0","num_feature":"25","num_nodes":"3","size_leaf_vector":"1"}},{"base_weights":[4.2979063E-5,4.1714645E-4,-2.9079404E-4],"categories":[],"categories_nodes":[],"categories_segments":[],"categories_sizes":[],"default_left":[0,0,0],"id":65,"left_children":[1,-1,-1],"loss_changes":[1.5372333E-1,0E0,0E0],"parents":[2147483647,0,0],"right_children":[2,-1,-1],"split_conditions":[3.2019678E-1,4.1714645E-4,-2.9079404E-4],"split_indices":[6,0,0],"split_type":[0,0,0],"sum_hessian":[3.154E3,1.312E3,1.842E3],"tree_param":{"num_deleted":"0","num_feature":"25","num_nodes":"3","size_leaf_vector":"1"}},{"base_weights":[9.816723E-5,2.47049E-4,-4.9605424E-4],"categories":[],"categories_nodes":[],"categories_segments":[],"categories_sizes":[],"default_left":[0,0,0],"id":66,"left_children":[1,-1,-1],"loss_changes":[1.5477084E-1,0E0,0E0],"parents":[2147483647,0,0],"right_children":[2,-1,-1],"split_conditions":[7.738348E-1,2.47049E-4,-4.9605424E-4],"split_indices":[6,0,0],"split_type":[0,0,0],"sum_hessian":[3.198E3,2.163E3,1.035E3],"tree_param":{"num_deleted":"0","num_feature":"25","num_nodes":"3","size_leaf_vector":"1"}},{"base_weights":[-1.375702E-4,4.8110425E-4,-4.540088E-3,-5.1704585E-3,-1.9558855E-4],"categories":[],"categories_nodes":[],"categories_segments":[],"categories_sizes":[],"default_left":[0,0,0,0,0],"id":67,"left_children":[1,-1,3,-1,-1],"loss_changes":[1.3771753E-1,0E0,1.2702085E-1,0E0,0E0],"parents":[2147483647,0,0,2,2],"right_children":[2,-1,4,-1,-1],"split_conditions":[1.7843455E-1,4.8110425E-4,7.3322845E-1,-5.1704585E-3,-1.9558855E-4],"split_indices":[6,0,13,0,0],"split_type":[0,0,0,0,0],"sum_hessian":[3.215E3,9.92E2,2.223E3,1.2E1,2.211E3],"tree_param":{"num_deleted":"0","num_feature":"25","num_nodes":"5","size_leaf_vector":"1"}},{"base_weights":[1.6539248E-4,1.3646215E-3,-1.8048153E-3,2.8536876E-4,-3.7858784E-4],"categories":[],"categories_nodes":[],"categories_segments":[],"categories_sizes":[],"default_left":[0,0,0,0,0],"id":68,"left_children":[1,3,-1,-1,-1],"loss_changes":[1.3599247E-1,1.2043475E-1,0E0,0E0,0E0],"parents":[2147483647,0,0,1,1],"right_children":[2,4,-1,-1,-1],"split_conditions":[7.307692E-1,7.738348E-1,-1.8048153E-3,2.8536876E-4,-3.7858784E-4],"split_indices":[12,6,0,0,0],"split_type":[0,0,0,0,0],"sum_hessian":[3.205E3,3.106E3,9.9E1,2.098E3,1.008E3],"tree_param":{"num_deleted":"0","num_feature":"25","num_nodes":"5","size_leaf_vector":"1"}},{"base_weights":[-6.526892E-5,1.087594E-3,-1.6884974E-3,1.9849325E-4,-6.2604126E-4],"categories":[],"categories_nodes":[],"categories_segments":[],"categories_sizes":[],"default_left":[0,0,0,0,0],"id":69,"left_children":[1,3,-1,-1,-1],"loss_changes":[1.2795782E-1,1.2078639E-1,0E0,0E0,0E0],"parents":[2147483647,0,0,1,1],"right_children":[2,4,-1,-1,-1],"split_conditions":[7.307692E-1,9.36329E-1,-1.6884974E-3,1.9849325E-4,-6.2604126E-4],"split_indices":[12,6,0,0,0],"split_type":[0,0,0,0,0],"sum_hessian":[3.207E3,3.099E3,1.08E2,2.564E3,5.35E2],"tree_param":{"num_deleted":"0","num_feature":"25","num_nodes":"5","size_leaf_vector":"1"}},{"base_weights":[-4.1705245E-4,5.856265E-4,-3.6844646E-3,-1.0630767E-4,-2.4047827E-3],"categories":[],"categories_nodes":[],"categories_segments":[],"categories_sizes":[],"default_left":[0,0,0,0,0],"id":70,"left_children":[1,-1,3,-1,-1],"loss_changes":[1.2535048E-1,0E0,1.6886058E-1,0E0,0E0],"parents":[2147483647,0,0,2,2],"right_children":[2,-1,4,-1,-1],"split_conditions":[-1.1404774E-1,5.856265E-4,7.307692E-1,-1.0630767E-4,-2.4047827E-3],"split_indices":[6,0,12,0,0],"split_type":[0,0,0,0,0],"sum_hessian":[3.181E3,6.68E2,2.513E3,2.431E3,8.2E1],"tree_param":{"num_deleted":"0","num_feature":"25","num_nodes":"5","size_leaf_vector":"1"}},{"base_weights":[-0E0,5.498356E-4,-2.8181758E-3,-7.7138415E-5,-1.9713368E-3],"categories":[],"categories_nodes":[],"categories_segments":[],"categories_sizes":[],"default_left":[0,0,0,0,0],"id":71,"left_children":[1,-1,3,-1,-1],"loss_changes":[1.0014588E-1,0E0,1.1467038E-1,0E0,0E0],"parents":[2147483647,0,0,2,2],"right_children":[2,-1,4,-1,-1],"split_conditions":[-1.1404774E-1,5.498356E-4,9.2E-1,-7.7138415E-5,-1.9713368E-3],"split_indices":[6,0,12,0,0],"split_type":[0,0,0,0,0],"sum_hessian":[3.204E3,6.6E2,2.544E3,2.462E3,8.2E1],"tree_param":{"num_deleted":"0","num_feature":"25","num_nodes":"5","size_leaf_vector":"1"}},{"base_weights":[-1.9207824E-4,-1.4047627E-3,4.714337E-5],"categories":[],"categories_nodes":[],"categories_segments":[],"categories_sizes":[],"default_left":[0,0,0],"id":72,"left_children":[1,-1,-1],"loss_changes":[1.0363785E-1,0E0,0E0],"parents":[2147483647,0,0],"right_children":[2,-1,-1],"split_conditions":[7E0,-1.4047627E-3,4.714337E-5],"split_indices":[8,0,0],"split_type":[0,0,0],"sum_hessian":[3.185E3,1.27E2,3.058E3],"tree_param":{"num_deleted":"0","num_feature":"25","num_nodes":"3","size_leaf_vector":"1"}},{"base_weights":[4.6246964E-4,2.065636E-4,-4.2636853E-4],"categories":[],"categories_nodes":[],"categories_segments":[],"categories_sizes":[],"default_left":[0,0,0],"id":73,"left_children":[1,-1,-1],"loss_changes":[1.05038896E-1,0E0,0E0],"parents":[2147483647,0,0],"right_children":[2,-1,-1],"split_conditions":[8.273798E-1,2.065636E-4,-4.2636853E-4],"split_indices":[6,0,0],"split_type":[0,0,0],"sum_hessian":[3.196E3,2.278E3,9.18E2],"tree_param":{"num_deleted":"0","num_feature":"25","num_nodes":"3","size_leaf_vector":"1"}},{"base_weights":[1.4230052E-4],"categories":[],"categories_nodes":[],"categories_segments":[],"categories_sizes":[],"default_left":[0],"id":74,"left_children":[-1],"loss_changes":[0E0],"parents":[2147483647],"right_children":[-1],"split_conditions":[7.1150257E-6],"split_indices":[0],"split_type":[0],"sum_hessian":[3.152E3],"tree_param":{"num_deleted":"0","num_feature":"25","num_nodes":"1","size_leaf_vector":"1"}},{"base_weights":[1.3727295E-4],"categories":[],"categories_nodes":[],"categories_segments":[],"categories_sizes":[],"default_left":[0],"id":75,"left_children":[-1],"loss_changes":[0E0],"parents":[2147483647],"right_children":[-1],"split_conditions":[6.8636473E-6],"split_indices":[0],"split_type":[0],"sum_hessian":[3.19E3],"tree_param":{"num_deleted":"0","num_feature":"25","num_nodes":"1","size_leaf_vector":"1"}},{"base_weights":[-5.90404E-4,7.268202E-5,-8.030841E-4],"categories":[],"categories_nodes":[],"categories_segments":[],"categories_sizes":[],"default_left":[0,0,0],"id":76,"left_children":[1,-1,-1],"loss_changes":[1.0261764E-1,0E0,0E0],"parents":[2147483647,0,0],"right_children":[2,-1,-1],"split_conditions":[9.6627635E-1,7.268202E-5,-8.030841E-4],"split_indices":[6,0,0],"split_type":[0,0,0],"sum_hessian":[3.197E3,2.819E3,3.78E2],"tree_param":{"num_deleted":"0","num_feature":"25","num_nodes":"3","size_leaf_vector":"1"}},{"base_weights":[-7.3049676E-5],"categories":[],"categories_nodes":[],"categories_segments":[],"categories_sizes":[],"default_left":[0],"id":77,"left_children":[-1],"loss_changes":[0E0],"parents":[2147483647],"right_children":[-1],"split_conditions":[-3.6524839E-6],"split_indices":[0],"split_type":[0],"sum_hessian":[3.155E3],"tree_param":{"num_deleted":"0","num_feature":"25","num_nodes":"1","size_leaf_vector":"1"}},{"base_weights":[-4.1918978E-4],"categories":[],"categories_nodes":[],"categories_segments":[],"categories_sizes":[],"default_left":[0],"id":78,"left_children":[-1],"loss_changes":[0E0],"parents":[2147483647],"right_children":[-1],"split_conditions":[-2.095949E-5],"split_indices":[0],"split_type":[0],"sum_hessian":[3.195E3],"tree_param":{"num_deleted":"0","num_feature":"25","num_nodes":"1","size_leaf_vector":"1"}},{"base_weights":[-2.6066683E-4,5.841873E-6,-4.9818717E-3],"categories":[],"categories_nodes":[],"categories_segments":[],"categories_sizes":[],"default_left":[0,0,0],"id":79,"left_children":[1,-1,-1],"loss_changes":[1.2888674E-1,0E0,0E0],"parents":[2147483647,0,0],"right_children":[2,-1,-1],"split_conditions":[1.6068042E5,5.841873E-6,-4.9818717E-3],"split_indices":[1,0,0],"split_type":[0,0,0],"sum_hessian":[3.169E3,3.157E3,1.2E1],"tree_param":{"num_deleted":"0","num_feature":"25","num_nodes":"3","size_leaf_vector":"1"}},{"base_weights":[2.761829E-5],"categories":[],"categories_nodes":[],"categories_segments":[],"categories_sizes":[],"default_left":[0],"id":80,"left_children":[-1],"loss_changes":[0E0],"parents":[2147483647],"right_children":[-1],"split_conditions":[1.3809145E-6],"split_indices":[0],"split_type":[0],"sum_hessian":[3.192E3],"tree_param":{"num_deleted":"0","num_feature":"25","num_nodes":"1","size_leaf_vector":"1"}},{"base_weights":[-0E0],"categories":[],"categories_nodes":[],"categories_segments":[],"categories_sizes":[],"default_left":[0],"id":81,"left_children":[-1],"loss_changes":[0E0],"parents":[2147483647],"right_children":[-1],"split_conditions":[-0E0],"split_indices":[0],"split_type":[0],"sum_hessian":[3.163E3],"tree_param":{"num_deleted":"0","num_feature":"25","num_nodes":"1","size_leaf_vector":"1"}},{"base_weights":[-8.5517815E-5],"categories":[],"categories_nodes":[],"categories_segments":[],"categories_sizes":[],"default_left":[0],"id":82,"left_children":[-1],"loss_changes":[0E0],"parents":[2147483647],"right_children":[-1],"split_conditions":[-4.2758907E-6],"split_indices":[0],"split_type":[0],"sum_hessian":[3.165E3],"tree_param":{"num_deleted":"0","num_feature":"25","num_nodes":"1","size_leaf_vector":"1"}},{"base_weights":[1.3765685E-4],"categories":[],"categories_nodes":[],"categories_segments":[],"categories_sizes":[],"default_left":[0],"id":83,"left_children":[-1],"loss_changes":[0E0],"parents":[2147483647],"right_children":[-1],"split_conditions":[6.8828426E-6],"split_indices":[0],"split_type":[0],"sum_hessian":[3.212E3],"tree_param":{"num_deleted":"0","num_feature":"25","num_nodes":"1","size_leaf_vector":"1"}},{"base_weights":[-1.4859863E-4],"categories":[],"categories_nodes":[],"categories_segments":[],"categories_sizes":[],"default_left":[0],"id":84,"left_children":[-1],"loss_changes":[0E0],"parents":[2147483647],"right_children":[-1],"split_conditions":[-7.4299314E-6],"split_indices":[0],"split_type":[0],"sum_hessian":[3.217E3],"tree_param":{"num_deleted":"0","num_feature":"25","num_nodes":"1","size_leaf_vector":"1"}},{"base_weights":[-1.6565308E-4],"categories":[],"categories_nodes":[],"categories_segments":[],"categories_sizes":[],"default_left":[0],"id":85,"left_children":[-1],"loss_changes":[0E0],"parents":[2147483647],"right_children":[-1],"split_conditions":[-8.282655E-6],"split_indices":[0],"split_type":[0],"sum_hessian":[3.172E3],"tree_param":{"num_deleted":"0","num_feature":"25","num_nodes":"1","size_leaf_vector":"1"}},{"base_weights":[-3.194404E-4],"categories":[],"categories_nodes":[],"categories_segments":[],"categories_sizes":[],"default_left":[0],"id":86,"left_children":[-1],"loss_changes":[0E0],"parents":[2147483647],"right_children":[-1],"split_conditions":[-1.597202E-5],"split_indices":[0],"split_type":[0],"sum_hessian":[3.152E3],"tree_param":{"num_deleted":"0","num_feature":"25","num_nodes":"1","size_leaf_vector":"1"}},{"base_weights":[-0E0],"categories":[],"categories_nodes":[],"categories_segments":[],"categories_sizes":[],"default_left":[0],"id":87,"left_children":[-1],"loss_changes":[0E0],"parents":[2147483647],"right_children":[-1],"split_conditions":[-0E0],"split_indices":[0],"split_type":[0],"sum_hessian":[3.201E3],"tree_param":{"num_deleted":"0","num_feature":"25","num_nodes":"1","size_leaf_vector":"1"}},{"base_weights":[3.4414517E-4],"categories":[],"categories_nodes":[],"categories_segments":[],"categories_sizes":[],"default_left":[0],"id":88,"left_children":[-1],"loss_changes":[0E0],"parents":[2147483647],"right_children":[-1],"split_conditions":[1.720726E-5],"split_indices":[0],"split_type":[0],"sum_hessian":[3.169E3],"tree_param":{"num_deleted":"0","num_feature":"25","num_nodes":"1","size_leaf_vector":"1"}},{"base_weights":[2.8509228E-4],"categories":[],"categories_nodes":[],"categories_segments":[],"categories_sizes":[],"default_left":[0],"id":89,"left_children":[-1],"loss_changes":[0E0],"parents":[2147483647],"right_children":[-1],"split_conditions":[1.4254614E-5],"split_indices":[0],"split_type":[0],"sum_hessian":[3.201E3],"tree_param":{"num_deleted":"0","num_feature":"25","num_nodes":"1","size_leaf_vector":"1"}},{"base_weights":[3.6787373E-5],"categories":[],"categories_nodes":[],"categories_segments":[],"categories_sizes":[],"default_left":[0],"id":90,"left_children":[-1],"loss_changes":[0E0],"parents":[2147483647],"right_children":[-1],"split_conditions":[1.8393687E-6],"split_indices":[0],"split_type":[0],"sum_hessian":[3.203E3],"tree_param":{"num_deleted":"0","num_feature":"25","num_nodes":"1","size_leaf_vector":"1"}},{"base_weights":[-5.532457E-4,2.1702408E-5,-1.5954686E-3],"categories":[],"categories_nodes":[],"categories_segments":[],"categories_sizes":[],"default_left":[0,0,0],"id":91,"left_children":[1,-1,-1],"loss_changes":[1.0244277E-1,0E0,0E0],"parents":[2147483647,0,0],"right_children":[2,-1,-1],"split_conditions":[2E-1,2.1702408E-5,-1.5954686E-3],"split_indices":[12,0,0],"split_type":[0,0,0],"sum_hessian":[3.206E3,3.106E3,1E2],"tree_param":{"num_deleted":"0","num_feature":"25","num_nodes":"3","size_leaf_vector":"1"}},{"base_weights":[4.1069692E-5],"categories":[],"categories_nodes":[],"categories_segments":[],"categories_sizes":[],"default_left":[0],"id":92,"left_children":[-1],"loss_changes":[0E0],"parents":[2147483647],"right_children":[-1],"split_conditions":[2.0534846E-6],"split_indices":[0],"split_type":[0],"sum_hessian":[3.21E3],"tree_param":{"num_deleted":"0","num_feature":"25","num_nodes":"1","size_leaf_vector":"1"}},{"base_weights":[-5.6002307E-5,4.0724856E-4,-1.9794263E-4],"categories":[],"categories_nodes":[],"categories_segments":[],"categories_sizes":[],"default_left":[0,0,0],"id":93,"left_children":[1,-1,-1],"loss_changes":[1.007563E-1,0E0,0E0],"parents":[2147483647,0,0],"right_children":[2,-1,-1],"split_conditions":[1.8923846E-1,4.0724856E-4,-1.9794263E-4],"split_indices":[6,0,0],"split_type":[0,0,0],"sum_hessian":[3.159E3,1.01E3,2.149E3],"tree_param":{"num_deleted":"0","num_feature":"25","num_nodes":"3","size_leaf_vector":"1"}},{"base_weights":[-1.8647818E-4],"categories":[],"categories_nodes":[],"categories_segments":[],"categories_sizes":[],"default_left":[0],"id":94,"left_children":[-1],"loss_changes":[0E0],"parents":[2147483647],"right_children":[-1],"split_conditions":[-9.32391E-6],"split_indices":[0],"split_type":[0],"sum_hessian":[3.152E3],"tree_param":{"num_deleted":"0","num_feature":"25","num_nodes":"1","size_leaf_vector":"1"}},{"base_weights":[-0E0,5.2670355E-5,-1.504913E-3],"categories":[],"categories_nodes":[],"categories_segments":[],"categories_sizes":[],"default_left":[0,0,0],"id":95,"left_children":[1,-1,-1],"loss_changes":[1.00350745E-1,0E0,0E0],"parents":[2147483647,0,0],